digraph Tree {
node [shape=box, style="filled, rounded", color="black", fontname="helvetica"] ;
edge [fontname="helvetica"] ;
0 [label=<x<SUB>4</SUB> &le; -0.04<br/>squared_error = 0.973<br/>samples = 827<br/>value = -0.033>, fillcolor="#f8dbc7"] ;
1 [label=<x<SUB>5</SUB> &le; 0.157<br/>squared_error = 0.288<br/>samples = 462<br/>value = -0.633>, fillcolor="#fae8da"] ;
0 -> 1 [labeldistance=2.5, labelangle=45, headlabel="True"] ;
2 [label=<x<SUB>0</SUB> &le; 0.697<br/>squared_error = 0.171<br/>samples = 253<br/>value = -0.325>, fillcolor="#f9e1d0"] ;
1 -> 2 ;
3 [label=<x<SUB>1</SUB> &le; 1.286<br/>squared_error = 0.109<br/>samples = 226<br/>value = -0.408>, fillcolor="#f9e3d3"] ;
2 -> 3 ;
4 [label=<x<SUB>5</SUB> &le; -0.598<br/>squared_error = 0.095<br/>samples = 179<br/>value = -0.494>, fillcolor="#fae5d6"] ;
3 -> 4 ;
5 [label=<x<SUB>1</SUB> &le; -1.552<br/>squared_error = 0.086<br/>samples = 122<br/>value = -0.416>, fillcolor="#f9e3d3"] ;
4 -> 5 ;
6 [label=<x<SUB>4</SUB> &le; -1.087<br/>squared_error = 0.022<br/>samples = 19<br/>value = -0.709>, fillcolor="#fbe9dd"] ;
5 -> 6 ;
7 [label=<squared_error = 0.0<br/>samples = 1<br/>value = -1.365>, fillcolor="#fdf7f3"] ;
6 -> 7 ;
8 [label=<x<SUB>0</SUB> &le; 0.543<br/>squared_error = 0.01<br/>samples = 18<br/>value = -0.689>, fillcolor="#fae9dc"] ;
6 -> 8 ;
9 [label=<x<SUB>4</SUB> &le; -0.296<br/>squared_error = 0.002<br/>samples = 8<br/>value = -0.776>, fillcolor="#fbebdf"] ;
8 -> 9 ;
10 [label=<x<SUB>3</SUB> &le; 0.436<br/>squared_error = 0.0<br/>samples = 5<br/>value = -0.818>, fillcolor="#fbece1"] ;
9 -> 10 ;
11 [label=<x<SUB>0</SUB> &le; -0.013<br/>squared_error = 0.0<br/>samples = 3<br/>value = -0.823>, fillcolor="#fbece1"] ;
10 -> 11 ;
12 [label=<x<SUB>3</SUB> &le; 0.429<br/>squared_error = 0.0<br/>samples = 2<br/>value = -0.826>, fillcolor="#fbece1"] ;
11 -> 12 ;
13 [label=<squared_error = 0.0<br/>samples = 1<br/>value = -0.827>, fillcolor="#fbece1"] ;
12 -> 13 ;
14 [label=<squared_error = 0.0<br/>samples = 1<br/>value = -0.824>, fillcolor="#fbece1"] ;
12 -> 14 ;
15 [label=<squared_error = -0.0<br/>samples = 1<br/>value = -0.815>, fillcolor="#fbece0"] ;
11 -> 15 ;
16 [label=<x<SUB>0</SUB> &le; -0.012<br/>squared_error = 0.0<br/>samples = 2<br/>value = -0.811>, fillcolor="#fbece0"] ;
10 -> 16 ;
17 [label=<squared_error = 0.0<br/>samples = 1<br/>value = -0.809>, fillcolor="#fbebe0"] ;
16 -> 17 ;
18 [label=<squared_error = 0.0<br/>samples = 1<br/>value = -0.812>, fillcolor="#fbece0"] ;
16 -> 18 ;
19 [label=<x<SUB>0</SUB> &le; 0.542<br/>squared_error = 0.0<br/>samples = 3<br/>value = -0.738>, fillcolor="#fbeade"] ;
9 -> 19 ;
20 [label=<x<SUB>5</SUB> &le; -0.677<br/>squared_error = 0.0<br/>samples = 2<br/>value = -0.729>, fillcolor="#fbeade"] ;
19 -> 20 ;
21 [label=<squared_error = 0.0<br/>samples = 1<br/>value = -0.724>, fillcolor="#fbeadd"] ;
20 -> 21 ;
22 [label=<squared_error = 0.0<br/>samples = 1<br/>value = -0.73>, fillcolor="#fbeade"] ;
20 -> 22 ;
23 [label=<squared_error = -0.0<br/>samples = 1<br/>value = -0.748>, fillcolor="#fbeade"] ;
19 -> 23 ;
24 [label=<x<SUB>3</SUB> &le; 0.925<br/>squared_error = 0.005<br/>samples = 10<br/>value = -0.618>, fillcolor="#fae7da"] ;
8 -> 24 ;
25 [label=<x<SUB>5</SUB> &le; -0.717<br/>squared_error = 0.001<br/>samples = 8<br/>value = -0.639>, fillcolor="#fae8db"] ;
24 -> 25 ;
26 [label=<x<SUB>3</SUB> &le; 0.698<br/>squared_error = 0.0<br/>samples = 2<br/>value = -0.602>, fillcolor="#fae7d9"] ;
25 -> 26 ;
27 [label=<squared_error = 0.0<br/>samples = 1<br/>value = -0.601>, fillcolor="#fae7d9"] ;
26 -> 27 ;
28 [label=<squared_error = 0.0<br/>samples = 1<br/>value = -0.604>, fillcolor="#fae7d9"] ;
26 -> 28 ;
29 [label=<x<SUB>5</SUB> &le; -0.699<br/>squared_error = 0.001<br/>samples = 6<br/>value = -0.651>, fillcolor="#fae8db"] ;
25 -> 29 ;
30 [label=<x<SUB>2</SUB> &le; 1.287<br/>squared_error = 0.0<br/>samples = 3<br/>value = -0.671>, fillcolor="#fae9dc"] ;
29 -> 30 ;
31 [label=<squared_error = 0.0<br/>samples = 1<br/>value = -0.66>, fillcolor="#fae8db"] ;
30 -> 31 ;
32 [label=<x<SUB>4</SUB> &le; -0.129<br/>squared_error = 0.0<br/>samples = 2<br/>value = -0.683>, fillcolor="#fae9dc"] ;
30 -> 32 ;
33 [label=<squared_error = 0.0<br/>samples = 1<br/>value = -0.68>, fillcolor="#fae9dc"] ;
32 -> 33 ;
34 [label=<squared_error = -0.0<br/>samples = 1<br/>value = -0.689>, fillcolor="#fae9dc"] ;
32 -> 34 ;
35 [label=<x<SUB>0</SUB> &le; 0.547<br/>squared_error = 0.0<br/>samples = 3<br/>value = -0.631>, fillcolor="#fae8da"] ;
29 -> 35 ;
36 [label=<squared_error = 0.0<br/>samples = 2<br/>value = -0.624>, fillcolor="#fae8da"] ;
35 -> 36 ;
37 [label=<squared_error = -0.0<br/>samples = 1<br/>value = -0.645>, fillcolor="#fae8db"] ;
35 -> 37 ;
38 [label=<x<SUB>0</SUB> &le; 0.543<br/>squared_error = 0.002<br/>samples = 2<br/>value = -0.445>, fillcolor="#f9e4d4"] ;
24 -> 38 ;
39 [label=<squared_error = 0.0<br/>samples = 1<br/>value = -0.492>, fillcolor="#fae5d6"] ;
38 -> 39 ;
40 [label=<squared_error = -0.0<br/>samples = 1<br/>value = -0.398>, fillcolor="#f9e3d3"] ;
38 -> 40 ;
41 [label=<x<SUB>3</SUB> &le; -0.734<br/>squared_error = 0.077<br/>samples = 103<br/>value = -0.355>, fillcolor="#f9e2d1"] ;
5 -> 41 ;
42 [label=<x<SUB>1</SUB> &le; -0.008<br/>squared_error = 0.027<br/>samples = 73<br/>value = -0.444>, fillcolor="#f9e4d4"] ;
41 -> 42 ;
43 [label=<x<SUB>3</SUB> &le; -1.011<br/>squared_error = 0.019<br/>samples = 33<br/>value = -0.579>, fillcolor="#fae7d9"] ;
42 -> 43 ;
44 [label=<x<SUB>1</SUB> &le; -0.439<br/>squared_error = 0.001<br/>samples = 19<br/>value = -0.697>, fillcolor="#fae9dd"] ;
43 -> 44 ;
45 [label=<x<SUB>3</SUB> &le; -1.157<br/>squared_error = 0.0<br/>samples = 10<br/>value = -0.723>, fillcolor="#fbeadd"] ;
44 -> 45 ;
46 [label=<squared_error = 0.0<br/>samples = 1<br/>value = -0.748>, fillcolor="#fbeade"] ;
45 -> 46 ;
47 [label=<squared_error = -0.0<br/>samples = 9<br/>value = -0.718>, fillcolor="#fbeadd"] ;
45 -> 47 ;
48 [label=<x<SUB>2</SUB> &le; -0.691<br/>squared_error = 0.0<br/>samples = 9<br/>value = -0.656>, fillcolor="#fae8db"] ;
44 -> 48 ;
49 [label=<x<SUB>3</SUB> &le; -1.111<br/>squared_error = 0.0<br/>samples = 7<br/>value = -0.664>, fillcolor="#fae8db"] ;
48 -> 49 ;
50 [label=<squared_error = 0.0<br/>samples = 1<br/>value = -0.689>, fillcolor="#fae9dc"] ;
49 -> 50 ;
51 [label=<squared_error = 0.0<br/>samples = 6<br/>value = -0.66>, fillcolor="#fae8db"] ;
49 -> 51 ;
52 [label=<squared_error = -0.0<br/>samples = 2<br/>value = -0.63>, fillcolor="#fae8da"] ;
48 -> 52 ;
53 [label=<x<SUB>6</SUB> &le; -0.443<br/>squared_error = 0.007<br/>samples = 14<br/>value = -0.455>, fillcolor="#f9e4d5"] ;
43 -> 53 ;
54 [label=<x<SUB>0</SUB> &le; -0.567<br/>squared_error = 0.0<br/>samples = 4<br/>value = -0.321>, fillcolor="#f9e1d0"] ;
53 -> 54 ;
55 [label=<squared_error = 0.0<br/>samples = 1<br/>value = -0.325>, fillcolor="#f9e1d0"] ;
54 -> 55 ;
56 [label=<x<SUB>4</SUB> &le; -0.831<br/>squared_error = 0.0<br/>samples = 3<br/>value = -0.321>, fillcolor="#f9e1d0"] ;
54 -> 56 ;
57 [label=<x<SUB>4</SUB> &le; -0.887<br/>squared_error = 0.0<br/>samples = 2<br/>value = -0.32>, fillcolor="#f9e1d0"] ;
56 -> 57 ;
58 [label=<squared_error = 0.0<br/>samples = 1<br/>value = -0.322>, fillcolor="#f9e1d0"] ;
57 -> 58 ;
59 [label=<squared_error = -0.0<br/>samples = 1<br/>value = -0.319>, fillcolor="#f9e1d0"] ;
57 -> 59 ;
60 [label=<squared_error = -0.0<br/>samples = 1<br/>value = -0.322>, fillcolor="#f9e1d0"] ;
56 -> 60 ;
61 [label=<x<SUB>3</SUB> &le; -0.956<br/>squared_error = 0.001<br/>samples = 10<br/>value = -0.505>, fillcolor="#fae5d6"] ;
53 -> 61 ;
62 [label=<x<SUB>0</SUB> &le; -1.125<br/>squared_error = 0.0<br/>samples = 2<br/>value = -0.556>, fillcolor="#fae6d8"] ;
61 -> 62 ;
63 [label=<squared_error = 0.0<br/>samples = 1<br/>value = -0.551>, fillcolor="#fae6d8"] ;
62 -> 63 ;
64 [label=<squared_error = -0.0<br/>samples = 1<br/>value = -0.566>, fillcolor="#fae6d8"] ;
62 -> 64 ;
65 [label=<x<SUB>5</SUB> &le; -0.622<br/>squared_error = 0.0<br/>samples = 8<br/>value = -0.493>, fillcolor="#fae5d6"] ;
61 -> 65 ;
66 [label=<x<SUB>6</SUB> &le; -0.394<br/>squared_error = 0.0<br/>samples = 6<br/>value = -0.488>, fillcolor="#fae5d6"] ;
65 -> 66 ;
67 [label=<x<SUB>0</SUB> &le; -1.125<br/>squared_error = 0.0<br/>samples = 3<br/>value = -0.497>, fillcolor="#fae5d6"] ;
66 -> 67 ;
68 [label=<squared_error = 0.0<br/>samples = 1<br/>value = -0.478>, fillcolor="#fae4d5"] ;
67 -> 68 ;
69 [label=<x<SUB>0</SUB> &le; -1.125<br/>squared_error = 0.0<br/>samples = 2<br/>value = -0.5>, fillcolor="#fae5d6"] ;
67 -> 69 ;
70 [label=<squared_error = 0.0<br/>samples = 1<br/>value = -0.498>, fillcolor="#fae5d6"] ;
69 -> 70 ;
71 [label=<squared_error = 0.0<br/>samples = 1<br/>value = -0.501>, fillcolor="#fae5d6"] ;
69 -> 71 ;
72 [label=<x<SUB>0</SUB> &le; -1.125<br/>squared_error = 0.0<br/>samples = 3<br/>value = -0.475>, fillcolor="#fae4d5"] ;
66 -> 72 ;
73 [label=<squared_error = 0.0<br/>samples = 1<br/>value = -0.486>, fillcolor="#fae5d6"] ;
72 -> 73 ;
74 [label=<squared_error = 0.0<br/>samples = 2<br/>value = -0.472>, fillcolor="#fae4d5"] ;
72 -> 74 ;
75 [label=<x<SUB>0</SUB> &le; -1.125<br/>squared_error = 0.0<br/>samples = 2<br/>value = -0.511>, fillcolor="#fae5d6"] ;
65 -> 75 ;
76 [label=<squared_error = 0.0<br/>samples = 1<br/>value = -0.513>, fillcolor="#fae5d6"] ;
75 -> 76 ;
77 [label=<squared_error = 0.0<br/>samples = 1<br/>value = -0.51>, fillcolor="#fae5d6"] ;
75 -> 77 ;
78 [label=<x<SUB>2</SUB> &le; -0.822<br/>squared_error = 0.013<br/>samples = 40<br/>value = -0.358>, fillcolor="#f9e2d1"] ;
42 -> 78 ;
79 [label=<x<SUB>4</SUB> &le; -1.154<br/>squared_error = 0.005<br/>samples = 35<br/>value = -0.402>, fillcolor="#f9e3d3"] ;
78 -> 79 ;
80 [label=<x<SUB>0</SUB> &le; -1.125<br/>squared_error = 0.006<br/>samples = 3<br/>value = -0.571>, fillcolor="#fae6d8"] ;
79 -> 80 ;
81 [label=<squared_error = 0.0<br/>samples = 1<br/>value = -0.677>, fillcolor="#fae9dc"] ;
80 -> 81 ;
82 [label=<x<SUB>4</SUB> &le; -1.244<br/>squared_error = 0.0<br/>samples = 2<br/>value = -0.517>, fillcolor="#fae5d7"] ;
80 -> 82 ;
83 [label=<squared_error = 0.0<br/>samples = 1<br/>value = -0.495>, fillcolor="#fae5d6"] ;
82 -> 83 ;
84 [label=<squared_error = -0.0<br/>samples = 1<br/>value = -0.539>, fillcolor="#fae6d7"] ;
82 -> 84 ;
85 [label=<x<SUB>5</SUB> &le; -0.691<br/>squared_error = 0.001<br/>samples = 32<br/>value = -0.382>, fillcolor="#f9e2d2"] ;
79 -> 85 ;
86 [label=<x<SUB>6</SUB> &le; -0.321<br/>squared_error = 0.001<br/>samples = 8<br/>value = -0.414>, fillcolor="#f9e3d3"] ;
85 -> 86 ;
87 [label=<x<SUB>6</SUB> &le; -0.419<br/>squared_error = 0.0<br/>samples = 5<br/>value = -0.399>, fillcolor="#f9e3d3"] ;
86 -> 87 ;
88 [label=<squared_error = 0.0<br/>samples = 1<br/>value = -0.425>, fillcolor="#f9e3d4"] ;
87 -> 88 ;
89 [label=<squared_error = -0.0<br/>samples = 4<br/>value = -0.395>, fillcolor="#f9e3d3"] ;
87 -> 89 ;
90 [label=<x<SUB>3</SUB> &le; -1.432<br/>squared_error = 0.0<br/>samples = 3<br/>value = -0.442>, fillcolor="#f9e4d4"] ;
86 -> 90 ;
91 [label=<squared_error = 0.0<br/>samples = 2<br/>value = -0.454>, fillcolor="#f9e4d5"] ;
90 -> 91 ;
92 [label=<squared_error = 0.0<br/>samples = 1<br/>value = -0.425>, fillcolor="#f9e3d4"] ;
90 -> 92 ;
93 [label=<x<SUB>3</SUB> &le; -1.357<br/>squared_error = 0.0<br/>samples = 24<br/>value = -0.371>, fillcolor="#f9e2d2"] ;
85 -> 93 ;
94 [label=<x<SUB>5</SUB> &le; -0.69<br/>squared_error = 0.0<br/>samples = 19<br/>value = -0.376>, fillcolor="#f9e2d2"] ;
93 -> 94 ;
95 [label=<squared_error = 0.0<br/>samples = 1<br/>value = -0.337>, fillcolor="#f9e2d1"] ;
94 -> 95 ;
96 [label=<x<SUB>4</SUB> &le; -1.087<br/>squared_error = 0.0<br/>samples = 18<br/>value = -0.378>, fillcolor="#f9e2d2"] ;
94 -> 96 ;
97 [label=<x<SUB>5</SUB> &le; -0.672<br/>squared_error = 0.0<br/>samples = 5<br/>value = -0.395>, fillcolor="#f9e3d3"] ;
96 -> 97 ;
98 [label=<x<SUB>4</SUB> &le; -1.11<br/>squared_error = 0.0<br/>samples = 4<br/>value = -0.389>, fillcolor="#f9e3d2"] ;
97 -> 98 ;
99 [label=<squared_error = 0.0<br/>samples = 3<br/>value = -0.395>, fillcolor="#f9e3d3"] ;
98 -> 99 ;
100 [label=<squared_error = -0.0<br/>samples = 1<br/>value = -0.366>, fillcolor="#f9e2d2"] ;
98 -> 100 ;
101 [label=<squared_error = 0.0<br/>samples = 1<br/>value = -0.425>, fillcolor="#f9e3d4"] ;
97 -> 101 ;
102 [label=<x<SUB>3</SUB> &le; -1.387<br/>squared_error = 0.0<br/>samples = 13<br/>value = -0.374>, fillcolor="#f9e2d2"] ;
96 -> 102 ;
103 [label=<x<SUB>6</SUB> &le; 0.065<br/>squared_error = 0.0<br/>samples = 10<br/>value = -0.376>, fillcolor="#f9e2d2"] ;
102 -> 103 ;
104 [label=<squared_error = 0.0<br/>samples = 1<br/>value = -0.395>, fillcolor="#f9e3d3"] ;
103 -> 104 ;
105 [label=<x<SUB>3</SUB> &le; -1.62<br/>squared_error = 0.0<br/>samples = 9<br/>value = -0.375>, fillcolor="#f9e2d2"] ;
103 -> 105 ;
106 [label=<squared_error = 0.0<br/>samples = 1<br/>value = -0.366>, fillcolor="#f9e2d2"] ;
105 -> 106 ;
107 [label=<x<SUB>0</SUB> &le; -1.124<br/>squared_error = 0.0<br/>samples = 8<br/>value = -0.376>, fillcolor="#f9e2d2"] ;
105 -> 107 ;
108 [label=<x<SUB>4</SUB> &le; -0.151<br/>squared_error = 0.0<br/>samples = 5<br/>value = -0.377>, fillcolor="#f9e2d2"] ;
107 -> 108 ;
109 [label=<x<SUB>0</SUB> &le; -1.124<br/>squared_error = 0.0<br/>samples = 4<br/>value = -0.378>, fillcolor="#f9e2d2"] ;
108 -> 109 ;
110 [label=<squared_error = 0.0<br/>samples = 3<br/>value = -0.378>, fillcolor="#f9e2d2"] ;
109 -> 110 ;
111 [label=<squared_error = 0.0<br/>samples = 1<br/>value = -0.381>, fillcolor="#f9e2d2"] ;
109 -> 111 ;
112 [label=<squared_error = 0.0<br/>samples = 1<br/>value = -0.375>, fillcolor="#f9e2d2"] ;
108 -> 112 ;
113 [label=<x<SUB>5</SUB> &le; -0.617<br/>squared_error = 0.0<br/>samples = 3<br/>value = -0.373>, fillcolor="#f9e2d2"] ;
107 -> 113 ;
114 [label=<squared_error = 0.0<br/>samples = 1<br/>value = -0.375>, fillcolor="#f9e2d2"] ;
113 -> 114 ;
115 [label=<squared_error = -0.0<br/>samples = 2<br/>value = -0.372>, fillcolor="#f9e2d2"] ;
113 -> 115 ;
116 [label=<squared_error = -0.0<br/>samples = 3<br/>value = -0.366>, fillcolor="#f9e2d2"] ;
102 -> 116 ;
117 [label=<x<SUB>6</SUB> &le; -0.072<br/>squared_error = 0.0<br/>samples = 5<br/>value = -0.349>, fillcolor="#f9e2d1"] ;
93 -> 117 ;
118 [label=<squared_error = -0.0<br/>samples = 3<br/>value = -0.337>, fillcolor="#f9e2d1"] ;
117 -> 118 ;
119 [label=<squared_error = 0.0<br/>samples = 2<br/>value = -0.366>, fillcolor="#f9e2d2"] ;
117 -> 119 ;
120 [label=<x<SUB>6</SUB> &le; -0.244<br/>squared_error = 0.0<br/>samples = 5<br/>value = -0.144>, fillcolor="#f8ddca"] ;
78 -> 120 ;
121 [label=<x<SUB>3</SUB> &le; -1.194<br/>squared_error = 0.0<br/>samples = 4<br/>value = -0.151>, fillcolor="#f8decb"] ;
120 -> 121 ;
122 [label=<squared_error = 0.0<br/>samples = 1<br/>value = -0.175>, fillcolor="#f8decb"] ;
121 -> 122 ;
123 [label=<x<SUB>6</SUB> &le; -0.505<br/>squared_error = 0.0<br/>samples = 3<br/>value = -0.145>, fillcolor="#f8ddca"] ;
121 -> 123 ;
124 [label=<squared_error = 0.0<br/>samples = 1<br/>value = -0.143>, fillcolor="#f8ddca"] ;
123 -> 124 ;
125 [label=<squared_error = -0.0<br/>samples = 2<br/>value = -0.146>, fillcolor="#f8ddca"] ;
123 -> 125 ;
126 [label=<squared_error = -0.0<br/>samples = 1<br/>value = -0.11>, fillcolor="#f8ddc9"] ;
120 -> 126 ;
127 [label=<x<SUB>1</SUB> &le; -1.302<br/>squared_error = 0.133<br/>samples = 30<br/>value = -0.13>, fillcolor="#f8ddca"] ;
41 -> 127 ;
128 [label=<x<SUB>2</SUB> &le; 1.463<br/>squared_error = 0.003<br/>samples = 12<br/>value = -0.429>, fillcolor="#f9e3d4"] ;
127 -> 128 ;
129 [label=<x<SUB>6</SUB> &le; -1.078<br/>squared_error = 0.001<br/>samples = 5<br/>value = -0.492>, fillcolor="#fae5d6"] ;
128 -> 129 ;
130 [label=<x<SUB>2</SUB> &le; 1.143<br/>squared_error = 0.0<br/>samples = 2<br/>value = -0.469>, fillcolor="#f9e4d5"] ;
129 -> 130 ;
131 [label=<squared_error = 0.0<br/>samples = 1<br/>value = -0.454>, fillcolor="#f9e4d5"] ;
130 -> 131 ;
132 [label=<squared_error = 0.0<br/>samples = 1<br/>value = -0.483>, fillcolor="#fae5d6"] ;
130 -> 132 ;
133 [label=<x<SUB>3</SUB> &le; 0.414<br/>squared_error = 0.0<br/>samples = 3<br/>value = -0.523>, fillcolor="#fae5d7"] ;
129 -> 133 ;
134 [label=<squared_error = 0.0<br/>samples = 1<br/>value = -0.542>, fillcolor="#fae6d7"] ;
133 -> 134 ;
135 [label=<squared_error = -0.0<br/>samples = 2<br/>value = -0.513>, fillcolor="#fae5d6"] ;
133 -> 135 ;
136 [label=<x<SUB>6</SUB> &le; -1.316<br/>squared_error = 0.001<br/>samples = 7<br/>value = -0.393>, fillcolor="#f9e3d3"] ;
128 -> 136 ;
137 [label=<squared_error = 0.0<br/>samples = 2<br/>value = -0.366>, fillcolor="#f9e2d2"] ;
136 -> 137 ;
138 [label=<x<SUB>2</SUB> &le; 1.484<br/>squared_error = 0.0<br/>samples = 5<br/>value = -0.412>, fillcolor="#f9e3d3"] ;
136 -> 138 ;
139 [label=<squared_error = 0.0<br/>samples = 2<br/>value = -0.395>, fillcolor="#f9e3d3"] ;
138 -> 139 ;
140 [label=<squared_error = -0.0<br/>samples = 3<br/>value = -0.425>, fillcolor="#f9e3d4"] ;
138 -> 140 ;
141 [label=<x<SUB>6</SUB> &le; -0.965<br/>squared_error = 0.118<br/>samples = 18<br/>value = 0.08>, fillcolor="#f7d9c3"] ;
127 -> 141 ;
142 [label=<x<SUB>3</SUB> &le; 0.452<br/>squared_error = 0.102<br/>samples = 6<br/>value = 0.38>, fillcolor="#f6d2b9"] ;
141 -> 142 ;
143 [label=<squared_error = 0.0<br/>samples = 1<br/>value = 0.938>, fillcolor="#f3c7a6"] ;
142 -> 143 ;
144 [label=<x<SUB>5</SUB> &le; -0.684<br/>squared_error = 0.016<br/>samples = 5<br/>value = 0.221>, fillcolor="#f6d6be"] ;
142 -> 144 ;
145 [label=<x<SUB>0</SUB> &le; 0.543<br/>squared_error = 0.004<br/>samples = 3<br/>value = 0.119>, fillcolor="#f7d8c2"] ;
144 -> 145 ;
146 [label=<squared_error = 0.0<br/>samples = 1<br/>value = 0.016>, fillcolor="#f7dac5"] ;
145 -> 146 ;
147 [label=<x<SUB>6</SUB> &le; -1.166<br/>squared_error = 0.001<br/>samples = 2<br/>value = 0.153>, fillcolor="#f7d7c0"] ;
145 -> 147 ;
148 [label=<squared_error = 0.0<br/>samples = 1<br/>value = 0.133>, fillcolor="#f7d8c1"] ;
147 -> 148 ;
149 [label=<squared_error = 0.0<br/>samples = 1<br/>value = 0.192>, fillcolor="#f7d6bf"] ;
147 -> 149 ;
150 [label=<x<SUB>3</SUB> &le; 0.639<br/>squared_error = 0.0<br/>samples = 2<br/>value = 0.357>, fillcolor="#f6d3ba"] ;
144 -> 150 ;
151 [label=<squared_error = 0.0<br/>samples = 1<br/>value = 0.365>, fillcolor="#f6d3b9"] ;
150 -> 151 ;
152 [label=<squared_error = -0.0<br/>samples = 1<br/>value = 0.339>, fillcolor="#f6d3ba"] ;
150 -> 152 ;
153 [label=<x<SUB>6</SUB> &le; -0.542<br/>squared_error = 0.059<br/>samples = 12<br/>value = -0.07>, fillcolor="#f8dcc8"] ;
141 -> 153 ;
154 [label=<x<SUB>3</SUB> &le; 0.113<br/>squared_error = 0.037<br/>samples = 9<br/>value = -0.18>, fillcolor="#f8decb"] ;
153 -> 154 ;
155 [label=<x<SUB>2</SUB> &le; -0.049<br/>squared_error = 0.039<br/>samples = 8<br/>value = -0.133>, fillcolor="#f8ddca"] ;
154 -> 155 ;
156 [label=<x<SUB>2</SUB> &le; -0.308<br/>squared_error = 0.003<br/>samples = 7<br/>value = -0.197>, fillcolor="#f8dfcc"] ;
155 -> 156 ;
157 [label=<x<SUB>0</SUB> &le; -0.568<br/>squared_error = 0.0<br/>samples = 5<br/>value = -0.169>, fillcolor="#f8decb"] ;
156 -> 157 ;
158 [label=<x<SUB>0</SUB> &le; -0.568<br/>squared_error = 0.0<br/>samples = 3<br/>value = -0.18>, fillcolor="#f8decb"] ;
157 -> 158 ;
159 [label=<squared_error = 0.0<br/>samples = 1<br/>value = -0.16>, fillcolor="#f8decb"] ;
158 -> 159 ;
160 [label=<squared_error = 0.0<br/>samples = 2<br/>value = -0.19>, fillcolor="#f8decc"] ;
158 -> 160 ;
161 [label=<squared_error = 0.0<br/>samples = 2<br/>value = -0.16>, fillcolor="#f8decb"] ;
157 -> 161 ;
162 [label=<x<SUB>5</SUB> &le; -0.614<br/>squared_error = 0.001<br/>samples = 2<br/>value = -0.294>, fillcolor="#f9e1cf"] ;
156 -> 162 ;
163 [label=<squared_error = 0.0<br/>samples = 1<br/>value = -0.269>, fillcolor="#f9e0ce"] ;
162 -> 163 ;
164 [label=<squared_error = -0.0<br/>samples = 1<br/>value = -0.319>, fillcolor="#f9e1d0"] ;
162 -> 164 ;
165 [label=<squared_error = -0.0<br/>samples = 1<br/>value = 0.436>, fillcolor="#f6d1b7"] ;
155 -> 165 ;
166 [label=<squared_error = 0.0<br/>samples = 1<br/>value = -0.337>, fillcolor="#f9e2d1"] ;
154 -> 166 ;
167 [label=<x<SUB>3</SUB> &le; -0.286<br/>squared_error = 0.002<br/>samples = 3<br/>value = 0.216>, fillcolor="#f7d6be"] ;
153 -> 167 ;
168 [label=<x<SUB>3</SUB> &le; -0.298<br/>squared_error = 0.0<br/>samples = 2<br/>value = 0.236>, fillcolor="#f6d5be"] ;
167 -> 168 ;
169 [label=<squared_error = 0.0<br/>samples = 1<br/>value = 0.21>, fillcolor="#f7d6bf"] ;
168 -> 169 ;
170 [label=<squared_error = 0.0<br/>samples = 1<br/>value = 0.245>, fillcolor="#f6d5bd"] ;
168 -> 170 ;
171 [label=<squared_error = 0.0<br/>samples = 1<br/>value = 0.133>, fillcolor="#f7d8c1"] ;
167 -> 171 ;
172 [label=<x<SUB>4</SUB> &le; -1.344<br/>squared_error = 0.074<br/>samples = 57<br/>value = -0.662>, fillcolor="#fae8db"] ;
4 -> 172 ;
173 [label=<x<SUB>0</SUB> &le; -1.125<br/>squared_error = 0.009<br/>samples = 4<br/>value = -1.007>, fillcolor="#fcf0e7"] ;
172 -> 173 ;
174 [label=<squared_error = 0.0<br/>samples = 1<br/>value = -1.162>, fillcolor="#fcf3ec"] ;
173 -> 174 ;
175 [label=<x<SUB>6</SUB> &le; -0.764<br/>squared_error = 0.003<br/>samples = 3<br/>value = -0.968>, fillcolor="#fcefe6"] ;
173 -> 175 ;
176 [label=<squared_error = -0.0<br/>samples = 1<br/>value = -0.898>, fillcolor="#fbede3"] ;
175 -> 176 ;
177 [label=<x<SUB>6</SUB> &le; -0.629<br/>squared_error = 0.001<br/>samples = 2<br/>value = -1.01>, fillcolor="#fcf0e7"] ;
175 -> 177 ;
178 [label=<squared_error = 0.0<br/>samples = 1<br/>value = -0.98>, fillcolor="#fcefe6"] ;
177 -> 178 ;
179 [label=<squared_error = -0.0<br/>samples = 1<br/>value = -1.03>, fillcolor="#fcf0e8"] ;
177 -> 179 ;
180 [label=<x<SUB>6</SUB> &le; -1.222<br/>squared_error = 0.065<br/>samples = 53<br/>value = -0.62>, fillcolor="#fae7da"] ;
172 -> 180 ;
181 [label=<x<SUB>0</SUB> &le; 0.544<br/>squared_error = 0.004<br/>samples = 2<br/>value = -0.197>, fillcolor="#f8dfcc"] ;
180 -> 181 ;
182 [label=<squared_error = 0.0<br/>samples = 1<br/>value = -0.307>, fillcolor="#f9e1d0"] ;
181 -> 182 ;
183 [label=<squared_error = -0.0<br/>samples = 1<br/>value = -0.16>, fillcolor="#f8decb"] ;
181 -> 183 ;
184 [label=<x<SUB>1</SUB> &le; -0.008<br/>squared_error = 0.059<br/>samples = 51<br/>value = -0.641>, fillcolor="#fae8db"] ;
180 -> 184 ;
185 [label=<x<SUB>4</SUB> &le; -0.931<br/>squared_error = 0.053<br/>samples = 34<br/>value = -0.72>, fillcolor="#fbeadd"] ;
184 -> 185 ;
186 [label=<squared_error = 0.0<br/>samples = 1<br/>value = 0.224>, fillcolor="#f6d6be"] ;
185 -> 186 ;
187 [label=<x<SUB>3</SUB> &le; -0.392<br/>squared_error = 0.035<br/>samples = 33<br/>value = -0.739>, fillcolor="#fbeade"] ;
185 -> 187 ;
188 [label=<x<SUB>5</SUB> &le; -0.319<br/>squared_error = 0.006<br/>samples = 14<br/>value = -0.861>, fillcolor="#fbede2"] ;
187 -> 188 ;
189 [label=<x<SUB>0</SUB> &le; -1.126<br/>squared_error = 0.001<br/>samples = 13<br/>value = -0.846>, fillcolor="#fbece2"] ;
188 -> 189 ;
190 [label=<squared_error = 0.0<br/>samples = 1<br/>value = -0.953>, fillcolor="#fceee5"] ;
189 -> 190 ;
191 [label=<x<SUB>4</SUB> &le; -0.608<br/>squared_error = 0.0<br/>samples = 12<br/>value = -0.841>, fillcolor="#fbece1"] ;
189 -> 191 ;
192 [label=<x<SUB>4</SUB> &le; -0.887<br/>squared_error = 0.0<br/>samples = 4<br/>value = -0.859>, fillcolor="#fbede2"] ;
191 -> 192 ;
193 [label=<x<SUB>0</SUB> &le; -1.124<br/>squared_error = 0.0<br/>samples = 3<br/>value = -0.852>, fillcolor="#fbece2"] ;
192 -> 193 ;
194 [label=<squared_error = 0.0<br/>samples = 2<br/>value = -0.853>, fillcolor="#fbece2"] ;
193 -> 194 ;
195 [label=<squared_error = 0.0<br/>samples = 1<br/>value = -0.851>, fillcolor="#fbece2"] ;
193 -> 195 ;
196 [label=<squared_error = 0.0<br/>samples = 1<br/>value = -0.895>, fillcolor="#fbede3"] ;
192 -> 196 ;
197 [label=<x<SUB>6</SUB> &le; 0.787<br/>squared_error = 0.0<br/>samples = 8<br/>value = -0.833>, fillcolor="#fbece1"] ;
191 -> 197 ;
198 [label=<squared_error = 0.0<br/>samples = 3<br/>value = -0.83>, fillcolor="#fbece1"] ;
197 -> 198 ;
199 [label=<squared_error = -0.0<br/>samples = 5<br/>value = -0.836>, fillcolor="#fbece1"] ;
197 -> 199 ;
200 [label=<squared_error = -0.0<br/>samples = 1<br/>value = -1.188>, fillcolor="#fdf3ed"] ;
188 -> 200 ;
201 [label=<x<SUB>1</SUB> &le; -0.87<br/>squared_error = 0.037<br/>samples = 19<br/>value = -0.632>, fillcolor="#fae8da"] ;
187 -> 201 ;
202 [label=<x<SUB>4</SUB> &le; -0.218<br/>squared_error = 0.004<br/>samples = 18<br/>value = -0.668>, fillcolor="#fae8dc"] ;
201 -> 202 ;
203 [label=<x<SUB>2</SUB> &le; 1.34<br/>squared_error = 0.001<br/>samples = 13<br/>value = -0.701>, fillcolor="#fae9dd"] ;
202 -> 203 ;
204 [label=<x<SUB>2</SUB> &le; 1.291<br/>squared_error = 0.0<br/>samples = 7<br/>value = -0.722>, fillcolor="#fbeadd"] ;
203 -> 204 ;
205 [label=<x<SUB>4</SUB> &le; -0.508<br/>squared_error = 0.0<br/>samples = 6<br/>value = -0.714>, fillcolor="#fbe9dd"] ;
204 -> 205 ;
206 [label=<x<SUB>5</SUB> &le; -0.434<br/>squared_error = 0.0<br/>samples = 4<br/>value = -0.724>, fillcolor="#fbeadd"] ;
205 -> 206 ;
207 [label=<squared_error = 0.0<br/>samples = 3<br/>value = -0.718>, fillcolor="#fbeadd"] ;
206 -> 207 ;
208 [label=<squared_error = -0.0<br/>samples = 1<br/>value = -0.748>, fillcolor="#fbeade"] ;
206 -> 208 ;
209 [label=<squared_error = 0.0<br/>samples = 2<br/>value = -0.689>, fillcolor="#fae9dc"] ;
205 -> 209 ;
210 [label=<squared_error = -0.0<br/>samples = 1<br/>value = -0.748>, fillcolor="#fbeade"] ;
204 -> 210 ;
211 [label=<x<SUB>3</SUB> &le; 1.354<br/>squared_error = 0.001<br/>samples = 6<br/>value = -0.683>, fillcolor="#fae9dc"] ;
203 -> 211 ;
212 [label=<x<SUB>4</SUB> &le; -0.285<br/>squared_error = 0.0<br/>samples = 2<br/>value = -0.65>, fillcolor="#fae8db"] ;
211 -> 212 ;
213 [label=<squared_error = 0.0<br/>samples = 1<br/>value = -0.66>, fillcolor="#fae8db"] ;
212 -> 213 ;
214 [label=<squared_error = -0.0<br/>samples = 1<br/>value = -0.63>, fillcolor="#fae8da"] ;
212 -> 214 ;
215 [label=<x<SUB>3</SUB> &le; 1.368<br/>squared_error = 0.0<br/>samples = 4<br/>value = -0.697>, fillcolor="#fae9dd"] ;
211 -> 215 ;
216 [label=<squared_error = 0.0<br/>samples = 3<br/>value = -0.689>, fillcolor="#fae9dc"] ;
215 -> 216 ;
217 [label=<squared_error = -0.0<br/>samples = 1<br/>value = -0.718>, fillcolor="#fbeadd"] ;
215 -> 217 ;
218 [label=<x<SUB>5</SUB> &le; -0.504<br/>squared_error = 0.0<br/>samples = 5<br/>value = -0.562>, fillcolor="#fae6d8"] ;
202 -> 218 ;
219 [label=<squared_error = 0.0<br/>samples = 2<br/>value = -0.542>, fillcolor="#fae6d7"] ;
218 -> 219 ;
220 [label=<x<SUB>4</SUB> &le; -0.185<br/>squared_error = 0.0<br/>samples = 3<br/>value = -0.581>, fillcolor="#fae7d9"] ;
218 -> 220 ;
221 [label=<squared_error = 0.0<br/>samples = 1<br/>value = -0.601>, fillcolor="#fae7d9"] ;
220 -> 221 ;
222 [label=<squared_error = -0.0<br/>samples = 2<br/>value = -0.572>, fillcolor="#fae6d8"] ;
220 -> 222 ;
223 [label=<squared_error = 0.0<br/>samples = 1<br/>value = 0.268>, fillcolor="#f6d5bd"] ;
201 -> 223 ;
224 [label=<x<SUB>2</SUB> &le; -0.872<br/>squared_error = 0.037<br/>samples = 17<br/>value = -0.496>, fillcolor="#fae5d6"] ;
184 -> 224 ;
225 [label=<x<SUB>5</SUB> &le; -0.359<br/>squared_error = 0.018<br/>samples = 15<br/>value = -0.547>, fillcolor="#fae6d8"] ;
224 -> 225 ;
226 [label=<x<SUB>0</SUB> &le; -1.123<br/>squared_error = 0.009<br/>samples = 11<br/>value = -0.487>, fillcolor="#fae5d6"] ;
225 -> 226 ;
227 [label=<x<SUB>5</SUB> &le; -0.531<br/>squared_error = 0.003<br/>samples = 9<br/>value = -0.461>, fillcolor="#f9e4d5"] ;
226 -> 227 ;
228 [label=<x<SUB>3</SUB> &le; -1.681<br/>squared_error = 0.0<br/>samples = 5<br/>value = -0.407>, fillcolor="#f9e3d3"] ;
227 -> 228 ;
229 [label=<squared_error = -0.0<br/>samples = 3<br/>value = -0.395>, fillcolor="#f9e3d3"] ;
228 -> 229 ;
230 [label=<x<SUB>1</SUB> &le; 0.639<br/>squared_error = 0.0<br/>samples = 2<br/>value = -0.435>, fillcolor="#f9e4d4"] ;
228 -> 230 ;
231 [label=<squared_error = 0.0<br/>samples = 1<br/>value = -0.445>, fillcolor="#f9e4d4"] ;
230 -> 231 ;
232 [label=<squared_error = 0.0<br/>samples = 1<br/>value = -0.425>, fillcolor="#f9e3d4"] ;
230 -> 232 ;
233 [label=<x<SUB>0</SUB> &le; -1.125<br/>squared_error = 0.001<br/>samples = 4<br/>value = -0.509>, fillcolor="#fae5d6"] ;
227 -> 233 ;
234 [label=<squared_error = 0.0<br/>samples = 1<br/>value = -0.554>, fillcolor="#fae6d8"] ;
233 -> 234 ;
235 [label=<x<SUB>6</SUB> &le; -0.258<br/>squared_error = 0.0<br/>samples = 3<br/>value = -0.494>, fillcolor="#fae5d6"] ;
233 -> 235 ;
236 [label=<squared_error = -0.0<br/>samples = 2<br/>value = -0.495>, fillcolor="#fae5d6"] ;
235 -> 236 ;
237 [label=<squared_error = -0.0<br/>samples = 1<br/>value = -0.489>, fillcolor="#fae5d6"] ;
235 -> 237 ;
238 [label=<x<SUB>2</SUB> &le; -1.057<br/>squared_error = 0.011<br/>samples = 2<br/>value = -0.676>, fillcolor="#fae9dc"] ;
226 -> 238 ;
239 [label=<squared_error = 0.0<br/>samples = 1<br/>value = -0.572>, fillcolor="#fae6d8"] ;
238 -> 239 ;
240 [label=<squared_error = -0.0<br/>samples = 1<br/>value = -0.78>, fillcolor="#fbebdf"] ;
238 -> 240 ;
241 [label=<x<SUB>4</SUB> &le; -1.199<br/>squared_error = 0.011<br/>samples = 4<br/>value = -0.694>, fillcolor="#fae9dc"] ;
225 -> 241 ;
242 [label=<x<SUB>3</SUB> &le; -1.097<br/>squared_error = 0.002<br/>samples = 2<br/>value = -0.78>, fillcolor="#fbebdf"] ;
241 -> 242 ;
243 [label=<squared_error = 0.0<br/>samples = 1<br/>value = -0.739>, fillcolor="#fbeade"] ;
242 -> 243 ;
244 [label=<squared_error = -0.0<br/>samples = 1<br/>value = -0.821>, fillcolor="#fbece1"] ;
242 -> 244 ;
245 [label=<x<SUB>5</SUB> &le; -0.075<br/>squared_error = 0.0<br/>samples = 2<br/>value = -0.578>, fillcolor="#fae7d9"] ;
241 -> 245 ;
246 [label=<squared_error = 0.0<br/>samples = 1<br/>value = -0.598>, fillcolor="#fae7d9"] ;
245 -> 246 ;
247 [label=<squared_error = -0.0<br/>samples = 1<br/>value = -0.569>, fillcolor="#fae6d8"] ;
245 -> 247 ;
248 [label=<x<SUB>0</SUB> &le; -1.125<br/>squared_error = 0.0<br/>samples = 2<br/>value = -0.089>, fillcolor="#f8dcc8"] ;
224 -> 248 ;
249 [label=<squared_error = 0.0<br/>samples = 1<br/>value = -0.069>, fillcolor="#f8dcc8"] ;
248 -> 249 ;
250 [label=<squared_error = -0.0<br/>samples = 1<br/>value = -0.099>, fillcolor="#f8ddc9"] ;
248 -> 250 ;
251 [label=<x<SUB>2</SUB> &le; -1.032<br/>squared_error = 0.023<br/>samples = 47<br/>value = -0.076>, fillcolor="#f8dcc8"] ;
3 -> 251 ;
252 [label=<x<SUB>5</SUB> &le; -0.279<br/>squared_error = 0.01<br/>samples = 29<br/>value = -0.163>, fillcolor="#f8decb"] ;
251 -> 252 ;
253 [label=<x<SUB>3</SUB> &le; -1.691<br/>squared_error = 0.005<br/>samples = 27<br/>value = -0.149>, fillcolor="#f8deca"] ;
252 -> 253 ;
254 [label=<x<SUB>3</SUB> &le; -1.759<br/>squared_error = 0.004<br/>samples = 22<br/>value = -0.166>, fillcolor="#f8decb"] ;
253 -> 254 ;
255 [label=<x<SUB>2</SUB> &le; -1.077<br/>squared_error = 0.001<br/>samples = 3<br/>value = -0.272>, fillcolor="#f9e0cf"] ;
254 -> 255 ;
256 [label=<x<SUB>0</SUB> &le; -1.125<br/>squared_error = 0.0<br/>samples = 2<br/>value = -0.248>, fillcolor="#f9e0ce"] ;
255 -> 256 ;
257 [label=<squared_error = 0.0<br/>samples = 1<br/>value = -0.26>, fillcolor="#f9e0ce"] ;
256 -> 257 ;
258 [label=<squared_error = 0.0<br/>samples = 1<br/>value = -0.237>, fillcolor="#f8dfcd"] ;
256 -> 258 ;
259 [label=<squared_error = -0.0<br/>samples = 1<br/>value = -0.319>, fillcolor="#f9e1d0"] ;
255 -> 259 ;
260 [label=<x<SUB>6</SUB> &le; 0.582<br/>squared_error = 0.003<br/>samples = 19<br/>value = -0.156>, fillcolor="#f8decb"] ;
254 -> 260 ;
261 [label=<x<SUB>5</SUB> &le; -0.475<br/>squared_error = 0.002<br/>samples = 18<br/>value = -0.147>, fillcolor="#f8deca"] ;
260 -> 261 ;
262 [label=<x<SUB>3</SUB> &le; -1.697<br/>squared_error = 0.001<br/>samples = 17<br/>value = -0.137>, fillcolor="#f8ddca"] ;
261 -> 262 ;
263 [label=<x<SUB>3</SUB> &le; -1.726<br/>squared_error = 0.0<br/>samples = 15<br/>value = -0.145>, fillcolor="#f8ddca"] ;
262 -> 263 ;
264 [label=<x<SUB>0</SUB> &le; -1.125<br/>squared_error = 0.0<br/>samples = 6<br/>value = -0.164>, fillcolor="#f8decb"] ;
263 -> 264 ;
265 [label=<squared_error = 0.0<br/>samples = 5<br/>value = -0.16>, fillcolor="#f8decb"] ;
264 -> 265 ;
266 [label=<squared_error = 0.0<br/>samples = 1<br/>value = -0.19>, fillcolor="#f8decc"] ;
264 -> 266 ;
267 [label=<x<SUB>4</SUB> &le; -0.954<br/>squared_error = 0.0<br/>samples = 9<br/>value = -0.134>, fillcolor="#f8ddca"] ;
263 -> 267 ;
268 [label=<squared_error = 0.0<br/>samples = 1<br/>value = -0.143>, fillcolor="#f8ddca"] ;
267 -> 268 ;
269 [label=<squared_error = 0.0<br/>samples = 8<br/>value = -0.131>, fillcolor="#f8ddca"] ;
267 -> 269 ;
270 [label=<squared_error = -0.0<br/>samples = 2<br/>value = -0.043>, fillcolor="#f8dbc7"] ;
262 -> 270 ;
271 [label=<squared_error = -0.0<br/>samples = 1<br/>value = -0.243>, fillcolor="#f9e0ce"] ;
261 -> 271 ;
272 [label=<squared_error = 0.0<br/>samples = 1<br/>value = -0.287>, fillcolor="#f9e0cf"] ;
260 -> 272 ;
273 [label=<x<SUB>0</SUB> &le; -1.124<br/>squared_error = 0.006<br/>samples = 5<br/>value = -0.062>, fillcolor="#f8dcc8"] ;
253 -> 273 ;
274 [label=<x<SUB>3</SUB> &le; -1.59<br/>squared_error = 0.003<br/>samples = 4<br/>value = -0.039>, fillcolor="#f8dbc7"] ;
273 -> 274 ;
275 [label=<x<SUB>3</SUB> &le; -1.672<br/>squared_error = 0.001<br/>samples = 3<br/>value = -0.062>, fillcolor="#f8dcc8"] ;
274 -> 275 ;
276 [label=<squared_error = -0.0<br/>samples = 2<br/>value = -0.043>, fillcolor="#f8dbc7"] ;
275 -> 276 ;
277 [label=<squared_error = 0.0<br/>samples = 1<br/>value = -0.09>, fillcolor="#f8dcc8"] ;
275 -> 277 ;
278 [label=<squared_error = 0.0<br/>samples = 1<br/>value = 0.072>, fillcolor="#f7d9c3"] ;
274 -> 278 ;
279 [label=<squared_error = -0.0<br/>samples = 1<br/>value = -0.199>, fillcolor="#f8dfcc"] ;
273 -> 279 ;
280 [label=<x<SUB>5</SUB> &le; 0.011<br/>squared_error = 0.01<br/>samples = 2<br/>value = -0.479>, fillcolor="#fae5d5"] ;
252 -> 280 ;
281 [label=<squared_error = 0.0<br/>samples = 1<br/>value = -0.378>, fillcolor="#f9e2d2"] ;
280 -> 281 ;
282 [label=<squared_error = 0.0<br/>samples = 1<br/>value = -0.58>, fillcolor="#fae7d9"] ;
280 -> 282 ;
283 [label=<x<SUB>5</SUB> &le; -0.642<br/>squared_error = 0.013<br/>samples = 18<br/>value = 0.059>, fillcolor="#f7d9c4"] ;
251 -> 283 ;
284 [label=<x<SUB>5</SUB> &le; -0.705<br/>squared_error = 0.003<br/>samples = 10<br/>value = 0.006>, fillcolor="#f7dac5"] ;
283 -> 284 ;
285 [label=<x<SUB>2</SUB> &le; -0.991<br/>squared_error = 0.0<br/>samples = 2<br/>value = -0.074>, fillcolor="#f8dcc8"] ;
284 -> 285 ;
286 [label=<squared_error = 0.0<br/>samples = 1<br/>value = -0.043>, fillcolor="#f8dbc7"] ;
285 -> 286 ;
287 [label=<squared_error = 0.0<br/>samples = 1<br/>value = -0.084>, fillcolor="#f8dcc8"] ;
285 -> 287 ;
288 [label=<x<SUB>5</SUB> &le; -0.663<br/>squared_error = 0.002<br/>samples = 8<br/>value = 0.033>, fillcolor="#f7dac4"] ;
284 -> 288 ;
289 [label=<x<SUB>3</SUB> &le; -1.551<br/>squared_error = 0.001<br/>samples = 6<br/>value = 0.056>, fillcolor="#f7d9c4"] ;
288 -> 289 ;
290 [label=<x<SUB>4</SUB> &le; -0.374<br/>squared_error = 0.0<br/>samples = 5<br/>value = 0.04>, fillcolor="#f7dac4"] ;
289 -> 290 ;
291 [label=<squared_error = 0.0<br/>samples = 4<br/>value = 0.045>, fillcolor="#f7d9c4"] ;
290 -> 291 ;
292 [label=<squared_error = -0.0<br/>samples = 1<br/>value = 0.016>, fillcolor="#f7dac5"] ;
290 -> 292 ;
293 [label=<squared_error = 0.0<br/>samples = 1<br/>value = 0.104>, fillcolor="#f7d8c2"] ;
289 -> 293 ;
294 [label=<squared_error = 0.0<br/>samples = 2<br/>value = -0.013>, fillcolor="#f8dbc6"] ;
288 -> 294 ;
295 [label=<x<SUB>5</SUB> &le; -0.024<br/>squared_error = 0.017<br/>samples = 8<br/>value = 0.123>, fillcolor="#f7d8c1"] ;
283 -> 295 ;
296 [label=<x<SUB>3</SUB> &le; -1.368<br/>squared_error = 0.006<br/>samples = 7<br/>value = 0.153>, fillcolor="#f7d7c0"] ;
295 -> 296 ;
297 [label=<x<SUB>0</SUB> &le; -1.124<br/>squared_error = 0.002<br/>samples = 5<br/>value = 0.122>, fillcolor="#f7d8c1"] ;
296 -> 297 ;
298 [label=<x<SUB>4</SUB> &le; -0.619<br/>squared_error = 0.0<br/>samples = 3<br/>value = 0.092>, fillcolor="#f7d8c2"] ;
297 -> 298 ;
299 [label=<squared_error = 0.0<br/>samples = 1<br/>value = 0.122>, fillcolor="#f7d8c2"] ;
298 -> 299 ;
300 [label=<x<SUB>0</SUB> &le; -1.125<br/>squared_error = 0.0<br/>samples = 2<br/>value = 0.077>, fillcolor="#f7d9c3"] ;
298 -> 300 ;
301 [label=<squared_error = 0.0<br/>samples = 1<br/>value = 0.078>, fillcolor="#f7d9c3"] ;
300 -> 301 ;
302 [label=<squared_error = 0.0<br/>samples = 1<br/>value = 0.075>, fillcolor="#f7d9c3"] ;
300 -> 302 ;
303 [label=<x<SUB>3</SUB> &le; -1.455<br/>squared_error = 0.0<br/>samples = 2<br/>value = 0.168>, fillcolor="#f7d7c0"] ;
297 -> 303 ;
304 [label=<squared_error = 0.0<br/>samples = 1<br/>value = 0.157>, fillcolor="#f7d7c0"] ;
303 -> 304 ;
305 [label=<squared_error = 0.0<br/>samples = 1<br/>value = 0.201>, fillcolor="#f7d6bf"] ;
303 -> 305 ;
306 [label=<x<SUB>0</SUB> &le; -0.846<br/>squared_error = 0.0<br/>samples = 2<br/>value = 0.308>, fillcolor="#f6d4bb"] ;
296 -> 306 ;
307 [label=<squared_error = 0.0<br/>samples = 1<br/>value = 0.324>, fillcolor="#f6d4bb"] ;
306 -> 307 ;
308 [label=<squared_error = -0.0<br/>samples = 1<br/>value = 0.292>, fillcolor="#f6d4bc"] ;
306 -> 308 ;
309 [label=<squared_error = 0.0<br/>samples = 1<br/>value = -0.237>, fillcolor="#f8dfcd"] ;
295 -> 309 ;
310 [label=<x<SUB>1</SUB> &le; -1.087<br/>squared_error = 0.095<br/>samples = 27<br/>value = 0.443>, fillcolor="#f6d1b7"] ;
2 -> 310 ;
311 [label=<x<SUB>0</SUB> &le; 0.822<br/>squared_error = 0.099<br/>samples = 4<br/>value = -0.119>, fillcolor="#f8ddc9"] ;
310 -> 311 ;
312 [label=<squared_error = 0.0<br/>samples = 1<br/>value = -0.689>, fillcolor="#fae9dc"] ;
311 -> 312 ;
313 [label=<x<SUB>6</SUB> &le; -1.125<br/>squared_error = 0.022<br/>samples = 3<br/>value = 0.023>, fillcolor="#f7dac5"] ;
311 -> 313 ;
314 [label=<squared_error = 0.0<br/>samples = 1<br/>value = 0.28>, fillcolor="#f6d5bc"] ;
313 -> 314 ;
315 [label=<x<SUB>3</SUB> &le; 0.521<br/>squared_error = 0.0<br/>samples = 2<br/>value = -0.062>, fillcolor="#f8dcc8"] ;
313 -> 315 ;
316 [label=<squared_error = 0.0<br/>samples = 1<br/>value = -0.043>, fillcolor="#f8dbc7"] ;
315 -> 316 ;
317 [label=<squared_error = 0.0<br/>samples = 1<br/>value = -0.072>, fillcolor="#f8dcc8"] ;
315 -> 317 ;
318 [label=<x<SUB>0</SUB> &le; 1.24<br/>squared_error = 0.041<br/>samples = 23<br/>value = 0.526>, fillcolor="#f5cfb4"] ;
310 -> 318 ;
319 [label=<x<SUB>1</SUB> &le; -0.87<br/>squared_error = 0.027<br/>samples = 21<br/>value = 0.563>, fillcolor="#f5cfb3"] ;
318 -> 319 ;
320 [label=<x<SUB>3</SUB> &le; 0.656<br/>squared_error = 0.008<br/>samples = 9<br/>value = 0.427>, fillcolor="#f6d1b7"] ;
319 -> 320 ;
321 [label=<x<SUB>6</SUB> &le; -1.078<br/>squared_error = 0.004<br/>samples = 3<br/>value = 0.324>, fillcolor="#f6d4bb"] ;
320 -> 321 ;
322 [label=<squared_error = 0.0<br/>samples = 1<br/>value = 0.221>, fillcolor="#f6d6be"] ;
321 -> 322 ;
323 [label=<x<SUB>5</SUB> &le; -0.72<br/>squared_error = 0.0<br/>samples = 2<br/>value = 0.359>, fillcolor="#f6d3ba"] ;
321 -> 323 ;
324 [label=<squared_error = 0.0<br/>samples = 1<br/>value = 0.368>, fillcolor="#f6d3b9"] ;
323 -> 324 ;
325 [label=<squared_error = -0.0<br/>samples = 1<br/>value = 0.339>, fillcolor="#f6d3ba"] ;
323 -> 325 ;
326 [label=<x<SUB>6</SUB> &le; -1.057<br/>squared_error = 0.004<br/>samples = 6<br/>value = 0.468>, fillcolor="#f5d1b6"] ;
320 -> 326 ;
327 [label=<x<SUB>3</SUB> &le; 0.763<br/>squared_error = 0.001<br/>samples = 5<br/>value = 0.486>, fillcolor="#f5d0b5"] ;
326 -> 327 ;
328 [label=<x<SUB>3</SUB> &le; 0.74<br/>squared_error = 0.002<br/>samples = 2<br/>value = 0.456>, fillcolor="#f5d1b6"] ;
327 -> 328 ;
329 [label=<squared_error = 0.0<br/>samples = 1<br/>value = 0.515>, fillcolor="#f5d0b4"] ;
328 -> 329 ;
330 [label=<squared_error = 0.0<br/>samples = 1<br/>value = 0.427>, fillcolor="#f6d1b7"] ;
328 -> 330 ;
331 [label=<x<SUB>3</SUB> &le; 0.824<br/>squared_error = 0.0<br/>samples = 3<br/>value = 0.501>, fillcolor="#f5d0b5"] ;
327 -> 331 ;
332 [label=<squared_error = 0.0<br/>samples = 2<br/>value = 0.486>, fillcolor="#f5d0b5"] ;
331 -> 332 ;
333 [label=<squared_error = -0.0<br/>samples = 1<br/>value = 0.515>, fillcolor="#f5d0b4"] ;
331 -> 333 ;
334 [label=<squared_error = -0.0<br/>samples = 1<br/>value = 0.31>, fillcolor="#f6d4bb"] ;
326 -> 334 ;
335 [label=<x<SUB>2</SUB> &le; 1.134<br/>squared_error = 0.016<br/>samples = 12<br/>value = 0.674>, fillcolor="#f5ccaf"] ;
319 -> 335 ;
336 [label=<x<SUB>4</SUB> &le; -0.497<br/>squared_error = 0.009<br/>samples = 6<br/>value = 0.59>, fillcolor="#f5ceb2"] ;
335 -> 336 ;
337 [label=<squared_error = 0.0<br/>samples = 1<br/>value = 0.368>, fillcolor="#f6d3b9"] ;
336 -> 337 ;
338 [label=<x<SUB>0</SUB> &le; 1.105<br/>squared_error = 0.003<br/>samples = 5<br/>value = 0.618>, fillcolor="#f5cdb1"] ;
336 -> 338 ;
339 [label=<x<SUB>2</SUB> &le; 0.39<br/>squared_error = 0.002<br/>samples = 4<br/>value = 0.594>, fillcolor="#f5ceb2"] ;
338 -> 339 ;
340 [label=<squared_error = 0.0<br/>samples = 1<br/>value = 0.515>, fillcolor="#f5d0b4"] ;
339 -> 340 ;
341 [label=<x<SUB>3</SUB> &le; 0.554<br/>squared_error = 0.001<br/>samples = 3<br/>value = 0.609>, fillcolor="#f5ceb1"] ;
339 -> 341 ;
342 [label=<squared_error = 0.0<br/>samples = 1<br/>value = 0.662>, fillcolor="#f5ccb0"] ;
341 -> 342 ;
343 [label=<x<SUB>2</SUB> &le; 0.999<br/>squared_error = 0.0<br/>samples = 2<br/>value = 0.596>, fillcolor="#f5ceb2"] ;
341 -> 343 ;
344 [label=<squared_error = 0.0<br/>samples = 1<br/>value = 0.603>, fillcolor="#f5ceb2"] ;
343 -> 344 ;
345 [label=<squared_error = -0.0<br/>samples = 1<br/>value = 0.574>, fillcolor="#f5ceb3"] ;
343 -> 345 ;
346 [label=<squared_error = -0.0<br/>samples = 1<br/>value = 0.691>, fillcolor="#f4ccaf"] ;
338 -> 346 ;
347 [label=<x<SUB>2</SUB> &le; 1.254<br/>squared_error = 0.007<br/>samples = 6<br/>value = 0.769>, fillcolor="#f4caac"] ;
335 -> 347 ;
348 [label=<x<SUB>0</SUB> &le; 0.823<br/>squared_error = 0.0<br/>samples = 2<br/>value = 0.912>, fillcolor="#f3c7a7"] ;
347 -> 348 ;
349 [label=<squared_error = 0.0<br/>samples = 1<br/>value = 0.926>, fillcolor="#f3c7a7"] ;
348 -> 349 ;
350 [label=<squared_error = 0.0<br/>samples = 1<br/>value = 0.897>, fillcolor="#f4c8a8"] ;
348 -> 350 ;
351 [label=<squared_error = 0.0<br/>samples = 4<br/>value = 0.721>, fillcolor="#f4cbae"] ;
347 -> 351 ;
352 [label=<x<SUB>3</SUB> &le; -0.324<br/>squared_error = 0.023<br/>samples = 2<br/>value = 0.143>, fillcolor="#f7d7c1"] ;
318 -> 352 ;
353 [label=<squared_error = 0.0<br/>samples = 1<br/>value = 0.251>, fillcolor="#f6d5bd"] ;
352 -> 353 ;
354 [label=<squared_error = 0.0<br/>samples = 1<br/>value = -0.072>, fillcolor="#f8dcc8"] ;
352 -> 354 ;
355 [label=<x<SUB>0</SUB> &le; 0.547<br/>squared_error = 0.16<br/>samples = 209<br/>value = -1.027>, fillcolor="#fcf0e7"] ;
1 -> 355 ;
356 [label=<x<SUB>5</SUB> &le; 1.743<br/>squared_error = 0.091<br/>samples = 197<br/>value = -1.083>, fillcolor="#fcf1e9"] ;
355 -> 356 ;
357 [label=<x<SUB>4</SUB> &le; -1.366<br/>squared_error = 0.064<br/>samples = 150<br/>value = -0.964>, fillcolor="#fcefe5"] ;
356 -> 357 ;
358 [label=<x<SUB>1</SUB> &le; -0.094<br/>squared_error = 0.015<br/>samples = 22<br/>value = -1.212>, fillcolor="#fdf4ee"] ;
357 -> 358 ;
359 [label=<x<SUB>4</SUB> &le; -1.533<br/>squared_error = 0.004<br/>samples = 4<br/>value = -1.383>, fillcolor="#fdf8f3"] ;
358 -> 359 ;
360 [label=<x<SUB>0</SUB> &le; -1.125<br/>squared_error = 0.0<br/>samples = 2<br/>value = -1.427>, fillcolor="#fef8f5"] ;
359 -> 360 ;
361 [label=<squared_error = 0.0<br/>samples = 1<br/>value = -1.45>, fillcolor="#fef9f5"] ;
360 -> 361 ;
362 [label=<squared_error = 0.0<br/>samples = 1<br/>value = -1.412>, fillcolor="#fef8f4"] ;
360 -> 362 ;
363 [label=<x<SUB>5</SUB> &le; 0.482<br/>squared_error = 0.002<br/>samples = 2<br/>value = -1.309>, fillcolor="#fdf6f1"] ;
359 -> 363 ;
364 [label=<squared_error = 0.0<br/>samples = 1<br/>value = -1.238>, fillcolor="#fdf4ee"] ;
363 -> 364 ;
365 [label=<squared_error = 0.0<br/>samples = 1<br/>value = -1.344>, fillcolor="#fdf7f2"] ;
363 -> 365 ;
366 [label=<x<SUB>3</SUB> &le; -0.824<br/>squared_error = 0.006<br/>samples = 18<br/>value = -1.157>, fillcolor="#fcf3ec"] ;
358 -> 366 ;
367 [label=<x<SUB>4</SUB> &le; -1.422<br/>squared_error = 0.002<br/>samples = 10<br/>value = -1.109>, fillcolor="#fcf2ea"] ;
366 -> 367 ;
368 [label=<x<SUB>2</SUB> &le; -1.131<br/>squared_error = 0.001<br/>samples = 4<br/>value = -1.142>, fillcolor="#fcf2eb"] ;
367 -> 368 ;
369 [label=<squared_error = -0.0<br/>samples = 3<br/>value = -1.159>, fillcolor="#fcf3ec"] ;
368 -> 369 ;
370 [label=<squared_error = 0.0<br/>samples = 1<br/>value = -1.1>, fillcolor="#fcf2ea"] ;
368 -> 370 ;
371 [label=<x<SUB>6</SUB> &le; 0.395<br/>squared_error = 0.001<br/>samples = 6<br/>value = -1.081>, fillcolor="#fcf1e9"] ;
367 -> 371 ;
372 [label=<x<SUB>5</SUB> &le; 0.623<br/>squared_error = 0.0<br/>samples = 5<br/>value = -1.092>, fillcolor="#fcf1ea"] ;
371 -> 372 ;
373 [label=<squared_error = 0.0<br/>samples = 2<br/>value = -1.071>, fillcolor="#fcf1e9"] ;
372 -> 373 ;
374 [label=<x<SUB>0</SUB> &le; -1.124<br/>squared_error = 0.0<br/>samples = 3<br/>value = -1.108>, fillcolor="#fcf2ea"] ;
372 -> 374 ;
375 [label=<squared_error = 0.0<br/>samples = 1<br/>value = -1.13>, fillcolor="#fcf2eb"] ;
374 -> 375 ;
376 [label=<squared_error = 0.0<br/>samples = 2<br/>value = -1.1>, fillcolor="#fcf2ea"] ;
374 -> 376 ;
377 [label=<squared_error = -0.0<br/>samples = 1<br/>value = -1.003>, fillcolor="#fcf0e7"] ;
371 -> 377 ;
378 [label=<x<SUB>3</SUB> &le; -0.704<br/>squared_error = 0.005<br/>samples = 8<br/>value = -1.228>, fillcolor="#fdf4ee"] ;
366 -> 378 ;
379 [label=<x<SUB>2</SUB> &le; -1.241<br/>squared_error = 0.002<br/>samples = 6<br/>value = -1.204>, fillcolor="#fdf4ed"] ;
378 -> 379 ;
380 [label=<x<SUB>5</SUB> &le; 1.65<br/>squared_error = 0.0<br/>samples = 4<br/>value = -1.234>, fillcolor="#fdf4ee"] ;
379 -> 380 ;
381 [label=<x<SUB>1</SUB> &le; 0.984<br/>squared_error = 0.0<br/>samples = 2<br/>value = -1.257>, fillcolor="#fdf5ef"] ;
380 -> 381 ;
382 [label=<squared_error = 0.0<br/>samples = 1<br/>value = -1.271>, fillcolor="#fdf5f0"] ;
381 -> 382 ;
383 [label=<squared_error = -0.0<br/>samples = 1<br/>value = -1.244>, fillcolor="#fdf5ef"] ;
381 -> 383 ;
384 [label=<x<SUB>4</SUB> &le; -1.455<br/>squared_error = 0.0<br/>samples = 2<br/>value = -1.218>, fillcolor="#fdf4ee"] ;
380 -> 384 ;
385 [label=<squared_error = 0.0<br/>samples = 1<br/>value = -1.212>, fillcolor="#fdf4ee"] ;
384 -> 385 ;
386 [label=<squared_error = 0.0<br/>samples = 1<br/>value = -1.221>, fillcolor="#fdf4ee"] ;
384 -> 386 ;
387 [label=<x<SUB>4</SUB> &le; -1.489<br/>squared_error = 0.002<br/>samples = 2<br/>value = -1.154>, fillcolor="#fcf3ec"] ;
379 -> 387 ;
388 [label=<squared_error = 0.0<br/>samples = 1<br/>value = -1.182>, fillcolor="#fdf3ed"] ;
387 -> 388 ;
389 [label=<squared_error = 0.0<br/>samples = 1<br/>value = -1.097>, fillcolor="#fcf2ea"] ;
387 -> 389 ;
390 [label=<x<SUB>6</SUB> &le; -0.45<br/>squared_error = 0.002<br/>samples = 2<br/>value = -1.325>, fillcolor="#fdf6f1"] ;
378 -> 390 ;
391 [label=<squared_error = 0.0<br/>samples = 1<br/>value = -1.365>, fillcolor="#fdf7f3"] ;
390 -> 391 ;
392 [label=<squared_error = -0.0<br/>samples = 1<br/>value = -1.285>, fillcolor="#fdf5f0"] ;
390 -> 392 ;
393 [label=<x<SUB>1</SUB> &le; 1.632<br/>squared_error = 0.06<br/>samples = 128<br/>value = -0.918>, fillcolor="#fbeee4"] ;
357 -> 393 ;
394 [label=<x<SUB>4</SUB> &le; -0.363<br/>squared_error = 0.054<br/>samples = 123<br/>value = -0.935>, fillcolor="#fceee4"] ;
393 -> 394 ;
395 [label=<x<SUB>3</SUB> &le; 0.501<br/>squared_error = 0.049<br/>samples = 107<br/>value = -0.969>, fillcolor="#fcefe6"] ;
394 -> 395 ;
396 [label=<x<SUB>2</SUB> &le; -0.633<br/>squared_error = 0.046<br/>samples = 91<br/>value = -0.933>, fillcolor="#fceee4"] ;
395 -> 396 ;
397 [label=<x<SUB>1</SUB> &le; 1.286<br/>squared_error = 0.034<br/>samples = 77<br/>value = -0.984>, fillcolor="#fcefe6"] ;
396 -> 397 ;
398 [label=<x<SUB>2</SUB> &le; -0.818<br/>squared_error = 0.023<br/>samples = 54<br/>value = -1.055>, fillcolor="#fcf1e8"] ;
397 -> 398 ;
399 [label=<x<SUB>5</SUB> &le; 1.252<br/>squared_error = 0.022<br/>samples = 43<br/>value = -1.093>, fillcolor="#fcf1ea"] ;
398 -> 399 ;
400 [label=<x<SUB>1</SUB> &le; -0.008<br/>squared_error = 0.018<br/>samples = 36<br/>value = -1.054>, fillcolor="#fcf1e8"] ;
399 -> 400 ;
401 [label=<x<SUB>1</SUB> &le; -0.439<br/>squared_error = 0.003<br/>samples = 17<br/>value = -1.147>, fillcolor="#fcf3eb"] ;
400 -> 401 ;
402 [label=<x<SUB>5</SUB> &le; 0.276<br/>squared_error = 0.001<br/>samples = 8<br/>value = -1.197>, fillcolor="#fdf4ed"] ;
401 -> 402 ;
403 [label=<x<SUB>2</SUB> &le; -0.921<br/>squared_error = 0.0<br/>samples = 4<br/>value = -1.177>, fillcolor="#fdf3ec"] ;
402 -> 403 ;
404 [label=<squared_error = 0.0<br/>samples = 2<br/>value = -1.188>, fillcolor="#fdf3ed"] ;
403 -> 404 ;
405 [label=<squared_error = 0.0<br/>samples = 2<br/>value = -1.159>, fillcolor="#fcf3ec"] ;
403 -> 405 ;
406 [label=<squared_error = -0.0<br/>samples = 4<br/>value = -1.218>, fillcolor="#fdf4ee"] ;
402 -> 406 ;
407 [label=<x<SUB>6</SUB> &le; -0.549<br/>squared_error = 0.001<br/>samples = 9<br/>value = -1.104>, fillcolor="#fcf2ea"] ;
401 -> 407 ;
408 [label=<x<SUB>6</SUB> &le; -0.56<br/>squared_error = 0.0<br/>samples = 2<br/>value = -1.056>, fillcolor="#fcf1e8"] ;
407 -> 408 ;
409 [label=<squared_error = 0.0<br/>samples = 1<br/>value = -1.071>, fillcolor="#fcf1e9"] ;
408 -> 409 ;
410 [label=<squared_error = 0.0<br/>samples = 1<br/>value = -1.041>, fillcolor="#fcf0e8"] ;
408 -> 410 ;
411 [label=<x<SUB>2</SUB> &le; -0.876<br/>squared_error = 0.0<br/>samples = 7<br/>value = -1.114>, fillcolor="#fcf2ea"] ;
407 -> 411 ;
412 [label=<x<SUB>5</SUB> &le; 0.253<br/>squared_error = 0.0<br/>samples = 5<br/>value = -1.121>, fillcolor="#fcf2eb"] ;
411 -> 412 ;
413 [label=<squared_error = 0.0<br/>samples = 1<br/>value = -1.1>, fillcolor="#fcf2ea"] ;
412 -> 413 ;
414 [label=<squared_error = 0.0<br/>samples = 4<br/>value = -1.13>, fillcolor="#fcf2eb"] ;
412 -> 414 ;
415 [label=<x<SUB>5</SUB> &le; 1.049<br/>squared_error = 0.0<br/>samples = 2<br/>value = -1.097>, fillcolor="#fcf2ea"] ;
411 -> 415 ;
416 [label=<squared_error = 0.0<br/>samples = 1<br/>value = -1.1>, fillcolor="#fcf2ea"] ;
415 -> 416 ;
417 [label=<squared_error = 0.0<br/>samples = 1<br/>value = -1.091>, fillcolor="#fcf1ea"] ;
415 -> 417 ;
418 [label=<x<SUB>5</SUB> &le; 0.754<br/>squared_error = 0.017<br/>samples = 19<br/>value = -0.965>, fillcolor="#fcefe5"] ;
400 -> 418 ;
419 [label=<x<SUB>3</SUB> &le; -0.708<br/>squared_error = 0.008<br/>samples = 12<br/>value = -0.891>, fillcolor="#fbede3"] ;
418 -> 419 ;
420 [label=<x<SUB>3</SUB> &le; -0.807<br/>squared_error = 0.003<br/>samples = 11<br/>value = -0.919>, fillcolor="#fbeee4"] ;
419 -> 420 ;
421 [label=<x<SUB>4</SUB> &le; -1.244<br/>squared_error = 0.001<br/>samples = 2<br/>value = -0.837>, fillcolor="#fbece1"] ;
420 -> 421 ;
422 [label=<squared_error = 0.0<br/>samples = 1<br/>value = -0.853>, fillcolor="#fbece2"] ;
421 -> 422 ;
423 [label=<squared_error = 0.0<br/>samples = 1<br/>value = -0.804>, fillcolor="#fbebe0"] ;
421 -> 423 ;
424 [label=<x<SUB>6</SUB> &le; 1.403<br/>squared_error = 0.001<br/>samples = 9<br/>value = -0.944>, fillcolor="#fceee5"] ;
420 -> 424 ;
425 [label=<x<SUB>3</SUB> &le; -0.784<br/>squared_error = 0.001<br/>samples = 6<br/>value = -0.961>, fillcolor="#fcefe5"] ;
424 -> 425 ;
426 [label=<x<SUB>4</SUB> &le; -0.519<br/>squared_error = 0.0<br/>samples = 3<br/>value = -0.938>, fillcolor="#fceee5"] ;
425 -> 426 ;
427 [label=<x<SUB>1</SUB> &le; 0.639<br/>squared_error = 0.0<br/>samples = 2<br/>value = -0.952>, fillcolor="#fceee5"] ;
426 -> 427 ;
428 [label=<squared_error = 0.0<br/>samples = 1<br/>value = -0.95>, fillcolor="#fceee5"] ;
427 -> 428 ;
429 [label=<squared_error = 0.0<br/>samples = 1<br/>value = -0.953>, fillcolor="#fceee5"] ;
427 -> 429 ;
430 [label=<squared_error = 0.0<br/>samples = 1<br/>value = -0.924>, fillcolor="#fbeee4"] ;
426 -> 430 ;
431 [label=<x<SUB>3</SUB> &le; -0.781<br/>squared_error = 0.0<br/>samples = 3<br/>value = -0.993>, fillcolor="#fcefe6"] ;
425 -> 431 ;
432 [label=<squared_error = 0.0<br/>samples = 1<br/>value = -1.012>, fillcolor="#fcf0e7"] ;
431 -> 432 ;
433 [label=<squared_error = 0.0<br/>samples = 2<br/>value = -0.983>, fillcolor="#fcefe6"] ;
431 -> 433 ;
434 [label=<x<SUB>3</SUB> &le; -0.764<br/>squared_error = 0.0<br/>samples = 3<br/>value = -0.904>, fillcolor="#fbede3"] ;
424 -> 434 ;
435 [label=<squared_error = -0.0<br/>samples = 2<br/>value = -0.895>, fillcolor="#fbede3"] ;
434 -> 435 ;
436 [label=<squared_error = 0.0<br/>samples = 1<br/>value = -0.924>, fillcolor="#fbeee4"] ;
434 -> 436 ;
437 [label=<squared_error = -0.0<br/>samples = 1<br/>value = -0.704>, fillcolor="#fbe9dd"] ;
419 -> 437 ;
438 [label=<x<SUB>5</SUB> &le; 1.035<br/>squared_error = 0.003<br/>samples = 7<br/>value = -1.105>, fillcolor="#fcf2ea"] ;
418 -> 438 ;
439 [label=<x<SUB>6</SUB> &le; 1.058<br/>squared_error = 0.0<br/>samples = 2<br/>value = -1.036>, fillcolor="#fcf0e8"] ;
438 -> 439 ;
440 [label=<squared_error = 0.0<br/>samples = 1<br/>value = -1.03>, fillcolor="#fcf0e8"] ;
439 -> 440 ;
441 [label=<squared_error = 0.0<br/>samples = 1<br/>value = -1.041>, fillcolor="#fcf0e8"] ;
439 -> 441 ;
442 [label=<x<SUB>6</SUB> &le; 1.91<br/>squared_error = 0.002<br/>samples = 5<br/>value = -1.128>, fillcolor="#fcf2eb"] ;
438 -> 442 ;
443 [label=<x<SUB>1</SUB> &le; 0.639<br/>squared_error = 0.001<br/>samples = 3<br/>value = -1.155>, fillcolor="#fcf3ec"] ;
442 -> 443 ;
444 [label=<squared_error = 0.0<br/>samples = 1<br/>value = -1.2>, fillcolor="#fdf4ed"] ;
443 -> 444 ;
445 [label=<x<SUB>6</SUB> &le; 1.834<br/>squared_error = 0.0<br/>samples = 2<br/>value = -1.14>, fillcolor="#fcf2eb"] ;
443 -> 445 ;
446 [label=<squared_error = 0.0<br/>samples = 1<br/>value = -1.162>, fillcolor="#fcf3ec"] ;
445 -> 446 ;
447 [label=<squared_error = -0.0<br/>samples = 1<br/>value = -1.13>, fillcolor="#fcf2eb"] ;
445 -> 447 ;
448 [label=<x<SUB>0</SUB> &le; -1.126<br/>squared_error = 0.0<br/>samples = 2<br/>value = -1.074>, fillcolor="#fcf1e9"] ;
442 -> 448 ;
449 [label=<squared_error = 0.0<br/>samples = 1<br/>value = -1.056>, fillcolor="#fcf1e8"] ;
448 -> 449 ;
450 [label=<squared_error = -0.0<br/>samples = 1<br/>value = -1.091>, fillcolor="#fcf1ea"] ;
448 -> 450 ;
451 [label=<x<SUB>6</SUB> &le; 1.532<br/>squared_error = 0.006<br/>samples = 7<br/>value = -1.255>, fillcolor="#fdf5ef"] ;
399 -> 451 ;
452 [label=<x<SUB>4</SUB> &le; -0.564<br/>squared_error = 0.001<br/>samples = 3<br/>value = -1.309>, fillcolor="#fdf6f1"] ;
451 -> 452 ;
453 [label=<x<SUB>2</SUB> &le; -1.118<br/>squared_error = 0.0<br/>samples = 2<br/>value = -1.322>, fillcolor="#fdf6f1"] ;
452 -> 453 ;
454 [label=<squared_error = 0.0<br/>samples = 1<br/>value = -1.326>, fillcolor="#fdf6f1"] ;
453 -> 454 ;
455 [label=<squared_error = 0.0<br/>samples = 1<br/>value = -1.32>, fillcolor="#fdf6f1"] ;
453 -> 455 ;
456 [label=<squared_error = -0.0<br/>samples = 1<br/>value = -1.244>, fillcolor="#fdf5ef"] ;
452 -> 456 ;
457 [label=<x<SUB>4</SUB> &le; -0.452<br/>squared_error = 0.004<br/>samples = 4<br/>value = -1.19>, fillcolor="#fdf3ed"] ;
451 -> 457 ;
458 [label=<x<SUB>3</SUB> &le; -0.633<br/>squared_error = 0.002<br/>samples = 3<br/>value = -1.215>, fillcolor="#fdf4ee"] ;
457 -> 458 ;
459 [label=<squared_error = 0.0<br/>samples = 1<br/>value = -1.282>, fillcolor="#fdf5f0"] ;
458 -> 459 ;
460 [label=<x<SUB>5</SUB> &le; 1.471<br/>squared_error = 0.0<br/>samples = 2<br/>value = -1.192>, fillcolor="#fdf4ed"] ;
458 -> 460 ;
461 [label=<squared_error = 0.0<br/>samples = 1<br/>value = -1.203>, fillcolor="#fdf4ed"] ;
460 -> 461 ;
462 [label=<squared_error = -0.0<br/>samples = 1<br/>value = -1.171>, fillcolor="#fdf3ec"] ;
460 -> 462 ;
463 [label=<squared_error = 0.0<br/>samples = 1<br/>value = -1.091>, fillcolor="#fcf1ea"] ;
457 -> 463 ;
464 [label=<x<SUB>3</SUB> &le; 0.446<br/>squared_error = 0.004<br/>samples = 11<br/>value = -0.922>, fillcolor="#fbeee4"] ;
398 -> 464 ;
465 [label=<x<SUB>0</SUB> &le; -0.567<br/>squared_error = 0.001<br/>samples = 5<br/>value = -0.851>, fillcolor="#fbece2"] ;
464 -> 465 ;
466 [label=<squared_error = 0.0<br/>samples = 2<br/>value = -0.895>, fillcolor="#fbede3"] ;
465 -> 466 ;
467 [label=<x<SUB>6</SUB> &le; -0.49<br/>squared_error = 0.0<br/>samples = 3<br/>value = -0.829>, fillcolor="#fbece1"] ;
465 -> 467 ;
468 [label=<squared_error = 0.0<br/>samples = 1<br/>value = -0.807>, fillcolor="#fbebe0"] ;
467 -> 468 ;
469 [label=<squared_error = 0.0<br/>samples = 2<br/>value = -0.836>, fillcolor="#fbece1"] ;
467 -> 469 ;
470 [label=<x<SUB>2</SUB> &le; -0.687<br/>squared_error = 0.001<br/>samples = 6<br/>value = -0.965>, fillcolor="#fcefe5"] ;
464 -> 470 ;
471 [label=<x<SUB>6</SUB> &le; -0.403<br/>squared_error = 0.0<br/>samples = 4<br/>value = -0.993>, fillcolor="#fcefe6"] ;
470 -> 471 ;
472 [label=<squared_error = 0.0<br/>samples = 1<br/>value = -1.041>, fillcolor="#fcf0e8"] ;
471 -> 472 ;
473 [label=<squared_error = 0.0<br/>samples = 3<br/>value = -0.983>, fillcolor="#fcefe6"] ;
471 -> 473 ;
474 [label=<x<SUB>2</SUB> &le; -0.65<br/>squared_error = 0.0<br/>samples = 2<br/>value = -0.924>, fillcolor="#fbeee4"] ;
470 -> 474 ;
475 [label=<squared_error = 0.0<br/>samples = 1<br/>value = -0.924>, fillcolor="#fbeee4"] ;
474 -> 475 ;
476 [label=<squared_error = 0.0<br/>samples = 1<br/>value = -0.924>, fillcolor="#fbeee4"] ;
474 -> 476 ;
477 [label=<x<SUB>2</SUB> &le; -1.159<br/>squared_error = 0.022<br/>samples = 23<br/>value = -0.824>, fillcolor="#fbece1"] ;
397 -> 477 ;
478 [label=<x<SUB>3</SUB> &le; -0.963<br/>squared_error = 0.014<br/>samples = 12<br/>value = -0.905>, fillcolor="#fbede3"] ;
477 -> 478 ;
479 [label=<x<SUB>6</SUB> &le; 0.289<br/>squared_error = 0.009<br/>samples = 3<br/>value = -0.799>, fillcolor="#fbebe0"] ;
478 -> 479 ;
480 [label=<squared_error = 0.0<br/>samples = 1<br/>value = -0.727>, fillcolor="#fbeade"] ;
479 -> 480 ;
481 [label=<x<SUB>5</SUB> &le; 0.493<br/>squared_error = 0.004<br/>samples = 2<br/>value = -0.908>, fillcolor="#fbeee4"] ;
479 -> 481 ;
482 [label=<squared_error = 0.0<br/>samples = 1<br/>value = -0.845>, fillcolor="#fbece1"] ;
481 -> 482 ;
483 [label=<squared_error = 0.0<br/>samples = 1<br/>value = -0.971>, fillcolor="#fcefe6"] ;
481 -> 483 ;
484 [label=<x<SUB>6</SUB> &le; 0.724<br/>squared_error = 0.01<br/>samples = 9<br/>value = -0.942>, fillcolor="#fceee5"] ;
478 -> 484 ;
485 [label=<x<SUB>0</SUB> &le; -1.126<br/>squared_error = 0.008<br/>samples = 7<br/>value = -1.018>, fillcolor="#fcf0e7"] ;
484 -> 485 ;
486 [label=<squared_error = 0.0<br/>samples = 1<br/>value = -0.827>, fillcolor="#fbece1"] ;
485 -> 486 ;
487 [label=<x<SUB>3</SUB> &le; -0.837<br/>squared_error = 0.003<br/>samples = 6<br/>value = -1.05>, fillcolor="#fcf1e8"] ;
485 -> 487 ;
488 [label=<x<SUB>5</SUB> &le; 0.982<br/>squared_error = 0.001<br/>samples = 4<br/>value = -1.019>, fillcolor="#fcf0e7"] ;
487 -> 488 ;
489 [label=<squared_error = 0.0<br/>samples = 1<br/>value = -1.071>, fillcolor="#fcf1e9"] ;
488 -> 489 ;
490 [label=<x<SUB>5</SUB> &le; 1.0<br/>squared_error = 0.0<br/>samples = 3<br/>value = -1.002>, fillcolor="#fcf0e7"] ;
488 -> 490 ;
491 [label=<squared_error = 0.0<br/>samples = 1<br/>value = -0.983>, fillcolor="#fcefe6"] ;
490 -> 491 ;
492 [label=<squared_error = 0.0<br/>samples = 2<br/>value = -1.012>, fillcolor="#fcf0e7"] ;
490 -> 492 ;
493 [label=<x<SUB>6</SUB> &le; 0.498<br/>squared_error = 0.0<br/>samples = 2<br/>value = -1.11>, fillcolor="#fcf2ea"] ;
487 -> 493 ;
494 [label=<squared_error = 0.0<br/>samples = 1<br/>value = -1.097>, fillcolor="#fcf2ea"] ;
493 -> 494 ;
495 [label=<squared_error = 0.0<br/>samples = 1<br/>value = -1.124>, fillcolor="#fcf2eb"] ;
493 -> 495 ;
496 [label=<x<SUB>2</SUB> &le; -1.241<br/>squared_error = 0.001<br/>samples = 2<br/>value = -0.867>, fillcolor="#fbede2"] ;
484 -> 496 ;
497 [label=<squared_error = 0.0<br/>samples = 1<br/>value = -0.921>, fillcolor="#fbeee4"] ;
496 -> 497 ;
498 [label=<squared_error = -0.0<br/>samples = 1<br/>value = -0.845>, fillcolor="#fbece1"] ;
496 -> 498 ;
499 [label=<x<SUB>5</SUB> &le; 1.404<br/>squared_error = 0.01<br/>samples = 11<br/>value = -0.707>, fillcolor="#fbe9dd"] ;
477 -> 499 ;
500 [label=<x<SUB>6</SUB> &le; 0.467<br/>squared_error = 0.006<br/>samples = 9<br/>value = -0.668>, fillcolor="#fae8dc"] ;
499 -> 500 ;
501 [label=<x<SUB>6</SUB> &le; 0.017<br/>squared_error = 0.002<br/>samples = 7<br/>value = -0.695>, fillcolor="#fae9dd"] ;
500 -> 501 ;
502 [label=<x<SUB>6</SUB> &le; -0.07<br/>squared_error = 0.003<br/>samples = 2<br/>value = -0.76>, fillcolor="#fbeadf"] ;
501 -> 502 ;
503 [label=<squared_error = 0.0<br/>samples = 1<br/>value = -0.707>, fillcolor="#fbe9dd"] ;
502 -> 503 ;
504 [label=<squared_error = 0.0<br/>samples = 1<br/>value = -0.812>, fillcolor="#fbece0"] ;
502 -> 504 ;
505 [label=<x<SUB>0</SUB> &le; -1.125<br/>squared_error = 0.0<br/>samples = 5<br/>value = -0.673>, fillcolor="#fae9dc"] ;
501 -> 505 ;
506 [label=<squared_error = 0.0<br/>samples = 1<br/>value = -0.698>, fillcolor="#fae9dd"] ;
505 -> 506 ;
507 [label=<x<SUB>5</SUB> &le; 1.231<br/>squared_error = 0.0<br/>samples = 4<br/>value = -0.668>, fillcolor="#fae8dc"] ;
505 -> 507 ;
508 [label=<x<SUB>3</SUB> &le; -0.894<br/>squared_error = 0.0<br/>samples = 3<br/>value = -0.664>, fillcolor="#fae8db"] ;
507 -> 508 ;
509 [label=<squared_error = 0.0<br/>samples = 1<br/>value = -0.654>, fillcolor="#fae8db"] ;
508 -> 509 ;
510 [label=<x<SUB>2</SUB> &le; -1.077<br/>squared_error = 0.0<br/>samples = 2<br/>value = -0.667>, fillcolor="#fae8dc"] ;
508 -> 510 ;
511 [label=<squared_error = 0.0<br/>samples = 1<br/>value = -0.674>, fillcolor="#fae9dc"] ;
510 -> 511 ;
512 [label=<squared_error = -0.0<br/>samples = 1<br/>value = -0.654>, fillcolor="#fae8db"] ;
510 -> 512 ;
513 [label=<squared_error = -0.0<br/>samples = 1<br/>value = -0.686>, fillcolor="#fae9dc"] ;
507 -> 513 ;
514 [label=<x<SUB>4</SUB> &le; -0.742<br/>squared_error = 0.005<br/>samples = 2<br/>value = -0.56>, fillcolor="#fae6d8"] ;
500 -> 514 ;
515 [label=<squared_error = 0.0<br/>samples = 1<br/>value = -0.489>, fillcolor="#fae5d6"] ;
514 -> 515 ;
516 [label=<squared_error = 0.0<br/>samples = 1<br/>value = -0.63>, fillcolor="#fae8da"] ;
514 -> 516 ;
517 [label=<x<SUB>3</SUB> &le; -0.189<br/>squared_error = 0.001<br/>samples = 2<br/>value = -0.839>, fillcolor="#fbece1"] ;
499 -> 517 ;
518 [label=<squared_error = 0.0<br/>samples = 1<br/>value = -0.874>, fillcolor="#fbede2"] ;
517 -> 518 ;
519 [label=<squared_error = 0.0<br/>samples = 1<br/>value = -0.821>, fillcolor="#fbece1"] ;
517 -> 519 ;
520 [label=<x<SUB>2</SUB> &le; -0.477<br/>squared_error = 0.02<br/>samples = 14<br/>value = -0.667>, fillcolor="#fae8dc"] ;
396 -> 520 ;
521 [label=<x<SUB>5</SUB> &le; 1.19<br/>squared_error = 0.002<br/>samples = 6<br/>value = -0.767>, fillcolor="#fbebdf"] ;
520 -> 521 ;
522 [label=<x<SUB>3</SUB> &le; 0.417<br/>squared_error = 0.0<br/>samples = 3<br/>value = -0.729>, fillcolor="#fbeade"] ;
521 -> 522 ;
523 [label=<x<SUB>5</SUB> &le; 0.934<br/>squared_error = 0.0<br/>samples = 2<br/>value = -0.722>, fillcolor="#fbeadd"] ;
522 -> 523 ;
524 [label=<squared_error = 0.0<br/>samples = 1<br/>value = -0.718>, fillcolor="#fbeadd"] ;
523 -> 524 ;
525 [label=<squared_error = -0.0<br/>samples = 1<br/>value = -0.727>, fillcolor="#fbeade"] ;
523 -> 525 ;
526 [label=<squared_error = -0.0<br/>samples = 1<br/>value = -0.762>, fillcolor="#fbeadf"] ;
522 -> 526 ;
527 [label=<x<SUB>2</SUB> &le; -0.621<br/>squared_error = 0.001<br/>samples = 3<br/>value = -0.814>, fillcolor="#fbece0"] ;
521 -> 527 ;
528 [label=<x<SUB>4</SUB> &le; -0.642<br/>squared_error = 0.0<br/>samples = 2<br/>value = -0.801>, fillcolor="#fbebe0"] ;
527 -> 528 ;
529 [label=<squared_error = 0.0<br/>samples = 1<br/>value = -0.815>, fillcolor="#fbece0"] ;
528 -> 529 ;
530 [label=<squared_error = 0.0<br/>samples = 1<br/>value = -0.786>, fillcolor="#fbebe0"] ;
528 -> 530 ;
531 [label=<squared_error = -0.0<br/>samples = 1<br/>value = -0.865>, fillcolor="#fbede2"] ;
527 -> 531 ;
532 [label=<x<SUB>3</SUB> &le; 0.4<br/>squared_error = 0.015<br/>samples = 8<br/>value = -0.544>, fillcolor="#fae6d8"] ;
520 -> 532 ;
533 [label=<x<SUB>2</SUB> &le; -0.349<br/>squared_error = 0.002<br/>samples = 7<br/>value = -0.586>, fillcolor="#fae7d9"] ;
532 -> 533 ;
534 [label=<squared_error = -0.0<br/>samples = 2<br/>value = -0.63>, fillcolor="#fae8da"] ;
533 -> 534 ;
535 [label=<x<SUB>6</SUB> &le; -0.914<br/>squared_error = 0.001<br/>samples = 5<br/>value = -0.56>, fillcolor="#fae6d8"] ;
533 -> 535 ;
536 [label=<squared_error = 0.0<br/>samples = 4<br/>value = -0.572>, fillcolor="#fae6d8"] ;
535 -> 536 ;
537 [label=<squared_error = -0.0<br/>samples = 1<br/>value = -0.513>, fillcolor="#fae5d6"] ;
535 -> 537 ;
538 [label=<squared_error = 0.0<br/>samples = 1<br/>value = -0.21>, fillcolor="#f8dfcc"] ;
532 -> 538 ;
539 [label=<x<SUB>4</SUB> &le; -0.664<br/>squared_error = 0.019<br/>samples = 16<br/>value = -1.171>, fillcolor="#fdf3ec"] ;
395 -> 539 ;
540 [label=<x<SUB>2</SUB> &le; -0.502<br/>squared_error = 0.004<br/>samples = 6<br/>value = -1.374>, fillcolor="#fdf7f3"] ;
539 -> 540 ;
541 [label=<squared_error = 0.0<br/>samples = 1<br/>value = -1.238>, fillcolor="#fdf4ee"] ;
540 -> 541 ;
542 [label=<x<SUB>0</SUB> &le; -0.013<br/>squared_error = 0.0<br/>samples = 5<br/>value = -1.402>, fillcolor="#fef8f4"] ;
540 -> 542 ;
543 [label=<x<SUB>3</SUB> &le; 0.6<br/>squared_error = 0.0<br/>samples = 3<br/>value = -1.387>, fillcolor="#fdf8f3"] ;
542 -> 543 ;
544 [label=<x<SUB>3</SUB> &le; 0.53<br/>squared_error = 0.0<br/>samples = 2<br/>value = -1.394>, fillcolor="#fef8f4"] ;
543 -> 544 ;
545 [label=<squared_error = 0.0<br/>samples = 1<br/>value = -1.394>, fillcolor="#fef8f4"] ;
544 -> 545 ;
546 [label=<squared_error = 0.0<br/>samples = 1<br/>value = -1.394>, fillcolor="#fef8f4"] ;
544 -> 546 ;
547 [label=<squared_error = 0.0<br/>samples = 1<br/>value = -1.373>, fillcolor="#fdf7f3"] ;
543 -> 547 ;
548 [label=<x<SUB>4</SUB> &le; -0.686<br/>squared_error = 0.0<br/>samples = 2<br/>value = -1.423>, fillcolor="#fef8f5"] ;
542 -> 548 ;
549 [label=<squared_error = 0.0<br/>samples = 1<br/>value = -1.423>, fillcolor="#fef8f5"] ;
548 -> 549 ;
550 [label=<squared_error = 0.0<br/>samples = 1<br/>value = -1.423>, fillcolor="#fef8f5"] ;
548 -> 550 ;
551 [label=<x<SUB>4</SUB> &le; -0.597<br/>squared_error = 0.003<br/>samples = 10<br/>value = -1.095>, fillcolor="#fcf1ea"] ;
539 -> 551 ;
552 [label=<squared_error = 0.0<br/>samples = 1<br/>value = -0.936>, fillcolor="#fceee4"] ;
551 -> 552 ;
553 [label=<x<SUB>5</SUB> &le; 0.476<br/>squared_error = 0.002<br/>samples = 9<br/>value = -1.105>, fillcolor="#fcf2ea"] ;
551 -> 553 ;
554 [label=<x<SUB>5</SUB> &le; 0.265<br/>squared_error = 0.001<br/>samples = 3<br/>value = -1.049>, fillcolor="#fcf1e8"] ;
553 -> 554 ;
555 [label=<x<SUB>0</SUB> &le; -0.021<br/>squared_error = 0.0<br/>samples = 2<br/>value = -1.071>, fillcolor="#fcf1e9"] ;
554 -> 555 ;
556 [label=<squared_error = 0.0<br/>samples = 1<br/>value = -1.074>, fillcolor="#fcf1e9"] ;
555 -> 556 ;
557 [label=<squared_error = -0.0<br/>samples = 1<br/>value = -1.065>, fillcolor="#fcf1e9"] ;
555 -> 557 ;
558 [label=<squared_error = 0.0<br/>samples = 1<br/>value = -0.983>, fillcolor="#fcefe6"] ;
554 -> 558 ;
559 [label=<x<SUB>3</SUB> &le; 0.511<br/>squared_error = 0.0<br/>samples = 6<br/>value = -1.126>, fillcolor="#fcf2eb"] ;
553 -> 559 ;
560 [label=<squared_error = 0.0<br/>samples = 1<br/>value = -1.1>, fillcolor="#fcf2ea"] ;
559 -> 560 ;
561 [label=<x<SUB>6</SUB> &le; -0.159<br/>squared_error = 0.0<br/>samples = 5<br/>value = -1.132>, fillcolor="#fcf2eb"] ;
559 -> 561 ;
562 [label=<x<SUB>0</SUB> &le; -0.013<br/>squared_error = 0.0<br/>samples = 4<br/>value = -1.131>, fillcolor="#fcf2eb"] ;
561 -> 562 ;
563 [label=<squared_error = 0.0<br/>samples = 1<br/>value = -1.133>, fillcolor="#fcf2eb"] ;
562 -> 563 ;
564 [label=<squared_error = 0.0<br/>samples = 3<br/>value = -1.13>, fillcolor="#fcf2eb"] ;
562 -> 564 ;
565 [label=<squared_error = 0.0<br/>samples = 1<br/>value = -1.138>, fillcolor="#fcf2eb"] ;
561 -> 565 ;
566 [label=<x<SUB>5</SUB> &le; 0.455<br/>squared_error = 0.041<br/>samples = 16<br/>value = -0.742>, fillcolor="#fbeade"] ;
394 -> 566 ;
567 [label=<x<SUB>4</SUB> &le; -0.062<br/>squared_error = 0.027<br/>samples = 6<br/>value = -0.615>, fillcolor="#fae7da"] ;
566 -> 567 ;
568 [label=<x<SUB>6</SUB> &le; 0.32<br/>squared_error = 0.002<br/>samples = 5<br/>value = -0.539>, fillcolor="#fae6d7"] ;
567 -> 568 ;
569 [label=<x<SUB>1</SUB> &le; -0.827<br/>squared_error = 0.0<br/>samples = 3<br/>value = -0.498>, fillcolor="#fae5d6"] ;
568 -> 569 ;
570 [label=<squared_error = 0.0<br/>samples = 2<br/>value = -0.513>, fillcolor="#fae5d6"] ;
569 -> 570 ;
571 [label=<squared_error = 0.0<br/>samples = 1<br/>value = -0.483>, fillcolor="#fae5d6"] ;
569 -> 571 ;
572 [label=<x<SUB>0</SUB> &le; -1.125<br/>squared_error = 0.001<br/>samples = 2<br/>value = -0.572>, fillcolor="#fae6d8"] ;
568 -> 572 ;
573 [label=<squared_error = 0.0<br/>samples = 1<br/>value = -0.551>, fillcolor="#fae6d8"] ;
572 -> 573 ;
574 [label=<squared_error = 0.0<br/>samples = 1<br/>value = -0.604>, fillcolor="#fae7d9"] ;
572 -> 574 ;
575 [label=<squared_error = -0.0<br/>samples = 1<br/>value = -0.953>, fillcolor="#fceee5"] ;
567 -> 575 ;
576 [label=<x<SUB>5</SUB> &le; 0.98<br/>squared_error = 0.031<br/>samples = 10<br/>value = -0.835>, fillcolor="#fbece1"] ;
566 -> 576 ;
577 [label=<x<SUB>0</SUB> &le; -0.847<br/>squared_error = 0.005<br/>samples = 8<br/>value = -0.896>, fillcolor="#fbede3"] ;
576 -> 577 ;
578 [label=<x<SUB>0</SUB> &le; -1.124<br/>squared_error = 0.0<br/>samples = 3<br/>value = -0.816>, fillcolor="#fbece1"] ;
577 -> 578 ;
579 [label=<squared_error = 0.0<br/>samples = 1<br/>value = -0.795>, fillcolor="#fbebe0"] ;
578 -> 579 ;
580 [label=<x<SUB>5</SUB> &le; 0.769<br/>squared_error = 0.0<br/>samples = 2<br/>value = -0.821>, fillcolor="#fbece1"] ;
578 -> 580 ;
581 [label=<squared_error = 0.0<br/>samples = 1<br/>value = -0.824>, fillcolor="#fbece1"] ;
580 -> 581 ;
582 [label=<squared_error = 0.0<br/>samples = 1<br/>value = -0.818>, fillcolor="#fbece1"] ;
580 -> 582 ;
583 [label=<x<SUB>4</SUB> &le; -0.162<br/>squared_error = 0.001<br/>samples = 5<br/>value = -0.946>, fillcolor="#fceee5"] ;
577 -> 583 ;
584 [label=<x<SUB>0</SUB> &le; -0.289<br/>squared_error = 0.0<br/>samples = 2<br/>value = -0.997>, fillcolor="#fcefe7"] ;
583 -> 584 ;
585 [label=<squared_error = 0.0<br/>samples = 1<br/>value = -0.983>, fillcolor="#fcefe6"] ;
584 -> 585 ;
586 [label=<squared_error = -0.0<br/>samples = 1<br/>value = -1.012>, fillcolor="#fcf0e7"] ;
584 -> 586 ;
587 [label=<x<SUB>0</SUB> &le; -0.568<br/>squared_error = 0.0<br/>samples = 3<br/>value = -0.929>, fillcolor="#fbeee4"] ;
583 -> 587 ;
588 [label=<x<SUB>0</SUB> &le; -0.57<br/>squared_error = 0.0<br/>samples = 2<br/>value = -0.917>, fillcolor="#fbeee4"] ;
587 -> 588 ;
589 [label=<squared_error = 0.0<br/>samples = 1<br/>value = -0.924>, fillcolor="#fbeee4"] ;
588 -> 589 ;
590 [label=<squared_error = 0.0<br/>samples = 1<br/>value = -0.895>, fillcolor="#fbede3"] ;
588 -> 590 ;
591 [label=<squared_error = -0.0<br/>samples = 1<br/>value = -0.953>, fillcolor="#fceee5"] ;
587 -> 591 ;
592 [label=<x<SUB>4</SUB> &le; -0.207<br/>squared_error = 0.017<br/>samples = 2<br/>value = -0.439>, fillcolor="#f9e4d4"] ;
576 -> 592 ;
593 [label=<squared_error = 0.0<br/>samples = 1<br/>value = -0.572>, fillcolor="#fae6d8"] ;
592 -> 593 ;
594 [label=<squared_error = 0.0<br/>samples = 1<br/>value = -0.307>, fillcolor="#f9e1d0"] ;
592 -> 594 ;
595 [label=<x<SUB>3</SUB> &le; -0.801<br/>squared_error = 0.029<br/>samples = 5<br/>value = -0.51>, fillcolor="#fae5d6"] ;
393 -> 595 ;
596 [label=<squared_error = 0.0<br/>samples = 1<br/>value = -0.889>, fillcolor="#fbede3"] ;
595 -> 596 ;
597 [label=<x<SUB>6</SUB> &le; 0.788<br/>squared_error = 0.006<br/>samples = 4<br/>value = -0.447>, fillcolor="#f9e4d4"] ;
595 -> 597 ;
598 [label=<x<SUB>4</SUB> &le; -0.642<br/>squared_error = 0.002<br/>samples = 2<br/>value = -0.345>, fillcolor="#f9e2d1"] ;
597 -> 598 ;
599 [label=<squared_error = 0.0<br/>samples = 1<br/>value = -0.295>, fillcolor="#f9e1cf"] ;
598 -> 599 ;
600 [label=<squared_error = 0.0<br/>samples = 1<br/>value = -0.395>, fillcolor="#f9e3d3"] ;
598 -> 600 ;
601 [label=<x<SUB>3</SUB> &le; -0.475<br/>squared_error = 0.001<br/>samples = 2<br/>value = -0.498>, fillcolor="#fae5d6"] ;
597 -> 601 ;
602 [label=<squared_error = -0.0<br/>samples = 1<br/>value = -0.483>, fillcolor="#fae5d6"] ;
601 -> 602 ;
603 [label=<squared_error = 0.0<br/>samples = 1<br/>value = -0.542>, fillcolor="#fae6d7"] ;
601 -> 603 ;
604 [label=<x<SUB>4</SUB> &le; -1.244<br/>squared_error = 0.039<br/>samples = 47<br/>value = -1.369>, fillcolor="#fdf7f3"] ;
356 -> 604 ;
605 [label=<x<SUB>3</SUB> &le; -0.553<br/>squared_error = 0.007<br/>samples = 17<br/>value = -1.512>, fillcolor="#fefaf8"] ;
604 -> 605 ;
606 [label=<x<SUB>4</SUB> &le; -1.433<br/>squared_error = 0.002<br/>samples = 10<br/>value = -1.471>, fillcolor="#fef9f6"] ;
605 -> 606 ;
607 [label=<x<SUB>3</SUB> &le; -0.624<br/>squared_error = 0.001<br/>samples = 9<br/>value = -1.477>, fillcolor="#fefaf6"] ;
606 -> 607 ;
608 [label=<x<SUB>3</SUB> &le; -0.695<br/>squared_error = 0.0<br/>samples = 6<br/>value = -1.457>, fillcolor="#fef9f6"] ;
607 -> 608 ;
609 [label=<squared_error = 0.0<br/>samples = 1<br/>value = -1.412>, fillcolor="#fef8f4"] ;
608 -> 609 ;
610 [label=<x<SUB>2</SUB> &le; -1.529<br/>squared_error = 0.0<br/>samples = 5<br/>value = -1.46>, fillcolor="#fef9f6"] ;
608 -> 610 ;
611 [label=<squared_error = 0.0<br/>samples = 1<br/>value = -1.417>, fillcolor="#fef8f4"] ;
610 -> 611 ;
612 [label=<x<SUB>6</SUB> &le; 0.209<br/>squared_error = 0.0<br/>samples = 4<br/>value = -1.464>, fillcolor="#fef9f6"] ;
610 -> 612 ;
613 [label=<x<SUB>0</SUB> &le; -1.125<br/>squared_error = 0.0<br/>samples = 3<br/>value = -1.459>, fillcolor="#fef9f6"] ;
612 -> 613 ;
614 [label=<x<SUB>1</SUB> &le; 0.984<br/>squared_error = 0.0<br/>samples = 2<br/>value = -1.465>, fillcolor="#fef9f6"] ;
613 -> 614 ;
615 [label=<squared_error = 0.0<br/>samples = 1<br/>value = -1.461>, fillcolor="#fef9f6"] ;
614 -> 615 ;
616 [label=<squared_error = 0.0<br/>samples = 1<br/>value = -1.467>, fillcolor="#fef9f6"] ;
614 -> 616 ;
617 [label=<squared_error = 0.0<br/>samples = 1<br/>value = -1.45>, fillcolor="#fef9f5"] ;
613 -> 617 ;
618 [label=<squared_error = -0.0<br/>samples = 1<br/>value = -1.488>, fillcolor="#fefaf7"] ;
612 -> 618 ;
619 [label=<x<SUB>6</SUB> &le; 3.65<br/>squared_error = 0.0<br/>samples = 3<br/>value = -1.506>, fillcolor="#fefaf7"] ;
607 -> 619 ;
620 [label=<x<SUB>5</SUB> &le; 2.773<br/>squared_error = 0.0<br/>samples = 2<br/>value = -1.522>, fillcolor="#fefaf8"] ;
619 -> 620 ;
621 [label=<squared_error = -0.0<br/>samples = 1<br/>value = -1.523>, fillcolor="#fefaf8"] ;
620 -> 621 ;
622 [label=<squared_error = -0.0<br/>samples = 1<br/>value = -1.52>, fillcolor="#fefaf8"] ;
620 -> 622 ;
623 [label=<squared_error = -0.0<br/>samples = 1<br/>value = -1.482>, fillcolor="#fefaf7"] ;
619 -> 623 ;
624 [label=<squared_error = -0.0<br/>samples = 1<br/>value = -1.312>, fillcolor="#fdf6f1"] ;
606 -> 624 ;
625 [label=<x<SUB>5</SUB> &le; 3.865<br/>squared_error = 0.007<br/>samples = 7<br/>value = -1.605>, fillcolor="#fefcfb"] ;
605 -> 625 ;
626 [label=<x<SUB>5</SUB> &le; 3.105<br/>squared_error = 0.004<br/>samples = 5<br/>value = -1.566>, fillcolor="#fefbf9"] ;
625 -> 626 ;
627 [label=<squared_error = 0.0<br/>samples = 1<br/>value = -1.412>, fillcolor="#fef8f4"] ;
626 -> 627 ;
628 [label=<x<SUB>2</SUB> &le; -1.406<br/>squared_error = 0.001<br/>samples = 4<br/>value = -1.588>, fillcolor="#fefcfa"] ;
626 -> 628 ;
629 [label=<x<SUB>5</SUB> &le; 3.442<br/>squared_error = 0.0<br/>samples = 2<br/>value = -1.559>, fillcolor="#fefbf9"] ;
628 -> 629 ;
630 [label=<squared_error = 0.0<br/>samples = 1<br/>value = -1.544>, fillcolor="#fefbf9"] ;
629 -> 630 ;
631 [label=<squared_error = 0.0<br/>samples = 1<br/>value = -1.567>, fillcolor="#fefbf9"] ;
629 -> 631 ;
632 [label=<x<SUB>3</SUB> &le; 0.665<br/>squared_error = 0.0<br/>samples = 2<br/>value = -1.61>, fillcolor="#fefcfb"] ;
628 -> 632 ;
633 [label=<squared_error = 0.0<br/>samples = 1<br/>value = -1.611>, fillcolor="#fefcfb"] ;
632 -> 633 ;
634 [label=<squared_error = 0.0<br/>samples = 1<br/>value = -1.608>, fillcolor="#fefcfb"] ;
632 -> 634 ;
635 [label=<x<SUB>2</SUB> &le; -1.529<br/>squared_error = 0.0<br/>samples = 2<br/>value = -1.708>, fillcolor="#fffefe"] ;
625 -> 635 ;
636 [label=<squared_error = 0.0<br/>samples = 1<br/>value = -1.738>, fillcolor="#ffffff"] ;
635 -> 636 ;
637 [label=<squared_error = -0.0<br/>samples = 1<br/>value = -1.694>, fillcolor="#fffefe"] ;
635 -> 637 ;
638 [label=<x<SUB>1</SUB> &le; 1.286<br/>squared_error = 0.037<br/>samples = 30<br/>value = -1.271>, fillcolor="#fdf5f0"] ;
604 -> 638 ;
639 [label=<x<SUB>5</SUB> &le; 2.07<br/>squared_error = 0.005<br/>samples = 18<br/>value = -1.4>, fillcolor="#fef8f4"] ;
638 -> 639 ;
640 [label=<x<SUB>4</SUB> &le; -1.021<br/>squared_error = 0.003<br/>samples = 10<br/>value = -1.371>, fillcolor="#fdf7f3"] ;
639 -> 640 ;
641 [label=<squared_error = 0.0<br/>samples = 1<br/>value = -1.238>, fillcolor="#fdf4ee"] ;
640 -> 641 ;
642 [label=<x<SUB>0</SUB> &le; 0.266<br/>squared_error = 0.001<br/>samples = 9<br/>value = -1.384>, fillcolor="#fdf8f3"] ;
640 -> 642 ;
643 [label=<x<SUB>3</SUB> &le; 0.452<br/>squared_error = 0.001<br/>samples = 8<br/>value = -1.373>, fillcolor="#fdf7f3"] ;
642 -> 643 ;
644 [label=<x<SUB>0</SUB> &le; -0.569<br/>squared_error = 0.0<br/>samples = 7<br/>value = -1.377>, fillcolor="#fdf7f3"] ;
643 -> 644 ;
645 [label=<x<SUB>5</SUB> &le; 1.897<br/>squared_error = 0.0<br/>samples = 2<br/>value = -1.398>, fillcolor="#fef8f4"] ;
644 -> 645 ;
646 [label=<squared_error = 0.0<br/>samples = 1<br/>value = -1.397>, fillcolor="#fef8f4"] ;
645 -> 646 ;
647 [label=<squared_error = -0.0<br/>samples = 1<br/>value = -1.403>, fillcolor="#fef8f4"] ;
645 -> 647 ;
648 [label=<x<SUB>3</SUB> &le; 0.165<br/>squared_error = 0.0<br/>samples = 5<br/>value = -1.365>, fillcolor="#fdf7f3"] ;
644 -> 648 ;
649 [label=<x<SUB>0</SUB> &le; -0.567<br/>squared_error = 0.0<br/>samples = 4<br/>value = -1.361>, fillcolor="#fdf7f3"] ;
648 -> 649 ;
650 [label=<x<SUB>0</SUB> &le; -0.568<br/>squared_error = 0.0<br/>samples = 3<br/>value = -1.356>, fillcolor="#fdf7f2"] ;
649 -> 650 ;
651 [label=<x<SUB>2</SUB> &le; -1.077<br/>squared_error = 0.0<br/>samples = 2<br/>value = -1.357>, fillcolor="#fdf7f2"] ;
650 -> 651 ;
652 [label=<squared_error = 0.0<br/>samples = 1<br/>value = -1.359>, fillcolor="#fdf7f2"] ;
651 -> 652 ;
653 [label=<squared_error = 0.0<br/>samples = 1<br/>value = -1.356>, fillcolor="#fdf7f2"] ;
651 -> 653 ;
654 [label=<squared_error = -0.0<br/>samples = 1<br/>value = -1.344>, fillcolor="#fdf7f2"] ;
650 -> 654 ;
655 [label=<squared_error = 0.0<br/>samples = 1<br/>value = -1.4>, fillcolor="#fef8f4"] ;
649 -> 655 ;
656 [label=<squared_error = -0.0<br/>samples = 1<br/>value = -1.406>, fillcolor="#fef8f4"] ;
648 -> 656 ;
657 [label=<squared_error = -0.0<br/>samples = 1<br/>value = -1.297>, fillcolor="#fdf6f0"] ;
643 -> 657 ;
658 [label=<squared_error = -0.0<br/>samples = 1<br/>value = -1.447>, fillcolor="#fef9f5"] ;
642 -> 658 ;
659 [label=<x<SUB>4</SUB> &le; -0.909<br/>squared_error = 0.003<br/>samples = 8<br/>value = -1.457>, fillcolor="#fef9f6"] ;
639 -> 659 ;
660 [label=<x<SUB>3</SUB> &le; 0.597<br/>squared_error = 0.001<br/>samples = 6<br/>value = -1.478>, fillcolor="#fefaf6"] ;
659 -> 660 ;
661 [label=<x<SUB>4</SUB> &le; -0.976<br/>squared_error = 0.0<br/>samples = 4<br/>value = -1.466>, fillcolor="#fef9f6"] ;
660 -> 661 ;
662 [label=<x<SUB>3</SUB> &le; 0.581<br/>squared_error = 0.0<br/>samples = 3<br/>value = -1.46>, fillcolor="#fef9f6"] ;
661 -> 662 ;
663 [label=<x<SUB>3</SUB> &le; 0.043<br/>squared_error = 0.0<br/>samples = 2<br/>value = -1.451>, fillcolor="#fef9f6"] ;
662 -> 663 ;
664 [label=<squared_error = 0.0<br/>samples = 1<br/>value = -1.45>, fillcolor="#fef9f5"] ;
663 -> 664 ;
665 [label=<squared_error = 0.0<br/>samples = 1<br/>value = -1.453>, fillcolor="#fef9f6"] ;
663 -> 665 ;
666 [label=<squared_error = -0.0<br/>samples = 1<br/>value = -1.476>, fillcolor="#fef9f6"] ;
662 -> 666 ;
667 [label=<squared_error = -0.0<br/>samples = 1<br/>value = -1.506>, fillcolor="#fefaf7"] ;
661 -> 667 ;
668 [label=<x<SUB>6</SUB> &le; -0.0<br/>squared_error = 0.0<br/>samples = 2<br/>value = -1.519>, fillcolor="#fefaf8"] ;
660 -> 668 ;
669 [label=<squared_error = 0.0<br/>samples = 1<br/>value = -1.52>, fillcolor="#fefaf8"] ;
668 -> 669 ;
670 [label=<squared_error = 0.0<br/>samples = 1<br/>value = -1.517>, fillcolor="#fefaf8"] ;
668 -> 670 ;
671 [label=<x<SUB>5</SUB> &le; 2.322<br/>squared_error = 0.0<br/>samples = 2<br/>value = -1.366>, fillcolor="#fdf7f3"] ;
659 -> 671 ;
672 [label=<squared_error = 0.0<br/>samples = 1<br/>value = -1.344>, fillcolor="#fdf7f2"] ;
671 -> 672 ;
673 [label=<squared_error = 0.0<br/>samples = 1<br/>value = -1.388>, fillcolor="#fdf8f3"] ;
671 -> 673 ;
674 [label=<x<SUB>4</SUB> &le; -1.121<br/>squared_error = 0.015<br/>samples = 12<br/>value = -1.047>, fillcolor="#fcf0e8"] ;
638 -> 674 ;
675 [label=<x<SUB>5</SUB> &le; 2.492<br/>squared_error = 0.003<br/>samples = 5<br/>value = -1.168>, fillcolor="#fdf3ec"] ;
674 -> 675 ;
676 [label=<x<SUB>2</SUB> &le; -1.324<br/>squared_error = 0.0<br/>samples = 2<br/>value = -1.099>, fillcolor="#fcf2ea"] ;
675 -> 676 ;
677 [label=<squared_error = 0.0<br/>samples = 1<br/>value = -1.091>, fillcolor="#fcf1ea"] ;
676 -> 677 ;
678 [label=<squared_error = 0.0<br/>samples = 1<br/>value = -1.103>, fillcolor="#fcf2ea"] ;
676 -> 678 ;
679 [label=<x<SUB>6</SUB> &le; 1.559<br/>squared_error = 0.001<br/>samples = 3<br/>value = -1.209>, fillcolor="#fdf4ee"] ;
675 -> 679 ;
680 [label=<x<SUB>0</SUB> &le; -0.567<br/>squared_error = 0.0<br/>samples = 2<br/>value = -1.175>, fillcolor="#fdf3ec"] ;
679 -> 680 ;
681 [label=<squared_error = 0.0<br/>samples = 1<br/>value = -1.174>, fillcolor="#fdf3ec"] ;
680 -> 681 ;
682 [label=<squared_error = 0.0<br/>samples = 1<br/>value = -1.177>, fillcolor="#fdf3ec"] ;
680 -> 682 ;
683 [label=<squared_error = 0.0<br/>samples = 1<br/>value = -1.232>, fillcolor="#fdf4ee"] ;
679 -> 683 ;
684 [label=<x<SUB>3</SUB> &le; -0.169<br/>squared_error = 0.004<br/>samples = 7<br/>value = -0.958>, fillcolor="#fcefe5"] ;
674 -> 684 ;
685 [label=<x<SUB>6</SUB> &le; 1.441<br/>squared_error = 0.001<br/>samples = 3<br/>value = -0.886>, fillcolor="#fbede3"] ;
684 -> 685 ;
686 [label=<x<SUB>5</SUB> &le; 1.936<br/>squared_error = 0.0<br/>samples = 2<br/>value = -0.904>, fillcolor="#fbede3"] ;
685 -> 686 ;
687 [label=<squared_error = 0.0<br/>samples = 1<br/>value = -0.924>, fillcolor="#fbeee4"] ;
686 -> 687 ;
688 [label=<squared_error = -0.0<br/>samples = 1<br/>value = -0.895>, fillcolor="#fbede3"] ;
686 -> 688 ;
689 [label=<squared_error = 0.0<br/>samples = 1<br/>value = -0.83>, fillcolor="#fbece1"] ;
685 -> 689 ;
690 [label=<x<SUB>0</SUB> &le; -0.567<br/>squared_error = 0.001<br/>samples = 4<br/>value = -1.0>, fillcolor="#fcefe7"] ;
684 -> 690 ;
691 [label=<x<SUB>6</SUB> &le; 0.605<br/>squared_error = 0.001<br/>samples = 3<br/>value = -0.983>, fillcolor="#fcefe6"] ;
690 -> 691 ;
692 [label=<squared_error = 0.0<br/>samples = 1<br/>value = -1.012>, fillcolor="#fcf0e7"] ;
691 -> 692 ;
693 [label=<x<SUB>3</SUB> &le; -0.157<br/>squared_error = 0.0<br/>samples = 2<br/>value = -0.963>, fillcolor="#fcefe5"] ;
691 -> 693 ;
694 [label=<squared_error = 0.0<br/>samples = 1<br/>value = -0.974>, fillcolor="#fcefe6"] ;
693 -> 694 ;
695 [label=<squared_error = -0.0<br/>samples = 1<br/>value = -0.942>, fillcolor="#fceee5"] ;
693 -> 695 ;
696 [label=<squared_error = -0.0<br/>samples = 1<br/>value = -1.041>, fillcolor="#fcf0e8"] ;
690 -> 696 ;
697 [label=<x<SUB>3</SUB> &le; 1.524<br/>squared_error = 0.041<br/>samples = 12<br/>value = 0.258>, fillcolor="#f6d5bd"] ;
355 -> 697 ;
698 [label=<x<SUB>1</SUB> &le; -0.784<br/>squared_error = 0.011<br/>samples = 8<br/>value = 0.14>, fillcolor="#f7d7c1"] ;
697 -> 698 ;
699 [label=<x<SUB>5</SUB> &le; 0.46<br/>squared_error = 0.002<br/>samples = 4<br/>value = 0.031>, fillcolor="#f7dac5"] ;
698 -> 699 ;
700 [label=<x<SUB>3</SUB> &le; 1.389<br/>squared_error = 0.0<br/>samples = 3<br/>value = 0.055>, fillcolor="#f7d9c4"] ;
699 -> 700 ;
701 [label=<squared_error = 0.0<br/>samples = 2<br/>value = 0.045>, fillcolor="#f7d9c4"] ;
700 -> 701 ;
702 [label=<squared_error = 0.0<br/>samples = 1<br/>value = 0.075>, fillcolor="#f7d9c3"] ;
700 -> 702 ;
703 [label=<squared_error = 0.0<br/>samples = 1<br/>value = -0.043>, fillcolor="#f8dbc7"] ;
699 -> 703 ;
704 [label=<x<SUB>0</SUB> &le; 0.962<br/>squared_error = 0.001<br/>samples = 4<br/>value = 0.227>, fillcolor="#f6d6be"] ;
698 -> 704 ;
705 [label=<x<SUB>2</SUB> &le; 0.234<br/>squared_error = 0.0<br/>samples = 2<br/>value = 0.266>, fillcolor="#f6d5bd"] ;
704 -> 705 ;
706 [label=<squared_error = 0.0<br/>samples = 1<br/>value = 0.28>, fillcolor="#f6d5bc"] ;
705 -> 706 ;
707 [label=<squared_error = 0.0<br/>samples = 1<br/>value = 0.251>, fillcolor="#f6d5bd"] ;
705 -> 707 ;
708 [label=<x<SUB>3</SUB> &le; 1.508<br/>squared_error = 0.0<br/>samples = 2<br/>value = 0.202>, fillcolor="#f7d6bf"] ;
704 -> 708 ;
709 [label=<squared_error = 0.0<br/>samples = 1<br/>value = 0.221>, fillcolor="#f6d6be"] ;
708 -> 709 ;
710 [label=<squared_error = -0.0<br/>samples = 1<br/>value = 0.192>, fillcolor="#f7d6bf"] ;
708 -> 710 ;
711 [label=<x<SUB>3</SUB> &le; 1.598<br/>squared_error = 0.008<br/>samples = 4<br/>value = 0.523>, fillcolor="#f5cfb4"] ;
697 -> 711 ;
712 [label=<x<SUB>2</SUB> &le; 0.88<br/>squared_error = 0.001<br/>samples = 2<br/>value = 0.603>, fillcolor="#f5ceb2"] ;
711 -> 712 ;
713 [label=<squared_error = 0.0<br/>samples = 1<br/>value = 0.633>, fillcolor="#f5cdb1"] ;
712 -> 713 ;
714 [label=<squared_error = 0.0<br/>samples = 1<br/>value = 0.574>, fillcolor="#f5ceb3"] ;
712 -> 714 ;
715 [label=<x<SUB>3</SUB> &le; 1.664<br/>squared_error = 0.002<br/>samples = 2<br/>value = 0.442>, fillcolor="#f6d1b7"] ;
711 -> 715 ;
716 [label=<squared_error = 0.0<br/>samples = 1<br/>value = 0.486>, fillcolor="#f5d0b5"] ;
715 -> 716 ;
717 [label=<squared_error = 0.0<br/>samples = 1<br/>value = 0.398>, fillcolor="#f6d2b8"] ;
715 -> 717 ;
718 [label=<x<SUB>0</SUB> &le; 1.929<br/>squared_error = 0.826<br/>samples = 365<br/>value = 0.708>, fillcolor="#f4ccae"] ;
0 -> 718 [labeldistance=2.5, labelangle=-45, headlabel="False"] ;
719 [label=<x<SUB>0</SUB> &le; -0.01<br/>squared_error = 0.353<br/>samples = 328<br/>value = 0.484>, fillcolor="#f5d0b6"] ;
718 -> 719 ;
720 [label=<x<SUB>4</SUB> &le; 0.662<br/>squared_error = 0.24<br/>samples = 131<br/>value = 0.187>, fillcolor="#f7d6bf"] ;
719 -> 720 ;
721 [label=<x<SUB>1</SUB> &le; 1.416<br/>squared_error = 0.126<br/>samples = 100<br/>value = -0.014>, fillcolor="#f8dbc6"] ;
720 -> 721 ;
722 [label=<x<SUB>5</SUB> &le; 0.247<br/>squared_error = 0.086<br/>samples = 86<br/>value = -0.096>, fillcolor="#f8dcc9"] ;
721 -> 722 ;
723 [label=<x<SUB>3</SUB> &le; -0.392<br/>squared_error = 0.048<br/>samples = 79<br/>value = -0.039>, fillcolor="#f8dbc7"] ;
722 -> 723 ;
724 [label=<x<SUB>0</SUB> &le; -1.123<br/>squared_error = 0.025<br/>samples = 38<br/>value = -0.15>, fillcolor="#f8deca"] ;
723 -> 724 ;
725 [label=<x<SUB>4</SUB> &le; 0.172<br/>squared_error = 0.013<br/>samples = 16<br/>value = -0.022>, fillcolor="#f8dbc6"] ;
724 -> 725 ;
726 [label=<x<SUB>3</SUB> &le; -1.406<br/>squared_error = 0.0<br/>samples = 8<br/>value = -0.12>, fillcolor="#f8ddca"] ;
725 -> 726 ;
727 [label=<squared_error = 0.0<br/>samples = 4<br/>value = -0.131>, fillcolor="#f8ddca"] ;
726 -> 727 ;
728 [label=<x<SUB>0</SUB> &le; -1.125<br/>squared_error = 0.0<br/>samples = 4<br/>value = -0.106>, fillcolor="#f8ddc9"] ;
726 -> 728 ;
729 [label=<squared_error = 0.0<br/>samples = 1<br/>value = -0.131>, fillcolor="#f8ddca"] ;
728 -> 729 ;
730 [label=<squared_error = 0.0<br/>samples = 3<br/>value = -0.102>, fillcolor="#f8ddc9"] ;
728 -> 730 ;
731 [label=<x<SUB>6</SUB> &le; 1.242<br/>squared_error = 0.002<br/>samples = 8<br/>value = 0.103>, fillcolor="#f7d8c2"] ;
725 -> 731 ;
732 [label=<x<SUB>6</SUB> &le; 1.116<br/>squared_error = 0.001<br/>samples = 5<br/>value = 0.146>, fillcolor="#f7d7c1"] ;
731 -> 732 ;
733 [label=<x<SUB>3</SUB> &le; -1.197<br/>squared_error = 0.0<br/>samples = 2<br/>value = 0.174>, fillcolor="#f7d7c0"] ;
732 -> 733 ;
734 [label=<squared_error = 0.0<br/>samples = 1<br/>value = 0.166>, fillcolor="#f7d7c0"] ;
733 -> 734 ;
735 [label=<squared_error = 0.0<br/>samples = 1<br/>value = 0.183>, fillcolor="#f7d7bf"] ;
733 -> 735 ;
736 [label=<x<SUB>0</SUB> &le; -1.124<br/>squared_error = 0.0<br/>samples = 3<br/>value = 0.128>, fillcolor="#f7d8c1"] ;
732 -> 736 ;
737 [label=<x<SUB>4</SUB> &le; 0.25<br/>squared_error = 0.0<br/>samples = 2<br/>value = 0.138>, fillcolor="#f7d8c1"] ;
736 -> 737 ;
738 [label=<squared_error = 0.0<br/>samples = 1<br/>value = 0.13>, fillcolor="#f7d8c1"] ;
737 -> 738 ;
739 [label=<squared_error = 0.0<br/>samples = 1<br/>value = 0.145>, fillcolor="#f7d7c1"] ;
737 -> 739 ;
740 [label=<squared_error = -0.0<br/>samples = 1<br/>value = 0.107>, fillcolor="#f7d8c2"] ;
736 -> 740 ;
741 [label=<x<SUB>5</SUB> &le; -0.636<br/>squared_error = 0.001<br/>samples = 3<br/>value = 0.067>, fillcolor="#f7d9c3"] ;
731 -> 741 ;
742 [label=<x<SUB>3</SUB> &le; -1.2<br/>squared_error = 0.0<br/>samples = 2<br/>value = 0.051>, fillcolor="#f7d9c4"] ;
741 -> 742 ;
743 [label=<squared_error = 0.0<br/>samples = 1<br/>value = 0.057>, fillcolor="#f7d9c4"] ;
742 -> 743 ;
744 [label=<squared_error = -0.0<br/>samples = 1<br/>value = 0.045>, fillcolor="#f7d9c4"] ;
742 -> 744 ;
745 [label=<squared_error = 0.0<br/>samples = 1<br/>value = 0.098>, fillcolor="#f7d8c2"] ;
741 -> 745 ;
746 [label=<x<SUB>2</SUB> &le; -0.21<br/>squared_error = 0.012<br/>samples = 22<br/>value = -0.247>, fillcolor="#f9e0ce"] ;
724 -> 746 ;
747 [label=<x<SUB>1</SUB> &le; 0.294<br/>squared_error = 0.007<br/>samples = 17<br/>value = -0.296>, fillcolor="#f9e1cf"] ;
746 -> 747 ;
748 [label=<x<SUB>3</SUB> &le; -0.675<br/>squared_error = 0.003<br/>samples = 13<br/>value = -0.326>, fillcolor="#f9e1d0"] ;
747 -> 748 ;
749 [label=<x<SUB>3</SUB> &le; -0.834<br/>squared_error = 0.0<br/>samples = 6<br/>value = -0.374>, fillcolor="#f9e2d2"] ;
748 -> 749 ;
750 [label=<squared_error = 0.0<br/>samples = 1<br/>value = -0.395>, fillcolor="#f9e3d3"] ;
749 -> 750 ;
751 [label=<x<SUB>0</SUB> &le; -0.568<br/>squared_error = 0.0<br/>samples = 5<br/>value = -0.368>, fillcolor="#f9e2d2"] ;
749 -> 751 ;
752 [label=<x<SUB>6</SUB> &le; 0.401<br/>squared_error = 0.0<br/>samples = 3<br/>value = -0.364>, fillcolor="#f9e2d2"] ;
751 -> 752 ;
753 [label=<squared_error = -0.0<br/>samples = 1<br/>value = -0.363>, fillcolor="#f9e2d2"] ;
752 -> 753 ;
754 [label=<squared_error = -0.0<br/>samples = 2<br/>value = -0.366>, fillcolor="#f9e2d2"] ;
752 -> 754 ;
755 [label=<x<SUB>6</SUB> &le; 0.346<br/>squared_error = 0.0<br/>samples = 2<br/>value = -0.376>, fillcolor="#f9e2d2"] ;
751 -> 755 ;
756 [label=<squared_error = 0.0<br/>samples = 1<br/>value = -0.375>, fillcolor="#f9e2d2"] ;
755 -> 756 ;
757 [label=<squared_error = 0.0<br/>samples = 1<br/>value = -0.378>, fillcolor="#f9e2d2"] ;
755 -> 757 ;
758 [label=<x<SUB>4</SUB> &le; 0.406<br/>squared_error = 0.002<br/>samples = 7<br/>value = -0.287>, fillcolor="#f9e0cf"] ;
748 -> 758 ;
759 [label=<x<SUB>6</SUB> &le; 0.218<br/>squared_error = 0.001<br/>samples = 3<br/>value = -0.222>, fillcolor="#f8dfcd"] ;
758 -> 759 ;
760 [label=<x<SUB>0</SUB> &le; -0.567<br/>squared_error = 0.0<br/>samples = 2<br/>value = -0.204>, fillcolor="#f8dfcc"] ;
759 -> 760 ;
761 [label=<squared_error = 0.0<br/>samples = 1<br/>value = -0.201>, fillcolor="#f8dfcc"] ;
760 -> 761 ;
762 [label=<squared_error = 0.0<br/>samples = 1<br/>value = -0.207>, fillcolor="#f8dfcc"] ;
760 -> 762 ;
763 [label=<squared_error = -0.0<br/>samples = 1<br/>value = -0.257>, fillcolor="#f9e0ce"] ;
759 -> 763 ;
764 [label=<x<SUB>6</SUB> &le; 0.195<br/>squared_error = 0.0<br/>samples = 4<br/>value = -0.311>, fillcolor="#f9e1d0"] ;
758 -> 764 ;
765 [label=<squared_error = 0.0<br/>samples = 1<br/>value = -0.29>, fillcolor="#f9e1cf"] ;
764 -> 765 ;
766 [label=<x<SUB>3</SUB> &le; -0.485<br/>squared_error = 0.0<br/>samples = 3<br/>value = -0.314>, fillcolor="#f9e1d0"] ;
764 -> 766 ;
767 [label=<squared_error = 0.0<br/>samples = 1<br/>value = -0.322>, fillcolor="#f9e1d0"] ;
766 -> 767 ;
768 [label=<x<SUB>0</SUB> &le; -0.571<br/>squared_error = 0.0<br/>samples = 2<br/>value = -0.311>, fillcolor="#f9e1d0"] ;
766 -> 768 ;
769 [label=<squared_error = 0.0<br/>samples = 1<br/>value = -0.313>, fillcolor="#f9e1d0"] ;
768 -> 769 ;
770 [label=<squared_error = -0.0<br/>samples = 1<br/>value = -0.31>, fillcolor="#f9e1d0"] ;
768 -> 770 ;
771 [label=<x<SUB>2</SUB> &le; -0.9<br/>squared_error = 0.0<br/>samples = 4<br/>value = -0.146>, fillcolor="#f8ddca"] ;
747 -> 771 ;
772 [label=<squared_error = 0.0<br/>samples = 2<br/>value = -0.16>, fillcolor="#f8decb"] ;
771 -> 772 ;
773 [label=<squared_error = 0.0<br/>samples = 2<br/>value = -0.131>, fillcolor="#f8ddca"] ;
771 -> 773 ;
774 [label=<x<SUB>2</SUB> &le; -0.169<br/>squared_error = 0.001<br/>samples = 5<br/>value = -0.119>, fillcolor="#f8ddc9"] ;
746 -> 774 ;
775 [label=<x<SUB>2</SUB> &le; -0.193<br/>squared_error = 0.0<br/>samples = 3<br/>value = -0.136>, fillcolor="#f8ddca"] ;
774 -> 775 ;
776 [label=<squared_error = 0.0<br/>samples = 1<br/>value = -0.16>, fillcolor="#f8decb"] ;
775 -> 776 ;
777 [label=<squared_error = -0.0<br/>samples = 2<br/>value = -0.131>, fillcolor="#f8ddca"] ;
775 -> 777 ;
778 [label=<x<SUB>6</SUB> &le; 0.145<br/>squared_error = 0.0<br/>samples = 2<br/>value = -0.084>, fillcolor="#f8dcc8"] ;
774 -> 778 ;
779 [label=<squared_error = 0.0<br/>samples = 1<br/>value = -0.075>, fillcolor="#f8dcc8"] ;
778 -> 779 ;
780 [label=<squared_error = -0.0<br/>samples = 1<br/>value = -0.102>, fillcolor="#f8ddc9"] ;
778 -> 780 ;
781 [label=<x<SUB>1</SUB> &le; -0.828<br/>squared_error = 0.048<br/>samples = 41<br/>value = 0.059>, fillcolor="#f7d9c4"] ;
723 -> 781 ;
782 [label=<x<SUB>5</SUB> &le; -0.572<br/>squared_error = 0.014<br/>samples = 18<br/>value = -0.13>, fillcolor="#f8ddca"] ;
781 -> 782 ;
783 [label=<x<SUB>4</SUB> &le; 0.317<br/>squared_error = 0.006<br/>samples = 13<br/>value = -0.074>, fillcolor="#f8dcc8"] ;
782 -> 783 ;
784 [label=<x<SUB>4</SUB> &le; 0.172<br/>squared_error = 0.003<br/>samples = 5<br/>value = -0.003>, fillcolor="#f7dac6"] ;
783 -> 784 ;
785 [label=<x<SUB>0</SUB> &le; -0.012<br/>squared_error = 0.001<br/>samples = 2<br/>value = 0.062>, fillcolor="#f7d9c3"] ;
784 -> 785 ;
786 [label=<squared_error = 0.0<br/>samples = 1<br/>value = 0.081>, fillcolor="#f7d9c3"] ;
785 -> 786 ;
787 [label=<squared_error = 0.0<br/>samples = 1<br/>value = 0.025>, fillcolor="#f7dac5"] ;
785 -> 787 ;
788 [label=<x<SUB>5</SUB> &le; -0.753<br/>squared_error = 0.001<br/>samples = 3<br/>value = -0.036>, fillcolor="#f8dbc7"] ;
784 -> 788 ;
789 [label=<squared_error = 0.0<br/>samples = 1<br/>value = -0.081>, fillcolor="#f8dcc8"] ;
788 -> 789 ;
790 [label=<x<SUB>3</SUB> &le; 0.33<br/>squared_error = 0.0<br/>samples = 2<br/>value = -0.013>, fillcolor="#f8dbc6"] ;
788 -> 790 ;
791 [label=<squared_error = 0.0<br/>samples = 1<br/>value = -0.016>, fillcolor="#f8dbc6"] ;
790 -> 791 ;
792 [label=<squared_error = -0.0<br/>samples = 1<br/>value = -0.005>, fillcolor="#f7dbc6"] ;
790 -> 792 ;
793 [label=<x<SUB>3</SUB> &le; 0.249<br/>squared_error = 0.002<br/>samples = 8<br/>value = -0.126>, fillcolor="#f8ddca"] ;
783 -> 793 ;
794 [label=<x<SUB>6</SUB> &le; -0.508<br/>squared_error = 0.0<br/>samples = 4<br/>value = -0.162>, fillcolor="#f8decb"] ;
793 -> 794 ;
795 [label=<squared_error = 0.0<br/>samples = 2<br/>value = -0.178>, fillcolor="#f8decb"] ;
794 -> 795 ;
796 [label=<x<SUB>0</SUB> &le; -0.011<br/>squared_error = 0.0<br/>samples = 2<br/>value = -0.147>, fillcolor="#f8deca"] ;
794 -> 796 ;
797 [label=<squared_error = 0.0<br/>samples = 1<br/>value = -0.143>, fillcolor="#f8ddca"] ;
796 -> 797 ;
798 [label=<squared_error = -0.0<br/>samples = 1<br/>value = -0.154>, fillcolor="#f8decb"] ;
796 -> 798 ;
799 [label=<x<SUB>5</SUB> &le; -0.62<br/>squared_error = 0.001<br/>samples = 4<br/>value = -0.09>, fillcolor="#f8dcc9"] ;
793 -> 799 ;
800 [label=<x<SUB>2</SUB> &le; 0.567<br/>squared_error = 0.0<br/>samples = 3<br/>value = -0.075>, fillcolor="#f8dcc8"] ;
799 -> 800 ;
801 [label=<squared_error = 0.0<br/>samples = 1<br/>value = -0.049>, fillcolor="#f8dbc7"] ;
800 -> 801 ;
802 [label=<x<SUB>0</SUB> &le; -0.013<br/>squared_error = 0.0<br/>samples = 2<br/>value = -0.082>, fillcolor="#f8dcc8"] ;
800 -> 802 ;
803 [label=<squared_error = 0.0<br/>samples = 1<br/>value = -0.075>, fillcolor="#f8dcc8"] ;
802 -> 803 ;
804 [label=<squared_error = 0.0<br/>samples = 1<br/>value = -0.084>, fillcolor="#f8dcc8"] ;
802 -> 804 ;
805 [label=<squared_error = -0.0<br/>samples = 1<br/>value = -0.166>, fillcolor="#f8decb"] ;
799 -> 805 ;
806 [label=<x<SUB>5</SUB> &le; -0.281<br/>squared_error = 0.004<br/>samples = 5<br/>value = -0.28>, fillcolor="#f9e0cf"] ;
782 -> 806 ;
807 [label=<x<SUB>4</SUB> &le; 0.451<br/>squared_error = 0.0<br/>samples = 4<br/>value = -0.235>, fillcolor="#f8dfcd"] ;
806 -> 807 ;
808 [label=<x<SUB>3</SUB> &le; 0.342<br/>squared_error = 0.0<br/>samples = 3<br/>value = -0.224>, fillcolor="#f8dfcd"] ;
807 -> 808 ;
809 [label=<squared_error = 0.0<br/>samples = 2<br/>value = -0.228>, fillcolor="#f8dfcd"] ;
808 -> 809 ;
810 [label=<squared_error = 0.0<br/>samples = 1<br/>value = -0.213>, fillcolor="#f8dfcd"] ;
808 -> 810 ;
811 [label=<squared_error = -0.0<br/>samples = 1<br/>value = -0.278>, fillcolor="#f9e0cf"] ;
807 -> 811 ;
812 [label=<squared_error = 0.0<br/>samples = 1<br/>value = -0.354>, fillcolor="#f9e2d1"] ;
806 -> 812 ;
813 [label=<x<SUB>6</SUB> &le; -0.344<br/>squared_error = 0.025<br/>samples = 23<br/>value = 0.208>, fillcolor="#f7d6bf"] ;
781 -> 813 ;
814 [label=<x<SUB>5</SUB> &le; -0.451<br/>squared_error = 0.009<br/>samples = 10<br/>value = 0.336>, fillcolor="#f6d3ba"] ;
813 -> 814 ;
815 [label=<x<SUB>0</SUB> &le; -0.016<br/>squared_error = 0.005<br/>samples = 9<br/>value = 0.362>, fillcolor="#f6d3ba"] ;
814 -> 815 ;
816 [label=<x<SUB>2</SUB> &le; 0.473<br/>squared_error = 0.002<br/>samples = 2<br/>value = 0.437>, fillcolor="#f6d1b7"] ;
815 -> 816 ;
