digraph Tree {
node [shape=box, style="filled, rounded", color="black", fontname="helvetica"] ;
edge [fontname="helvetica"] ;
0 [label=<x<SUB>4</SUB> &le; -0.04<br/>squared_error = 1.043<br/>samples = 828<br/>value = 0.015>, fillcolor="#f7d7c0"] ;
1 [label=<x<SUB>5</SUB> &le; 0.017<br/>squared_error = 0.305<br/>samples = 445<br/>value = -0.638>, fillcolor="#fae4d5"] ;
0 -> 1 [labeldistance=2.5, labelangle=45, headlabel="True"] ;
2 [label=<x<SUB>0</SUB> &le; 0.697<br/>squared_error = 0.185<br/>samples = 240<br/>value = -0.29>, fillcolor="#f8ddca"] ;
1 -> 2 ;
3 [label=<x<SUB>1</SUB> &le; 1.286<br/>squared_error = 0.104<br/>samples = 217<br/>value = -0.387>, fillcolor="#f8dfcd"] ;
2 -> 3 ;
4 [label=<x<SUB>1</SUB> &le; -0.439<br/>squared_error = 0.082<br/>samples = 168<br/>value = -0.481>, fillcolor="#f9e1d0"] ;
3 -> 4 ;
5 [label=<x<SUB>4</SUB> &le; -0.842<br/>squared_error = 0.064<br/>samples = 80<br/>value = -0.6>, fillcolor="#f9e4d4"] ;
4 -> 5 ;
6 [label=<x<SUB>3</SUB> &le; -1.258<br/>squared_error = 0.03<br/>samples = 7<br/>value = -1.009>, fillcolor="#fbece1"] ;
5 -> 6 ;
7 [label=<x<SUB>3</SUB> &le; -1.369<br/>squared_error = 0.01<br/>samples = 5<br/>value = -0.933>, fillcolor="#fbeadf"] ;
6 -> 7 ;
8 [label=<squared_error = 0.0<br/>samples = 1<br/>value = -1.162>, fillcolor="#fcefe6"] ;
7 -> 8 ;
9 [label=<x<SUB>5</SUB> &le; -0.479<br/>squared_error = 0.002<br/>samples = 4<br/>value = -0.895>, fillcolor="#fbeadd"] ;
7 -> 9 ;
10 [label=<x<SUB>4</SUB> &le; -0.887<br/>squared_error = 0.0<br/>samples = 3<br/>value = -0.878>, fillcolor="#fbe9dd"] ;
9 -> 10 ;
11 [label=<squared_error = 0.0<br/>samples = 1<br/>value = -0.853>, fillcolor="#fae9dc"] ;
10 -> 11 ;
12 [label=<squared_error = 0.0<br/>samples = 2<br/>value = -0.895>, fillcolor="#fbeadd"] ;
10 -> 12 ;
13 [label=<squared_error = -0.0<br/>samples = 1<br/>value = -0.98>, fillcolor="#fbebe0"] ;
9 -> 13 ;
14 [label=<x<SUB>5</SUB> &le; -0.422<br/>squared_error = 0.008<br/>samples = 2<br/>value = -1.276>, fillcolor="#fcf1ea"] ;
6 -> 14 ;
15 [label=<squared_error = 0.0<br/>samples = 1<br/>value = -1.365>, fillcolor="#fdf3ec"] ;
14 -> 15 ;
16 [label=<squared_error = 0.0<br/>samples = 1<br/>value = -1.188>, fillcolor="#fcf0e7"] ;
14 -> 16 ;
17 [label=<x<SUB>1</SUB> &le; -1.553<br/>squared_error = 0.051<br/>samples = 73<br/>value = -0.565>, fillcolor="#f9e3d3"] ;
5 -> 17 ;
18 [label=<x<SUB>3</SUB> &le; 0.488<br/>squared_error = 0.01<br/>samples = 25<br/>value = -0.71>, fillcolor="#fae6d7"] ;
17 -> 18 ;
19 [label=<x<SUB>5</SUB> &le; -0.67<br/>squared_error = 0.003<br/>samples = 6<br/>value = -0.846>, fillcolor="#fae9dc"] ;
18 -> 19 ;
20 [label=<squared_error = 0.0<br/>samples = 1<br/>value = -0.953>, fillcolor="#fbebdf"] ;
19 -> 20 ;
21 [label=<x<SUB>6</SUB> &le; -1.002<br/>squared_error = 0.0<br/>samples = 5<br/>value = -0.815>, fillcolor="#fae8db"] ;
19 -> 21 ;
22 [label=<x<SUB>0</SUB> &le; -0.014<br/>squared_error = 0.0<br/>samples = 3<br/>value = -0.81>, fillcolor="#fae8db"] ;
21 -> 22 ;
23 [label=<squared_error = 0.0<br/>samples = 1<br/>value = -0.812>, fillcolor="#fae8db"] ;
22 -> 23 ;
24 [label=<squared_error = -0.0<br/>samples = 2<br/>value = -0.809>, fillcolor="#fae8db"] ;
22 -> 24 ;
25 [label=<x<SUB>6</SUB> &le; -0.991<br/>squared_error = 0.0<br/>samples = 2<br/>value = -0.822>, fillcolor="#fae8db"] ;
21 -> 25 ;
26 [label=<squared_error = 0.0<br/>samples = 1<br/>value = -0.818>, fillcolor="#fae8db"] ;
25 -> 26 ;
27 [label=<squared_error = 0.0<br/>samples = 1<br/>value = -0.824>, fillcolor="#fae8db"] ;
25 -> 27 ;
28 [label=<x<SUB>3</SUB> &le; 0.986<br/>squared_error = 0.005<br/>samples = 19<br/>value = -0.668>, fillcolor="#fae5d6"] ;
18 -> 28 ;
29 [label=<x<SUB>2</SUB> &le; 1.303<br/>squared_error = 0.002<br/>samples = 18<br/>value = -0.678>, fillcolor="#fae5d6"] ;
28 -> 29 ;
30 [label=<x<SUB>4</SUB> &le; -0.586<br/>squared_error = 0.001<br/>samples = 10<br/>value = -0.712>, fillcolor="#fae6d8"] ;
29 -> 30 ;
31 [label=<squared_error = 0.0<br/>samples = 1<br/>value = -0.66>, fillcolor="#fae5d6"] ;
30 -> 31 ;
32 [label=<x<SUB>3</SUB> &le; 0.628<br/>squared_error = 0.0<br/>samples = 9<br/>value = -0.727>, fillcolor="#fae6d8"] ;
30 -> 32 ;
33 [label=<x<SUB>1</SUB> &le; -1.561<br/>squared_error = 0.0<br/>samples = 2<br/>value = -0.749>, fillcolor="#fae7d9"] ;
32 -> 33 ;
34 [label=<squared_error = 0.0<br/>samples = 1<br/>value = -0.748>, fillcolor="#fae7d9"] ;
33 -> 34 ;
35 [label=<squared_error = 0.0<br/>samples = 1<br/>value = -0.751>, fillcolor="#fae7d9"] ;
33 -> 35 ;
36 [label=<x<SUB>0</SUB> &le; 0.565<br/>squared_error = 0.0<br/>samples = 7<br/>value = -0.718>, fillcolor="#fae6d8"] ;
32 -> 36 ;
37 [label=<x<SUB>5</SUB> &le; -0.434<br/>squared_error = 0.0<br/>samples = 6<br/>value = -0.723>, fillcolor="#fae6d8"] ;
36 -> 37 ;
38 [label=<squared_error = 0.0<br/>samples = 5<br/>value = -0.718>, fillcolor="#fae6d8"] ;
37 -> 38 ;
39 [label=<squared_error = -0.0<br/>samples = 1<br/>value = -0.748>, fillcolor="#fae7d9"] ;
37 -> 39 ;
40 [label=<squared_error = 0.0<br/>samples = 1<br/>value = -0.689>, fillcolor="#fae5d7"] ;
36 -> 40 ;
41 [label=<x<SUB>3</SUB> &le; 0.887<br/>squared_error = 0.002<br/>samples = 8<br/>value = -0.648>, fillcolor="#fae5d6"] ;
29 -> 41 ;
42 [label=<x<SUB>4</SUB> &le; -0.263<br/>squared_error = 0.0<br/>samples = 5<br/>value = -0.618>, fillcolor="#f9e4d5"] ;
41 -> 42 ;
43 [label=<x<SUB>0</SUB> &le; 0.544<br/>squared_error = 0.0<br/>samples = 2<br/>value = -0.592>, fillcolor="#f9e3d4"] ;
42 -> 43 ;
44 [label=<squared_error = 0.0<br/>samples = 1<br/>value = -0.604>, fillcolor="#f9e4d4"] ;
43 -> 44 ;
45 [label=<squared_error = -0.0<br/>samples = 1<br/>value = -0.569>, fillcolor="#f9e3d3"] ;
43 -> 45 ;
46 [label=<x<SUB>5</SUB> &le; -0.687<br/>squared_error = 0.0<br/>samples = 3<br/>value = -0.631>, fillcolor="#f9e4d5"] ;
42 -> 46 ;
47 [label=<squared_error = 0.0<br/>samples = 1<br/>value = -0.645>, fillcolor="#fae5d5"] ;
46 -> 47 ;
48 [label=<squared_error = 0.0<br/>samples = 2<br/>value = -0.624>, fillcolor="#f9e4d5"] ;
46 -> 48 ;
49 [label=<x<SUB>2</SUB> &le; 1.472<br/>squared_error = 0.0<br/>samples = 3<br/>value = -0.693>, fillcolor="#fae6d7"] ;
41 -> 49 ;
50 [label=<squared_error = 0.0<br/>samples = 1<br/>value = -0.73>, fillcolor="#fae6d8"] ;
49 -> 50 ;
51 [label=<x<SUB>4</SUB> &le; -0.129<br/>squared_error = 0.0<br/>samples = 2<br/>value = -0.685>, fillcolor="#fae5d7"] ;
49 -> 51 ;
52 [label=<squared_error = 0.0<br/>samples = 1<br/>value = -0.68>, fillcolor="#fae5d7"] ;
51 -> 52 ;
53 [label=<squared_error = -0.0<br/>samples = 1<br/>value = -0.689>, fillcolor="#fae5d7"] ;
51 -> 53 ;
54 [label=<squared_error = 0.0<br/>samples = 1<br/>value = -0.398>, fillcolor="#f9e0ce"] ;
28 -> 54 ;
55 [label=<x<SUB>6</SUB> &le; -1.149<br/>squared_error = 0.056<br/>samples = 48<br/>value = -0.484>, fillcolor="#f9e1d0"] ;
17 -> 55 ;
56 [label=<x<SUB>2</SUB> &le; 1.311<br/>squared_error = 0.053<br/>samples = 14<br/>value = -0.285>, fillcolor="#f8ddca"] ;
55 -> 56 ;
57 [label=<x<SUB>4</SUB> &le; -0.597<br/>squared_error = 0.018<br/>samples = 3<br/>value = 0.163>, fillcolor="#f6d4bc"] ;
56 -> 57 ;
58 [label=<x<SUB>4</SUB> &le; -0.642<br/>squared_error = 0.003<br/>samples = 2<br/>value = 0.075>, fillcolor="#f7d6be"] ;
57 -> 58 ;
59 [label=<squared_error = 0.0<br/>samples = 1<br/>value = 0.016>, fillcolor="#f7d7c0"] ;
58 -> 59 ;
60 [label=<squared_error = 0.0<br/>samples = 1<br/>value = 0.133>, fillcolor="#f6d5bd"] ;
58 -> 60 ;
61 [label=<squared_error = 0.0<br/>samples = 1<br/>value = 0.339>, fillcolor="#f5d1b6"] ;
57 -> 61 ;
62 [label=<x<SUB>3</SUB> &le; 1.008<br/>squared_error = 0.009<br/>samples = 11<br/>value = -0.381>, fillcolor="#f8dfcd"] ;
56 -> 62 ;
63 [label=<x<SUB>0</SUB> &le; 0.549<br/>squared_error = 0.005<br/>samples = 8<br/>value = -0.414>, fillcolor="#f9e0ce"] ;
62 -> 63 ;
64 [label=<x<SUB>2</SUB> &le; 1.426<br/>squared_error = 0.001<br/>samples = 7<br/>value = -0.395>, fillcolor="#f8dfcd"] ;
63 -> 64 ;
65 [label=<squared_error = 0.0<br/>samples = 1<br/>value = -0.483>, fillcolor="#f9e1d0"] ;
64 -> 65 ;
66 [label=<x<SUB>6</SUB> &le; -1.316<br/>squared_error = 0.0<br/>samples = 6<br/>value = -0.386>, fillcolor="#f8dfcd"] ;
64 -> 66 ;
67 [label=<squared_error = 0.0<br/>samples = 3<br/>value = -0.366>, fillcolor="#f8dfcc"] ;
66 -> 67 ;
68 [label=<x<SUB>5</SUB> &le; -0.678<br/>squared_error = 0.0<br/>samples = 3<br/>value = -0.401>, fillcolor="#f9e0ce"] ;
66 -> 68 ;
69 [label=<squared_error = -0.0<br/>samples = 2<br/>value = -0.395>, fillcolor="#f8dfcd"] ;
68 -> 69 ;
70 [label=<squared_error = 0.0<br/>samples = 1<br/>value = -0.425>, fillcolor="#f9e0ce"] ;
68 -> 70 ;
71 [label=<squared_error = 0.0<br/>samples = 1<br/>value = -0.601>, fillcolor="#f9e4d4"] ;
63 -> 71 ;
72 [label=<x<SUB>6</SUB> &le; -1.271<br/>squared_error = 0.005<br/>samples = 3<br/>value = -0.258>, fillcolor="#f8ddc9"] ;
62 -> 72 ;
73 [label=<squared_error = 0.0<br/>samples = 1<br/>value = -0.16>, fillcolor="#f8dbc6"] ;
72 -> 73 ;
74 [label=<squared_error = 0.0<br/>samples = 2<br/>value = -0.307>, fillcolor="#f8decb"] ;
72 -> 74 ;
75 [label=<x<SUB>4</SUB> &le; -0.207<br/>squared_error = 0.039<br/>samples = 34<br/>value = -0.551>, fillcolor="#f9e3d2"] ;
55 -> 75 ;
76 [label=<x<SUB>2</SUB> &le; -0.65<br/>squared_error = 0.01<br/>samples = 23<br/>value = -0.628>, fillcolor="#f9e4d5"] ;
75 -> 76 ;
77 [label=<x<SUB>3</SUB> &le; -1.154<br/>squared_error = 0.0<br/>samples = 7<br/>value = -0.725>, fillcolor="#fae6d8"] ;
76 -> 77 ;
78 [label=<squared_error = 0.0<br/>samples = 1<br/>value = -0.748>, fillcolor="#fae7d9"] ;
77 -> 78 ;
79 [label=<squared_error = 0.0<br/>samples = 6<br/>value = -0.718>, fillcolor="#fae6d8"] ;
77 -> 79 ;
80 [label=<x<SUB>5</SUB> &le; -0.324<br/>squared_error = 0.009<br/>samples = 16<br/>value = -0.593>, fillcolor="#f9e3d4"] ;
76 -> 80 ;
81 [label=<x<SUB>5</SUB> &le; -0.565<br/>squared_error = 0.002<br/>samples = 10<br/>value = -0.506>, fillcolor="#f9e2d1"] ;
80 -> 81 ;
82 [label=<x<SUB>3</SUB> &le; -0.956<br/>squared_error = 0.001<br/>samples = 9<br/>value = -0.494>, fillcolor="#f9e1d1"] ;
81 -> 82 ;
83 [label=<x<SUB>3</SUB> &le; -0.962<br/>squared_error = 0.0<br/>samples = 2<br/>value = -0.558>, fillcolor="#f9e3d3"] ;
82 -> 83 ;
84 [label=<squared_error = 0.0<br/>samples = 1<br/>value = -0.566>, fillcolor="#f9e3d3"] ;
83 -> 84 ;
85 [label=<squared_error = 0.0<br/>samples = 1<br/>value = -0.551>, fillcolor="#f9e3d2"] ;
83 -> 85 ;
86 [label=<x<SUB>0</SUB> &le; -1.124<br/>squared_error = 0.0<br/>samples = 7<br/>value = -0.48>, fillcolor="#f9e1d0"] ;
82 -> 86 ;
87 [label=<x<SUB>0</SUB> &le; -1.125<br/>squared_error = 0.0<br/>samples = 5<br/>value = -0.489>, fillcolor="#f9e1d0"] ;
86 -> 87 ;
88 [label=<x<SUB>0</SUB> &le; -1.125<br/>squared_error = 0.0<br/>samples = 3<br/>value = -0.479>, fillcolor="#f9e1d0"] ;
87 -> 88 ;
89 [label=<squared_error = 0.0<br/>samples = 1<br/>value = -0.486>, fillcolor="#f9e1d0"] ;
88 -> 89 ;
90 [label=<x<SUB>3</SUB> &le; -0.946<br/>squared_error = 0.0<br/>samples = 2<br/>value = -0.475>, fillcolor="#f9e1d0"] ;
88 -> 90 ;
91 [label=<squared_error = 0.0<br/>samples = 1<br/>value = -0.472>, fillcolor="#f9e1d0"] ;
90 -> 91 ;
92 [label=<squared_error = -0.0<br/>samples = 1<br/>value = -0.478>, fillcolor="#f9e1d0"] ;
90 -> 92 ;
93 [label=<x<SUB>0</SUB> &le; -1.125<br/>squared_error = 0.0<br/>samples = 2<br/>value = -0.5>, fillcolor="#f9e2d1"] ;
87 -> 93 ;
94 [label=<squared_error = 0.0<br/>samples = 1<br/>value = -0.498>, fillcolor="#f9e2d1"] ;
93 -> 94 ;
95 [label=<squared_error = 0.0<br/>samples = 1<br/>value = -0.501>, fillcolor="#f9e2d1"] ;
93 -> 95 ;
96 [label=<x<SUB>2</SUB> &le; 0.14<br/>squared_error = 0.0<br/>samples = 2<br/>value = -0.46>, fillcolor="#f9e1cf"] ;
86 -> 96 ;
97 [label=<squared_error = 0.0<br/>samples = 1<br/>value = -0.472>, fillcolor="#f9e1d0"] ;
96 -> 97 ;
98 [label=<squared_error = -0.0<br/>samples = 1<br/>value = -0.454>, fillcolor="#f9e1cf"] ;
96 -> 98 ;
99 [label=<squared_error = -0.0<br/>samples = 1<br/>value = -0.572>, fillcolor="#f9e3d3"] ;
81 -> 99 ;
100 [label=<x<SUB>0</SUB> &le; 0.551<br/>squared_error = 0.001<br/>samples = 6<br/>value = -0.687>, fillcolor="#fae5d7"] ;
80 -> 100 ;
101 [label=<x<SUB>2</SUB> &le; 1.541<br/>squared_error = 0.0<br/>samples = 5<br/>value = -0.7>, fillcolor="#fae6d7"] ;
100 -> 101 ;
102 [label=<x<SUB>3</SUB> &le; 1.274<br/>squared_error = 0.001<br/>samples = 3<br/>value = -0.711>, fillcolor="#fae6d8"] ;
101 -> 102 ;
103 [label=<squared_error = 0.0<br/>samples = 1<br/>value = -0.689>, fillcolor="#fae5d7"] ;
102 -> 103 ;
104 [label=<x<SUB>0</SUB> &le; 0.545<br/>squared_error = 0.0<br/>samples = 2<br/>value = -0.733>, fillcolor="#fae6d8"] ;
102 -> 104 ;
105 [label=<squared_error = 0.0<br/>samples = 1<br/>value = -0.748>, fillcolor="#fae7d9"] ;
104 -> 105 ;
106 [label=<squared_error = 0.0<br/>samples = 1<br/>value = -0.718>, fillcolor="#fae6d8"] ;
104 -> 106 ;
107 [label=<squared_error = 0.0<br/>samples = 2<br/>value = -0.689>, fillcolor="#fae5d7"] ;
101 -> 107 ;
108 [label=<squared_error = -0.0<br/>samples = 1<br/>value = -0.66>, fillcolor="#fae5d6"] ;
100 -> 108 ;
109 [label=<x<SUB>1</SUB> &le; -1.043<br/>squared_error = 0.061<br/>samples = 11<br/>value = -0.397>, fillcolor="#f8dfcd"] ;
75 -> 109 ;
110 [label=<x<SUB>5</SUB> &le; -0.664<br/>squared_error = 0.006<br/>samples = 10<br/>value = -0.483>, fillcolor="#f9e1d0"] ;
109 -> 110 ;
111 [label=<x<SUB>1</SUB> &le; -1.38<br/>squared_error = 0.002<br/>samples = 4<br/>value = -0.395>, fillcolor="#f8dfcd"] ;
110 -> 111 ;
112 [label=<squared_error = 0.0<br/>samples = 2<br/>value = -0.425>, fillcolor="#f9e0ce"] ;
111 -> 112 ;
113 [label=<squared_error = -0.0<br/>samples = 2<br/>value = -0.337>, fillcolor="#f8decc"] ;
111 -> 113 ;
114 [label=<x<SUB>5</SUB> &le; -0.504<br/>squared_error = 0.0<br/>samples = 6<br/>value = -0.542>, fillcolor="#f9e2d2"] ;
110 -> 114 ;
115 [label=<x<SUB>5</SUB> &le; -0.609<br/>squared_error = 0.0<br/>samples = 5<br/>value = -0.538>, fillcolor="#f9e2d2"] ;
114 -> 115 ;
116 [label=<x<SUB>6</SUB> &le; -1.068<br/>squared_error = 0.0<br/>samples = 2<br/>value = -0.527>, fillcolor="#f9e2d2"] ;
115 -> 116 ;
117 [label=<squared_error = 0.0<br/>samples = 1<br/>value = -0.513>, fillcolor="#f9e2d1"] ;
116 -> 117 ;
118 [label=<squared_error = 0.0<br/>samples = 1<br/>value = -0.542>, fillcolor="#f9e2d2"] ;
116 -> 118 ;
119 [label=<squared_error = 0.0<br/>samples = 3<br/>value = -0.542>, fillcolor="#f9e2d2"] ;
115 -> 119 ;
120 [label=<squared_error = 0.0<br/>samples = 1<br/>value = -0.572>, fillcolor="#f9e3d3"] ;
114 -> 120 ;
121 [label=<squared_error = -0.0<br/>samples = 1<br/>value = 0.251>, fillcolor="#f6d2b9"] ;
109 -> 121 ;
122 [label=<x<SUB>2</SUB> &le; -0.173<br/>squared_error = 0.075<br/>samples = 88<br/>value = -0.379>, fillcolor="#f8dfcd"] ;
4 -> 122 ;
123 [label=<x<SUB>4</SUB> &le; -0.341<br/>squared_error = 0.033<br/>samples = 79<br/>value = -0.443>, fillcolor="#f9e0cf"] ;
122 -> 123 ;
124 [label=<x<SUB>3</SUB> &le; -1.345<br/>squared_error = 0.018<br/>samples = 45<br/>value = -0.35>, fillcolor="#f8dfcc"] ;
123 -> 124 ;
125 [label=<x<SUB>5</SUB> &le; -0.621<br/>squared_error = 0.006<br/>samples = 26<br/>value = -0.44>, fillcolor="#f9e0cf"] ;
124 -> 125 ;
126 [label=<x<SUB>5</SUB> &le; -0.679<br/>squared_error = 0.001<br/>samples = 19<br/>value = -0.407>, fillcolor="#f9e0ce"] ;
125 -> 126 ;
127 [label=<x<SUB>6</SUB> &le; -0.322<br/>squared_error = 0.001<br/>samples = 12<br/>value = -0.426>, fillcolor="#f9e0ce"] ;
126 -> 127 ;
128 [label=<x<SUB>5</SUB> &le; -0.694<br/>squared_error = 0.0<br/>samples = 6<br/>value = -0.41>, fillcolor="#f9e0ce"] ;
127 -> 128 ;
129 [label=<x<SUB>0</SUB> &le; -1.124<br/>squared_error = 0.0<br/>samples = 3<br/>value = -0.42>, fillcolor="#f9e0ce"] ;
128 -> 129 ;
130 [label=<squared_error = 0.0<br/>samples = 2<br/>value = -0.425>, fillcolor="#f9e0ce"] ;
129 -> 130 ;
131 [label=<squared_error = -0.0<br/>samples = 1<br/>value = -0.395>, fillcolor="#f8dfcd"] ;
129 -> 131 ;
132 [label=<squared_error = -0.0<br/>samples = 3<br/>value = -0.395>, fillcolor="#f8dfcd"] ;
128 -> 132 ;
133 [label=<x<SUB>3</SUB> &le; -1.432<br/>squared_error = 0.0<br/>samples = 6<br/>value = -0.444>, fillcolor="#f9e0cf"] ;
127 -> 133 ;
134 [label=<squared_error = -0.0<br/>samples = 3<br/>value = -0.454>, fillcolor="#f9e1cf"] ;
133 -> 134 ;
135 [label=<x<SUB>6</SUB> &le; -0.138<br/>squared_error = 0.001<br/>samples = 3<br/>value = -0.432>, fillcolor="#f9e0cf"] ;
133 -> 135 ;
136 [label=<x<SUB>5</SUB> &le; -0.702<br/>squared_error = 0.0<br/>samples = 2<br/>value = -0.41>, fillcolor="#f9e0ce"] ;
135 -> 136 ;
137 [label=<squared_error = 0.0<br/>samples = 1<br/>value = -0.425>, fillcolor="#f9e0ce"] ;
136 -> 137 ;
138 [label=<squared_error = 0.0<br/>samples = 1<br/>value = -0.395>, fillcolor="#f8dfcd"] ;
136 -> 138 ;
139 [label=<squared_error = 0.0<br/>samples = 1<br/>value = -0.454>, fillcolor="#f9e1cf"] ;
135 -> 139 ;
140 [label=<x<SUB>4</SUB> &le; -1.11<br/>squared_error = 0.0<br/>samples = 7<br/>value = -0.37>, fillcolor="#f8dfcd"] ;
126 -> 140 ;
141 [label=<squared_error = 0.0<br/>samples = 1<br/>value = -0.395>, fillcolor="#f8dfcd"] ;
140 -> 141 ;
142 [label=<x<SUB>0</SUB> &le; -1.12<br/>squared_error = 0.0<br/>samples = 6<br/>value = -0.367>, fillcolor="#f8dfcd"] ;
140 -> 142 ;
143 [label=<squared_error = 0.0<br/>samples = 5<br/>value = -0.366>, fillcolor="#f8dfcc"] ;
142 -> 143 ;
144 [label=<squared_error = -0.0<br/>samples = 1<br/>value = -0.375>, fillcolor="#f8dfcd"] ;
142 -> 144 ;
145 [label=<x<SUB>5</SUB> &le; -0.608<br/>squared_error = 0.006<br/>samples = 7<br/>value = -0.546>, fillcolor="#f9e3d2"] ;
125 -> 145 ;
146 [label=<squared_error = 0.0<br/>samples = 1<br/>value = -0.677>, fillcolor="#fae5d6"] ;
145 -> 146 ;
147 [label=<x<SUB>6</SUB> &le; -0.525<br/>squared_error = 0.001<br/>samples = 6<br/>value = -0.508>, fillcolor="#f9e2d1"] ;
145 -> 147 ;
148 [label=<squared_error = 0.0<br/>samples = 1<br/>value = -0.445>, fillcolor="#f9e0cf"] ;
147 -> 148 ;
149 [label=<x<SUB>3</SUB> &le; -1.529<br/>squared_error = 0.001<br/>samples = 5<br/>value = -0.519>, fillcolor="#f9e2d1"] ;
147 -> 149 ;
150 [label=<x<SUB>3</SUB> &le; -1.535<br/>squared_error = 0.0<br/>samples = 2<br/>value = -0.492>, fillcolor="#f9e1d1"] ;
149 -> 150 ;
151 [label=<squared_error = 0.0<br/>samples = 1<br/>value = -0.489>, fillcolor="#f9e1d0"] ;
150 -> 151 ;
152 [label=<squared_error = 0.0<br/>samples = 1<br/>value = -0.495>, fillcolor="#f9e1d1"] ;
150 -> 152 ;
153 [label=<x<SUB>0</SUB> &le; -1.125<br/>squared_error = 0.0<br/>samples = 3<br/>value = -0.532>, fillcolor="#f9e2d2"] ;
149 -> 153 ;
154 [label=<x<SUB>4</SUB> &le; -1.21<br/>squared_error = 0.0<br/>samples = 2<br/>value = -0.544>, fillcolor="#f9e2d2"] ;
153 -> 154 ;
155 [label=<squared_error = 0.0<br/>samples = 1<br/>value = -0.539>, fillcolor="#f9e2d2"] ;
154 -> 155 ;
156 [label=<squared_error = 0.0<br/>samples = 1<br/>value = -0.554>, fillcolor="#f9e3d2"] ;
154 -> 156 ;
157 [label=<squared_error = -0.0<br/>samples = 1<br/>value = -0.495>, fillcolor="#f9e1d1"] ;
153 -> 157 ;
158 [label=<x<SUB>3</SUB> &le; -0.447<br/>squared_error = 0.011<br/>samples = 19<br/>value = -0.243>, fillcolor="#f8dcc9"] ;
124 -> 158 ;
159 [label=<x<SUB>0</SUB> &le; -0.567<br/>squared_error = 0.007<br/>samples = 17<br/>value = -0.206>, fillcolor="#f8dcc7"] ;
158 -> 159 ;
160 [label=<x<SUB>3</SUB> &le; -1.272<br/>squared_error = 0.004<br/>samples = 14<br/>value = -0.172>, fillcolor="#f8dbc6"] ;
159 -> 160 ;
161 [label=<squared_error = 0.0<br/>samples = 1<br/>value = -0.337>, fillcolor="#f8decc"] ;
160 -> 161 ;
162 [label=<x<SUB>5</SUB> &le; -0.571<br/>squared_error = 0.002<br/>samples = 13<br/>value = -0.163>, fillcolor="#f8dbc6"] ;
160 -> 162 ;
163 [label=<x<SUB>2</SUB> &le; -0.312<br/>squared_error = 0.001<br/>samples = 10<br/>value = -0.179>, fillcolor="#f8dbc7"] ;
162 -> 163 ;
164 [label=<x<SUB>0</SUB> &le; -1.129<br/>squared_error = 0.001<br/>samples = 9<br/>value = -0.172>, fillcolor="#f8dbc6"] ;
163 -> 164 ;
165 [label=<squared_error = 0.0<br/>samples = 1<br/>value = -0.246>, fillcolor="#f8dcc9"] ;
164 -> 165 ;
166 [label=<x<SUB>0</SUB> &le; -1.127<br/>squared_error = 0.0<br/>samples = 8<br/>value = -0.165>, fillcolor="#f8dbc6"] ;
164 -> 166 ;
167 [label=<x<SUB>0</SUB> &le; -1.128<br/>squared_error = 0.0<br/>samples = 2<br/>value = -0.144>, fillcolor="#f7dac5"] ;
166 -> 167 ;
168 [label=<squared_error = 0.0<br/>samples = 1<br/>value = -0.146>, fillcolor="#f7dac5"] ;
167 -> 168 ;
169 [label=<squared_error = 0.0<br/>samples = 1<br/>value = -0.143>, fillcolor="#f7dac5"] ;
167 -> 169 ;
170 [label=<x<SUB>6</SUB> &le; -0.413<br/>squared_error = 0.0<br/>samples = 6<br/>value = -0.173>, fillcolor="#f8dbc6"] ;
166 -> 170 ;
171 [label=<x<SUB>6</SUB> &le; -0.604<br/>squared_error = 0.0<br/>samples = 4<br/>value = -0.178>, fillcolor="#f8dbc6"] ;
170 -> 171 ;
172 [label=<squared_error = 0.0<br/>samples = 1<br/>value = -0.16>, fillcolor="#f8dbc6"] ;
171 -> 172 ;
173 [label=<x<SUB>0</SUB> &le; -1.125<br/>squared_error = 0.0<br/>samples = 3<br/>value = -0.186>, fillcolor="#f8dbc7"] ;
171 -> 173 ;
174 [label=<squared_error = 0.0<br/>samples = 1<br/>value = -0.175>, fillcolor="#f8dbc6"] ;
173 -> 174 ;
175 [label=<x<SUB>0</SUB> &le; -0.846<br/>squared_error = 0.0<br/>samples = 2<br/>value = -0.193>, fillcolor="#f8dbc7"] ;
173 -> 175 ;
176 [label=<squared_error = 0.0<br/>samples = 1<br/>value = -0.199>, fillcolor="#f8dbc7"] ;
175 -> 176 ;
177 [label=<squared_error = -0.0<br/>samples = 1<br/>value = -0.19>, fillcolor="#f8dbc7"] ;
175 -> 177 ;
178 [label=<x<SUB>4</SUB> &le; -0.943<br/>squared_error = 0.0<br/>samples = 2<br/>value = -0.153>, fillcolor="#f7dbc6"] ;
170 -> 178 ;
179 [label=<squared_error = 0.0<br/>samples = 1<br/>value = -0.16>, fillcolor="#f8dbc6"] ;
178 -> 179 ;
180 [label=<squared_error = -0.0<br/>samples = 1<br/>value = -0.146>, fillcolor="#f7dac5"] ;
178 -> 180 ;
181 [label=<squared_error = 0.0<br/>samples = 1<br/>value = -0.272>, fillcolor="#f8ddc9"] ;
163 -> 181 ;
182 [label=<x<SUB>5</SUB> &le; -0.558<br/>squared_error = 0.001<br/>samples = 3<br/>value = -0.107>, fillcolor="#f7dac4"] ;
162 -> 182 ;
183 [label=<squared_error = 0.0<br/>samples = 1<br/>value = -0.134>, fillcolor="#f7dac5"] ;
182 -> 183 ;
184 [label=<x<SUB>3</SUB> &le; -1.126<br/>squared_error = 0.0<br/>samples = 2<br/>value = -0.081>, fillcolor="#f7d9c3"] ;
182 -> 184 ;
185 [label=<squared_error = 0.0<br/>samples = 1<br/>value = -0.093>, fillcolor="#f7d9c4"] ;
184 -> 185 ;
186 [label=<squared_error = 0.0<br/>samples = 1<br/>value = -0.069>, fillcolor="#f7d9c3"] ;
184 -> 186 ;
187 [label=<x<SUB>5</SUB> &le; -0.68<br/>squared_error = 0.003<br/>samples = 3<br/>value = -0.299>, fillcolor="#f8ddca"] ;
159 -> 187 ;
188 [label=<squared_error = 0.0<br/>samples = 1<br/>value = -0.16>, fillcolor="#f8dbc6"] ;
187 -> 188 ;
189 [label=<x<SUB>0</SUB> &le; -0.566<br/>squared_error = 0.0<br/>samples = 2<br/>value = -0.322>, fillcolor="#f8decb"] ;
187 -> 189 ;
190 [label=<squared_error = 0.0<br/>samples = 1<br/>value = -0.325>, fillcolor="#f8decb"] ;
189 -> 190 ;
191 [label=<squared_error = 0.0<br/>samples = 1<br/>value = -0.319>, fillcolor="#f8decb"] ;
189 -> 191 ;
192 [label=<x<SUB>5</SUB> &le; -0.21<br/>squared_error = 0.0<br/>samples = 2<br/>value = -0.402>, fillcolor="#f9e0ce"] ;
158 -> 192 ;
193 [label=<squared_error = 0.0<br/>samples = 1<br/>value = -0.375>, fillcolor="#f8dfcd"] ;
192 -> 193 ;
194 [label=<squared_error = -0.0<br/>samples = 1<br/>value = -0.416>, fillcolor="#f9e0ce"] ;
192 -> 194 ;
195 [label=<x<SUB>1</SUB> &le; 0.294<br/>squared_error = 0.026<br/>samples = 34<br/>value = -0.568>, fillcolor="#f9e3d3"] ;
123 -> 195 ;
196 [label=<x<SUB>2</SUB> &le; -0.802<br/>squared_error = 0.01<br/>samples = 20<br/>value = -0.677>, fillcolor="#fae5d6"] ;
195 -> 196 ;
197 [label=<x<SUB>0</SUB> &le; -1.123<br/>squared_error = 0.0<br/>samples = 5<br/>value = -0.833>, fillcolor="#fae8db"] ;
196 -> 197 ;
198 [label=<x<SUB>2</SUB> &le; -0.888<br/>squared_error = 0.0<br/>samples = 4<br/>value = -0.835>, fillcolor="#fae8db"] ;
197 -> 198 ;
199 [label=<squared_error = 0.0<br/>samples = 3<br/>value = -0.836>, fillcolor="#fae8dc"] ;
198 -> 199 ;
200 [label=<squared_error = 0.0<br/>samples = 1<br/>value = -0.83>, fillcolor="#fae8db"] ;
198 -> 200 ;
201 [label=<squared_error = -0.0<br/>samples = 1<br/>value = -0.821>, fillcolor="#fae8db"] ;
197 -> 201 ;
202 [label=<x<SUB>2</SUB> &le; -0.65<br/>squared_error = 0.004<br/>samples = 15<br/>value = -0.633>, fillcolor="#f9e4d5"] ;
196 -> 202 ;
203 [label=<x<SUB>6</SUB> &le; 0.457<br/>squared_error = 0.0<br/>samples = 11<br/>value = -0.658>, fillcolor="#fae5d6"] ;
202 -> 203 ;
204 [label=<squared_error = -0.0<br/>samples = 4<br/>value = -0.63>, fillcolor="#f9e4d5"] ;
203 -> 204 ;
205 [label=<x<SUB>3</SUB> &le; -1.101<br/>squared_error = 0.0<br/>samples = 7<br/>value = -0.669>, fillcolor="#fae5d6"] ;
203 -> 205 ;
206 [label=<squared_error = 0.0<br/>samples = 2<br/>value = -0.689>, fillcolor="#fae5d7"] ;
205 -> 206 ;
207 [label=<squared_error = -0.0<br/>samples = 5<br/>value = -0.66>, fillcolor="#fae5d6"] ;
205 -> 207 ;
208 [label=<x<SUB>0</SUB> &le; -1.126<br/>squared_error = 0.0<br/>samples = 4<br/>value = -0.503>, fillcolor="#f9e2d1"] ;
202 -> 208 ;
209 [label=<x<SUB>0</SUB> &le; -1.126<br/>squared_error = 0.0<br/>samples = 2<br/>value = -0.492>, fillcolor="#f9e1d1"] ;
208 -> 209 ;
210 [label=<squared_error = 0.0<br/>samples = 1<br/>value = -0.495>, fillcolor="#f9e1d1"] ;
209 -> 210 ;
211 [label=<squared_error = 0.0<br/>samples = 1<br/>value = -0.489>, fillcolor="#f9e1d0"] ;
209 -> 211 ;
212 [label=<x<SUB>0</SUB> &le; -1.124<br/>squared_error = 0.0<br/>samples = 2<br/>value = -0.514>, fillcolor="#f9e2d1"] ;
208 -> 212 ;
213 [label=<squared_error = 0.0<br/>samples = 1<br/>value = -0.513>, fillcolor="#f9e2d1"] ;
212 -> 213 ;
214 [label=<squared_error = 0.0<br/>samples = 1<br/>value = -0.516>, fillcolor="#f9e2d1"] ;
212 -> 214 ;
215 [label=<x<SUB>5</SUB> &le; -0.552<br/>squared_error = 0.002<br/>samples = 14<br/>value = -0.395>, fillcolor="#f8dfcd"] ;
195 -> 215 ;
216 [label=<x<SUB>2</SUB> &le; -1.057<br/>squared_error = 0.0<br/>samples = 13<br/>value = -0.385>, fillcolor="#f8dfcd"] ;
215 -> 216 ;
217 [label=<x<SUB>3</SUB> &le; -1.691<br/>squared_error = 0.0<br/>samples = 5<br/>value = -0.399>, fillcolor="#f9e0ce"] ;
216 -> 217 ;
218 [label=<squared_error = 0.0<br/>samples = 1<br/>value = -0.425>, fillcolor="#f9e0ce"] ;
217 -> 218 ;
219 [label=<squared_error = -0.0<br/>samples = 4<br/>value = -0.395>, fillcolor="#f8dfcd"] ;
217 -> 219 ;
220 [label=<x<SUB>4</SUB> &le; -0.151<br/>squared_error = 0.0<br/>samples = 8<br/>value = -0.375>, fillcolor="#f8dfcd"] ;
216 -> 220 ;
221 [label=<x<SUB>0</SUB> &le; -1.124<br/>squared_error = 0.0<br/>samples = 6<br/>value = -0.377>, fillcolor="#f8dfcd"] ;
220 -> 221 ;
222 [label=<x<SUB>0</SUB> &le; -1.124<br/>squared_error = 0.0<br/>samples = 4<br/>value = -0.379>, fillcolor="#f8dfcd"] ;
221 -> 222 ;
223 [label=<squared_error = -0.0<br/>samples = 3<br/>value = -0.378>, fillcolor="#f8dfcd"] ;
222 -> 223 ;
224 [label=<squared_error = 0.0<br/>samples = 1<br/>value = -0.381>, fillcolor="#f8dfcd"] ;
222 -> 224 ;
225 [label=<x<SUB>0</SUB> &le; -1.123<br/>squared_error = 0.0<br/>samples = 2<br/>value = -0.373>, fillcolor="#f8dfcd"] ;
221 -> 225 ;
226 [label=<squared_error = 0.0<br/>samples = 1<br/>value = -0.372>, fillcolor="#f8dfcd"] ;
225 -> 226 ;
227 [label=<squared_error = 0.0<br/>samples = 1<br/>value = -0.375>, fillcolor="#f8dfcd"] ;
225 -> 227 ;
228 [label=<x<SUB>2</SUB> &le; -1.024<br/>squared_error = 0.0<br/>samples = 2<br/>value = -0.369>, fillcolor="#f8dfcd"] ;
220 -> 228 ;
229 [label=<squared_error = 0.0<br/>samples = 1<br/>value = -0.372>, fillcolor="#f8dfcd"] ;
228 -> 229 ;
230 [label=<squared_error = 0.0<br/>samples = 1<br/>value = -0.366>, fillcolor="#f8dfcc"] ;
228 -> 230 ;
231 [label=<squared_error = -0.0<br/>samples = 1<br/>value = -0.572>, fillcolor="#f9e3d3"] ;
215 -> 231 ;
232 [label=<x<SUB>6</SUB> &le; -1.123<br/>squared_error = 0.043<br/>samples = 9<br/>value = 0.267>, fillcolor="#f6d2b8"] ;
122 -> 232 ;
233 [label=<squared_error = 0.0<br/>samples = 1<br/>value = 0.938>, fillcolor="#f3c4a3"] ;
232 -> 233 ;
234 [label=<x<SUB>3</SUB> &le; -0.244<br/>squared_error = 0.002<br/>samples = 8<br/>value = 0.205>, fillcolor="#f6d3ba"] ;
232 -> 234 ;
235 [label=<x<SUB>4</SUB> &le; -0.218<br/>squared_error = 0.002<br/>samples = 5<br/>value = 0.187>, fillcolor="#f6d4bb"] ;
234 -> 235 ;
236 [label=<x<SUB>3</SUB> &le; -0.279<br/>squared_error = 0.0<br/>samples = 2<br/>value = 0.137>, fillcolor="#f6d5bc"] ;
235 -> 236 ;
237 [label=<squared_error = 0.0<br/>samples = 1<br/>value = 0.133>, fillcolor="#f6d5bd"] ;
236 -> 237 ;
238 [label=<squared_error = 0.0<br/>samples = 1<br/>value = 0.145>, fillcolor="#f6d4bc"] ;
236 -> 238 ;
239 [label=<x<SUB>0</SUB> &le; -0.008<br/>squared_error = 0.0<br/>samples = 3<br/>value = 0.224>, fillcolor="#f6d3ba"] ;
235 -> 239 ;
240 [label=<x<SUB>4</SUB> &le; -0.151<br/>squared_error = 0.0<br/>samples = 2<br/>value = 0.204>, fillcolor="#f6d3ba"] ;
239 -> 240 ;
241 [label=<squared_error = 0.0<br/>samples = 1<br/>value = 0.21>, fillcolor="#f6d3ba"] ;
240 -> 241 ;
242 [label=<squared_error = 0.0<br/>samples = 1<br/>value = 0.198>, fillcolor="#f6d3ba"] ;
240 -> 242 ;
243 [label=<squared_error = 0.0<br/>samples = 1<br/>value = 0.245>, fillcolor="#f6d2b9"] ;
239 -> 243 ;
244 [label=<x<SUB>0</SUB> &le; -0.011<br/>squared_error = 0.0<br/>samples = 3<br/>value = 0.238>, fillcolor="#f6d3b9"] ;
234 -> 244 ;
245 [label=<x<SUB>4</SUB> &le; -0.508<br/>squared_error = 0.0<br/>samples = 2<br/>value = 0.227>, fillcolor="#f6d3ba"] ;
244 -> 245 ;
246 [label=<squared_error = 0.0<br/>samples = 1<br/>value = 0.224>, fillcolor="#f6d3ba"] ;
245 -> 246 ;
247 [label=<squared_error = -0.0<br/>samples = 1<br/>value = 0.233>, fillcolor="#f6d3b9"] ;
245 -> 247 ;
248 [label=<squared_error = 0.0<br/>samples = 1<br/>value = 0.268>, fillcolor="#f6d2b8"] ;
244 -> 248 ;
249 [label=<x<SUB>2</SUB> &le; -1.015<br/>squared_error = 0.041<br/>samples = 49<br/>value = -0.056>, fillcolor="#f7d9c3"] ;
3 -> 249 ;
250 [label=<x<SUB>5</SUB> &le; -0.413<br/>squared_error = 0.016<br/>samples = 32<br/>value = -0.163>, fillcolor="#f8dbc6"] ;
249 -> 250 ;
251 [label=<x<SUB>4</SUB> &le; -0.976<br/>squared_error = 0.011<br/>samples = 30<br/>value = -0.144>, fillcolor="#f7dac5"] ;
250 -> 251 ;
252 [label=<x<SUB>5</SUB> &le; -0.746<br/>squared_error = 0.002<br/>samples = 7<br/>value = -0.279>, fillcolor="#f8ddca"] ;
251 -> 252 ;
253 [label=<x<SUB>5</SUB> &le; -0.815<br/>squared_error = 0.0<br/>samples = 3<br/>value = -0.322>, fillcolor="#f8decb"] ;
252 -> 253 ;
254 [label=<squared_error = 0.0<br/>samples = 2<br/>value = -0.319>, fillcolor="#f8decb"] ;
253 -> 254 ;
255 [label=<squared_error = -0.0<br/>samples = 1<br/>value = -0.328>, fillcolor="#f8decb"] ;
253 -> 255 ;
256 [label=<x<SUB>5</SUB> &le; -0.668<br/>squared_error = 0.001<br/>samples = 4<br/>value = -0.253>, fillcolor="#f8ddc9"] ;
252 -> 256 ;
257 [label=<squared_error = 0.0<br/>samples = 1<br/>value = -0.278>, fillcolor="#f8ddca"] ;
256 -> 257 ;
258 [label=<x<SUB>6</SUB> &le; 0.216<br/>squared_error = 0.0<br/>samples = 3<br/>value = -0.237>, fillcolor="#f8dcc8"] ;
256 -> 258 ;
259 [label=<squared_error = 0.0<br/>samples = 1<br/>value = -0.213>, fillcolor="#f8dcc8"] ;
258 -> 259 ;
260 [label=<x<SUB>0</SUB> &le; -1.125<br/>squared_error = 0.0<br/>samples = 2<br/>value = -0.248>, fillcolor="#f8dcc9"] ;
258 -> 260 ;
261 [label=<squared_error = 0.0<br/>samples = 1<br/>value = -0.26>, fillcolor="#f8ddc9"] ;
260 -> 261 ;
262 [label=<squared_error = 0.0<br/>samples = 1<br/>value = -0.237>, fillcolor="#f8dcc8"] ;
260 -> 262 ;
263 [label=<x<SUB>2</SUB> &le; -1.048<br/>squared_error = 0.008<br/>samples = 23<br/>value = -0.111>, fillcolor="#f7dac4"] ;
251 -> 263 ;
264 [label=<x<SUB>0</SUB> &le; -1.125<br/>squared_error = 0.003<br/>samples = 14<br/>value = -0.164>, fillcolor="#f8dbc6"] ;
263 -> 264 ;
265 [label=<x<SUB>3</SUB> &le; -1.728<br/>squared_error = 0.0<br/>samples = 10<br/>value = -0.135>, fillcolor="#f7dac5"] ;
264 -> 265 ;
266 [label=<squared_error = 0.0<br/>samples = 4<br/>value = -0.16>, fillcolor="#f8dbc6"] ;
265 -> 266 ;
267 [label=<x<SUB>2</SUB> &le; -1.085<br/>squared_error = 0.0<br/>samples = 6<br/>value = -0.125>, fillcolor="#f7dac5"] ;
265 -> 267 ;
268 [label=<x<SUB>1</SUB> &le; 1.632<br/>squared_error = 0.0<br/>samples = 2<br/>value = -0.1>, fillcolor="#f7d9c4"] ;
267 -> 268 ;
269 [label=<squared_error = 0.0<br/>samples = 1<br/>value = -0.09>, fillcolor="#f7d9c4"] ;
268 -> 269 ;
270 [label=<squared_error = 0.0<br/>samples = 1<br/>value = -0.11>, fillcolor="#f7dac4"] ;
268 -> 270 ;
271 [label=<squared_error = -0.0<br/>samples = 4<br/>value = -0.131>, fillcolor="#f7dac5"] ;
267 -> 271 ;
272 [label=<x<SUB>6</SUB> &le; 0.559<br/>squared_error = 0.001<br/>samples = 4<br/>value = -0.244>, fillcolor="#f8dcc9"] ;
264 -> 272 ;
273 [label=<x<SUB>0</SUB> &le; -1.124<br/>squared_error = 0.0<br/>samples = 3<br/>value = -0.216>, fillcolor="#f8dcc8"] ;
272 -> 273 ;
274 [label=<squared_error = 0.0<br/>samples = 1<br/>value = -0.243>, fillcolor="#f8dcc9"] ;
273 -> 274 ;
275 [label=<x<SUB>6</SUB> &le; 0.468<br/>squared_error = 0.0<br/>samples = 2<br/>value = -0.203>, fillcolor="#f8dcc7"] ;
273 -> 275 ;
276 [label=<squared_error = 0.0<br/>samples = 1<br/>value = -0.19>, fillcolor="#f8dbc7"] ;
275 -> 276 ;
277 [label=<squared_error = 0.0<br/>samples = 1<br/>value = -0.216>, fillcolor="#f8dcc8"] ;
275 -> 277 ;
278 [label=<squared_error = 0.0<br/>samples = 1<br/>value = -0.287>, fillcolor="#f8ddca"] ;
272 -> 278 ;
279 [label=<x<SUB>5</SUB> &le; -0.581<br/>squared_error = 0.006<br/>samples = 9<br/>value = -0.04>, fillcolor="#f7d8c2"] ;
263 -> 279 ;
280 [label=<x<SUB>4</SUB> &le; -0.865<br/>squared_error = 0.003<br/>samples = 7<br/>value = -0.073>, fillcolor="#f7d9c3"] ;
279 -> 280 ;
281 [label=<x<SUB>0</SUB> &le; -1.125<br/>squared_error = 0.003<br/>samples = 3<br/>value = -0.126>, fillcolor="#f7dac5"] ;
280 -> 281 ;
282 [label=<squared_error = 0.0<br/>samples = 1<br/>value = -0.043>, fillcolor="#f7d8c2"] ;
281 -> 282 ;
283 [label=<x<SUB>3</SUB> &le; -1.701<br/>squared_error = 0.001<br/>samples = 2<br/>value = -0.153>, fillcolor="#f7dbc6"] ;
281 -> 283 ;
284 [label=<squared_error = 0.0<br/>samples = 1<br/>value = -0.131>, fillcolor="#f7dac5"] ;
283 -> 284 ;
285 [label=<squared_error = -0.0<br/>samples = 1<br/>value = -0.199>, fillcolor="#f8dbc7"] ;
283 -> 285 ;
286 [label=<squared_error = -0.0<br/>samples = 4<br/>value = -0.043>, fillcolor="#f7d8c2"] ;
280 -> 286 ;
287 [label=<x<SUB>4</SUB> &le; -0.898<br/>squared_error = 0.0<br/>samples = 2<br/>value = 0.081>, fillcolor="#f6d6be"] ;
279 -> 287 ;
288 [label=<squared_error = 0.0<br/>samples = 1<br/>value = 0.086>, fillcolor="#f6d6be"] ;
287 -> 288 ;
289 [label=<squared_error = -0.0<br/>samples = 1<br/>value = 0.072>, fillcolor="#f7d6bf"] ;
287 -> 289 ;
290 [label=<x<SUB>4</SUB> &le; -0.865<br/>squared_error = 0.004<br/>samples = 2<br/>value = -0.423>, fillcolor="#f9e0ce"] ;
250 -> 290 ;
291 [label=<squared_error = 0.0<br/>samples = 1<br/>value = -0.378>, fillcolor="#f8dfcd"] ;
290 -> 291 ;
292 [label=<squared_error = 0.0<br/>samples = 1<br/>value = -0.513>, fillcolor="#f9e2d1"] ;
290 -> 292 ;
293 [label=<x<SUB>0</SUB> &le; -0.567<br/>squared_error = 0.033<br/>samples = 17<br/>value = 0.12>, fillcolor="#f6d5bd"] ;
249 -> 293 ;
294 [label=<x<SUB>3</SUB> &le; -1.403<br/>squared_error = 0.019<br/>samples = 16<br/>value = 0.164>, fillcolor="#f6d4bc"] ;
293 -> 294 ;
295 [label=<x<SUB>3</SUB> &le; -1.58<br/>squared_error = 0.002<br/>samples = 13<br/>value = 0.069>, fillcolor="#f7d6bf"] ;
294 -> 295 ;
296 [label=<squared_error = 0.0<br/>samples = 2<br/>value = -0.013>, fillcolor="#f7d8c1"] ;
295 -> 296 ;
297 [label=<x<SUB>6</SUB> &le; 0.408<br/>squared_error = 0.001<br/>samples = 11<br/>value = 0.081>, fillcolor="#f6d6be"] ;
295 -> 297 ;
298 [label=<x<SUB>2</SUB> &le; -0.962<br/>squared_error = 0.001<br/>samples = 3<br/>value = 0.117>, fillcolor="#f6d5bd"] ;
297 -> 298 ;
299 [label=<squared_error = -0.0<br/>samples = 2<br/>value = 0.104>, fillcolor="#f6d5bd"] ;
298 -> 299 ;
300 [label=<squared_error = -0.0<br/>samples = 1<br/>value = 0.157>, fillcolor="#f6d4bc"] ;
298 -> 300 ;
301 [label=<x<SUB>3</SUB> &le; -1.558<br/>squared_error = 0.0<br/>samples = 8<br/>value = 0.067>, fillcolor="#f7d6bf"] ;
297 -> 301 ;
302 [label=<x<SUB>6</SUB> &le; 0.782<br/>squared_error = 0.0<br/>samples = 4<br/>value = 0.053>, fillcolor="#f7d6bf"] ;
301 -> 302 ;
303 [label=<squared_error = 0.0<br/>samples = 3<br/>value = 0.045>, fillcolor="#f7d6bf"] ;
302 -> 303 ;
304 [label=<squared_error = -0.0<br/>samples = 1<br/>value = 0.075>, fillcolor="#f7d6be"] ;
302 -> 304 ;
305 [label=<x<SUB>4</SUB> &le; -0.53<br/>squared_error = 0.0<br/>samples = 4<br/>value = 0.076>, fillcolor="#f7d6be"] ;
301 -> 305 ;
306 [label=<squared_error = 0.0<br/>samples = 3<br/>value = 0.075>, fillcolor="#f7d6be"] ;
305 -> 306 ;
307 [label=<squared_error = 0.0<br/>samples = 1<br/>value = 0.078>, fillcolor="#f7d6be"] ;
305 -> 307 ;
308 [label=<x<SUB>0</SUB> &le; -0.846<br/>squared_error = 0.001<br/>samples = 3<br/>value = 0.354>, fillcolor="#f5d0b5"] ;
294 -> 308 ;
309 [label=<x<SUB>0</SUB> &le; -1.126<br/>squared_error = 0.0<br/>samples = 2<br/>value = 0.329>, fillcolor="#f5d1b6"] ;
308 -> 309 ;
310 [label=<squared_error = 0.0<br/>samples = 1<br/>value = 0.324>, fillcolor="#f5d1b6"] ;
309 -> 310 ;
311 [label=<squared_error = 0.0<br/>samples = 1<br/>value = 0.336>, fillcolor="#f5d1b6"] ;
309 -> 311 ;
312 [label=<squared_error = -0.0<br/>samples = 1<br/>value = 0.395>, fillcolor="#f5cfb4"] ;
308 -> 312 ;
313 [label=<squared_error = 0.0<br/>samples = 1<br/>value = -0.237>, fillcolor="#f8dcc8"] ;
293 -> 313 ;
314 [label=<x<SUB>0</SUB> &le; 1.24<br/>squared_error = 0.07<br/>samples = 23<br/>value = 0.574>, fillcolor="#f4ccae"] ;
2 -> 314 ;
315 [label=<x<SUB>4</SUB> &le; -0.441<br/>squared_error = 0.044<br/>samples = 21<br/>value = 0.635>, fillcolor="#f4caac"] ;
314 -> 315 ;
316 [label=<x<SUB>3</SUB> &le; 0.447<br/>squared_error = 0.004<br/>samples = 4<br/>value = 0.398>, fillcolor="#f5cfb4"] ;
315 -> 316 ;
317 [label=<squared_error = 0.0<br/>samples = 2<br/>value = 0.339>, fillcolor="#f5d1b6"] ;
316 -> 317 ;
318 [label=<x<SUB>4</SUB> &le; -0.508<br/>squared_error = 0.002<br/>samples = 2<br/>value = 0.456>, fillcolor="#f5ceb2"] ;
316 -> 318 ;
319 [label=<squared_error = 0.0<br/>samples = 1<br/>value = 0.427>, fillcolor="#f5cfb3"] ;
318 -> 319 ;
320 [label=<squared_error = 0.0<br/>samples = 1<br/>value = 0.515>, fillcolor="#f5cdb0"] ;
318 -> 320 ;
321 [label=<x<SUB>1</SUB> &le; -0.87<br/>squared_error = 0.037<br/>samples = 17<br/>value = 0.69>, fillcolor="#f4c9ab"] ;
315 -> 321 ;
322 [label=<x<SUB>1</SUB> &le; -1.043<br/>squared_error = 0.009<br/>samples = 3<br/>value = 0.447>, fillcolor="#f5ceb3"] ;
321 -> 322 ;
323 [label=<squared_error = 0.0<br/>samples = 1<br/>value = 0.31>, fillcolor="#f6d1b7"] ;
322 -> 323 ;
324 [label=<squared_error = 0.0<br/>samples = 2<br/>value = 0.515>, fillcolor="#f5cdb0"] ;
322 -> 324 ;
325 [label=<x<SUB>2</SUB> &le; 1.089<br/>squared_error = 0.032<br/>samples = 14<br/>value = 0.722>, fillcolor="#f4c9aa"] ;
321 -> 325 ;
326 [label=<x<SUB>0</SUB> &le; 1.105<br/>squared_error = 0.028<br/>samples = 8<br/>value = 0.628>, fillcolor="#f4cbad"] ;
325 -> 326 ;
327 [label=<x<SUB>4</SUB> &le; -0.285<br/>squared_error = 0.003<br/>samples = 6<br/>value = 0.558>, fillcolor="#f4ccaf"] ;
326 -> 327 ;
328 [label=<x<SUB>3</SUB> &le; 0.554<br/>squared_error = 0.001<br/>samples = 3<br/>value = 0.603>, fillcolor="#f4cbae"] ;
327 -> 328 ;
329 [label=<squared_error = 0.0<br/>samples = 1<br/>value = 0.662>, fillcolor="#f4caac"] ;
328 -> 329 ;
330 [label=<x<SUB>5</SUB> &le; -0.534<br/>squared_error = 0.0<br/>samples = 2<br/>value = 0.589>, fillcolor="#f4cbae"] ;
328 -> 330 ;
331 [label=<squared_error = 0.0<br/>samples = 1<br/>value = 0.574>, fillcolor="#f4ccae"] ;
330 -> 331 ;
332 [label=<squared_error = 0.0<br/>samples = 1<br/>value = 0.603>, fillcolor="#f4cbae"] ;
330 -> 332 ;
333 [label=<x<SUB>4</SUB> &le; -0.196<br/>squared_error = 0.001<br/>samples = 3<br/>value = 0.501>, fillcolor="#f5cdb1"] ;
327 -> 333 ;
334 [label=<squared_error = 0.0<br/>samples = 1<br/>value = 0.456>, fillcolor="#f5ceb2"] ;
333 -> 334 ;
335 [label=<squared_error = 0.0<br/>samples = 2<br/>value = 0.515>, fillcolor="#f5cdb0"] ;
333 -> 335 ;
336 [label=<x<SUB>6</SUB> &le; -0.469<br/>squared_error = 0.043<br/>samples = 2<br/>value = 0.838>, fillcolor="#f3c6a6"] ;
326 -> 336 ;
337 [label=<squared_error = 0.0<br/>samples = 1<br/>value = 1.132>, fillcolor="#f2c09d"] ;
336 -> 337 ;
338 [label=<squared_error = 0.0<br/>samples = 1<br/>value = 0.691>, fillcolor="#f4c9ab"] ;
336 -> 338 ;
339 [label=<x<SUB>2</SUB> &le; 1.262<br/>squared_error = 0.016<br/>samples = 6<br/>value = 0.825>, fillcolor="#f3c7a6"] ;
325 -> 339 ;
340 [label=<x<SUB>2</SUB> &le; 1.139<br/>squared_error = 0.006<br/>samples = 3<br/>value = 0.95>, fillcolor="#f3c4a2"] ;
339 -> 340 ;
341 [label=<squared_error = 0.0<br/>samples = 1<br/>value = 1.103>, fillcolor="#f2c19e"] ;
340 -> 341 ;
342 [label=<x<SUB>0</SUB> &le; 0.827<br/>squared_error = 0.0<br/>samples = 2<br/>value = 0.912>, fillcolor="#f3c5a4"] ;
340 -> 342 ;
343 [label=<squared_error = 0.0<br/>samples = 1<br/>value = 0.897>, fillcolor="#f3c5a4"] ;
342 -> 343 ;
344 [label=<squared_error = 0.0<br/>samples = 1<br/>value = 0.926>, fillcolor="#f3c5a3"] ;
342 -> 344 ;
345 [label=<squared_error = 0.0<br/>samples = 3<br/>value = 0.721>, fillcolor="#f4c9aa"] ;
339 -> 345 ;
346 [label=<x<SUB>3</SUB> &le; -0.266<br/>squared_error = 0.008<br/>samples = 2<br/>value = 0.082>, fillcolor="#f6d6be"] ;
314 -> 346 ;
347 [label=<squared_error = 0.0<br/>samples = 1<br/>value = 0.133>, fillcolor="#f6d5bd"] ;
346 -> 347 ;
348 [label=<squared_error = 0.0<br/>samples = 1<br/>value = -0.072>, fillcolor="#f7d9c3"] ;
346 -> 348 ;
349 [label=<x<SUB>0</SUB> &le; 0.682<br/>squared_error = 0.162<br/>samples = 205<br/>value = -1.014>, fillcolor="#fbece1"] ;
1 -> 349 ;
350 [label=<x<SUB>5</SUB> &le; 1.744<br/>squared_error = 0.089<br/>samples = 195<br/>value = -1.072>, fillcolor="#fbede3"] ;
349 -> 350 ;
351 [label=<x<SUB>1</SUB> &le; -1.553<br/>squared_error = 0.062<br/>samples = 148<br/>value = -0.984>, fillcolor="#fbebe0"] ;
350 -> 351 ;
352 [label=<x<SUB>0</SUB> &le; 0.266<br/>squared_error = 0.001<br/>samples = 6<br/>value = -1.38>, fillcolor="#fdf3ed"] ;
351 -> 352 ;
353 [label=<x<SUB>0</SUB> &le; -0.011<br/>squared_error = 0.0<br/>samples = 5<br/>value = -1.391>, fillcolor="#fdf4ed"] ;
352 -> 353 ;
354 [label=<x<SUB>3</SUB> &le; 0.661<br/>squared_error = 0.0<br/>samples = 4<br/>value = -1.385>, fillcolor="#fdf4ed"] ;
353 -> 354 ;
355 [label=<x<SUB>1</SUB> &le; -1.561<br/>squared_error = 0.0<br/>samples = 3<br/>value = -1.39>, fillcolor="#fdf4ed"] ;
354 -> 355 ;
356 [label=<squared_error = 0.0<br/>samples = 1<br/>value = -1.385>, fillcolor="#fdf4ed"] ;
355 -> 356 ;
357 [label=<squared_error = -0.0<br/>samples = 2<br/>value = -1.394>, fillcolor="#fdf4ed"] ;
355 -> 357 ;
358 [label=<squared_error = -0.0<br/>samples = 1<br/>value = -1.373>, fillcolor="#fdf3ed"] ;
354 -> 358 ;
359 [label=<squared_error = 0.0<br/>samples = 1<br/>value = -1.423>, fillcolor="#fdf4ee"] ;
353 -> 359 ;
360 [label=<squared_error = -0.0<br/>samples = 1<br/>value = -1.332>, fillcolor="#fcf3eb"] ;
352 -> 360 ;
361 [label=<x<SUB>0</SUB> &le; -0.569<br/>squared_error = 0.055<br/>samples = 142<br/>value = -0.958>, fillcolor="#fbebdf"] ;
351 -> 361 ;
362 [label=<x<SUB>3</SUB> &le; -0.873<br/>squared_error = 0.037<br/>samples = 96<br/>value = -1.027>, fillcolor="#fbece2"] ;
361 -> 362 ;
363 [label=<x<SUB>4</SUB> &le; -1.377<br/>squared_error = 0.021<br/>samples = 21<br/>value = -0.835>, fillcolor="#fae8db"] ;
362 -> 363 ;
364 [label=<x<SUB>1</SUB> &le; -0.094<br/>squared_error = 0.015<br/>samples = 3<br/>value = -1.067>, fillcolor="#fbede3"] ;
363 -> 364 ;
365 [label=<squared_error = 0.0<br/>samples = 1<br/>value = -1.238>, fillcolor="#fcf1e8"] ;
364 -> 365 ;
366 [label=<x<SUB>2</SUB> &le; -1.2<br/>squared_error = 0.0<br/>samples = 2<br/>value = -0.981>, fillcolor="#fbebe0"] ;
364 -> 366 ;
367 [label=<squared_error = 0.0<br/>samples = 1<br/>value = -1.003>, fillcolor="#fbece1"] ;
366 -> 367 ;
368 [label=<squared_error = 0.0<br/>samples = 1<br/>value = -0.959>, fillcolor="#fbebdf"] ;
366 -> 368 ;
369 [label=<x<SUB>4</SUB> &le; -0.196<br/>squared_error = 0.015<br/>samples = 18<br/>value = -0.808>, fillcolor="#fae8db"] ;
363 -> 369 ;
370 [label=<x<SUB>6</SUB> &le; 0.285<br/>squared_error = 0.01<br/>samples = 17<br/>value = -0.83>, fillcolor="#fae8db"] ;
369 -> 370 ;
371 [label=<x<SUB>3</SUB> &le; -0.936<br/>squared_error = 0.008<br/>samples = 13<br/>value = -0.798>, fillcolor="#fae8da"] ;
370 -> 371 ;
372 [label=<x<SUB>5</SUB> &le; 0.485<br/>squared_error = 0.003<br/>samples = 7<br/>value = -0.743>, fillcolor="#fae7d9"] ;
371 -> 372 ;
373 [label=<x<SUB>0</SUB> &le; -1.124<br/>squared_error = 0.001<br/>samples = 4<br/>value = -0.8>, fillcolor="#fae8da"] ;
372 -> 373 ;
374 [label=<x<SUB>0</SUB> &le; -1.126<br/>squared_error = 0.0<br/>samples = 3<br/>value = -0.82>, fillcolor="#fae8db"] ;
373 -> 374 ;
375 [label=<squared_error = 0.0<br/>samples = 1<br/>value = -0.801>, fillcolor="#fae8da"] ;
374 -> 375 ;
376 [label=<x<SUB>3</SUB> &le; -1.065<br/>squared_error = 0.0<br/>samples = 2<br/>value = -0.83>, fillcolor="#fae8db"] ;
374 -> 376 ;
377 [label=<squared_error = 0.0<br/>samples = 1<br/>value = -0.839>, fillcolor="#fae8dc"] ;
376 -> 377 ;
378 [label=<squared_error = 0.0<br/>samples = 1<br/>value = -0.821>, fillcolor="#fae8db"] ;
376 -> 378 ;
379 [label=<squared_error = -0.0<br/>samples = 1<br/>value = -0.739>, fillcolor="#fae6d8"] ;
373 -> 379 ;
380 [label=<x<SUB>0</SUB> &le; -1.125<br/>squared_error = 0.001<br/>samples = 3<br/>value = -0.705>, fillcolor="#fae6d7"] ;
372 -> 380 ;
381 [label=<x<SUB>3</SUB> &le; -0.988<br/>squared_error = 0.0<br/>samples = 2<br/>value = -0.715>, fillcolor="#fae6d8"] ;
380 -> 381 ;
382 [label=<squared_error = 0.0<br/>samples = 1<br/>value = -0.727>, fillcolor="#fae6d8"] ;
381 -> 382 ;
383 [label=<squared_error = -0.0<br/>samples = 1<br/>value = -0.707>, fillcolor="#fae6d7"] ;
381 -> 383 ;
384 [label=<squared_error = 0.0<br/>samples = 1<br/>value = -0.654>, fillcolor="#fae5d6"] ;
380 -> 384 ;
385 [label=<x<SUB>5</SUB> &le; 0.946<br/>squared_error = 0.005<br/>samples = 6<br/>value = -0.866>, fillcolor="#fae9dc"] ;
371 -> 385 ;
386 [label=<x<SUB>0</SUB> &le; -1.128<br/>squared_error = 0.002<br/>samples = 5<br/>value = -0.845>, fillcolor="#fae9dc"] ;
385 -> 386 ;
387 [label=<squared_error = 0.0<br/>samples = 1<br/>value = -0.93>, fillcolor="#fbeadf"] ;
386 -> 387 ;
388 [label=<x<SUB>4</SUB> &le; -1.199<br/>squared_error = 0.001<br/>samples = 4<br/>value = -0.831>, fillcolor="#fae8db"] ;
386 -> 388 ;
389 [label=<x<SUB>5</SUB> &le; 0.63<br/>squared_error = 0.0<br/>samples = 3<br/>value = -0.844>, fillcolor="#fae9dc"] ;
388 -> 389 ;
390 [label=<x<SUB>4</SUB> &le; -1.266<br/>squared_error = 0.0<br/>samples = 2<br/>value = -0.855>, fillcolor="#fae9dc"] ;
389 -> 390 ;
391 [label=<squared_error = 0.0<br/>samples = 1<br/>value = -0.859>, fillcolor="#fae9dc"] ;
390 -> 391 ;
392 [label=<squared_error = -0.0<br/>samples = 1<br/>value = -0.853>, fillcolor="#fae9dc"] ;
390 -> 392 ;
393 [label=<squared_error = 0.0<br/>samples = 1<br/>value = -0.827>, fillcolor="#fae8db"] ;
389 -> 393 ;
394 [label=<squared_error = -0.0<br/>samples = 1<br/>value = -0.765>, fillcolor="#fae7d9"] ;
388 -> 394 ;
395 [label=<squared_error = -0.0<br/>samples = 1<br/>value = -1.012>, fillcolor="#fbece1"] ;
385 -> 395 ;
396 [label=<x<SUB>3</SUB> &le; -0.889<br/>squared_error = 0.005<br/>samples = 4<br/>value = -0.926>, fillcolor="#fbeade"] ;
370 -> 396 ;
397 [label=<x<SUB>5</SUB> &le; 0.493<br/>squared_error = 0.003<br/>samples = 3<br/>value = -0.948>, fillcolor="#fbebdf"] ;
396 -> 397 ;
398 [label=<squared_error = 0.0<br/>samples = 1<br/>value = -0.845>, fillcolor="#fae9dc"] ;
397 -> 398 ;
399 [label=<x<SUB>4</SUB> &le; -1.21<br/>squared_error = 0.0<br/>samples = 2<br/>value = -0.974>, fillcolor="#fbebe0"] ;
397 -> 399 ;
400 [label=<squared_error = 0.0<br/>samples = 1<br/>value = -0.983>, fillcolor="#fbebe0"] ;
399 -> 400 ;
401 [label=<squared_error = 0.0<br/>samples = 1<br/>value = -0.971>, fillcolor="#fbebe0"] ;
399 -> 401 ;
402 [label=<squared_error = -0.0<br/>samples = 1<br/>value = -0.818>, fillcolor="#fae8db"] ;
396 -> 402 ;
403 [label=<squared_error = -0.0<br/>samples = 1<br/>value = -0.551>, fillcolor="#f9e3d2"] ;
369 -> 403 ;
404 [label=<x<SUB>5</SUB> &le; 1.059<br/>squared_error = 0.03<br/>samples = 75<br/>value = -1.071>, fillcolor="#fbede3"] ;
362 -> 404 ;
405 [label=<x<SUB>1</SUB> &le; 0.639<br/>squared_error = 0.027<br/>samples = 51<br/>value = -1.022>, fillcolor="#fbece1"] ;
404 -> 405 ;
406 [label=<x<SUB>1</SUB> &le; -0.439<br/>squared_error = 0.009<br/>samples = 28<br/>value = -1.115>, fillcolor="#fceee4"] ;
405 -> 406 ;
407 [label=<x<SUB>6</SUB> &le; -0.42<br/>squared_error = 0.008<br/>samples = 7<br/>value = -1.218>, fillcolor="#fcf0e8"] ;
406 -> 407 ;
408 [label=<x<SUB>4</SUB> &le; -1.533<br/>squared_error = 0.003<br/>samples = 2<br/>value = -1.397>, fillcolor="#fdf4ed"] ;
407 -> 408 ;
409 [label=<squared_error = 0.0<br/>samples = 1<br/>value = -1.45>, fillcolor="#fdf5ef"] ;
408 -> 409 ;
410 [label=<squared_error = -0.0<br/>samples = 1<br/>value = -1.344>, fillcolor="#fcf3ec"] ;
408 -> 410 ;
411 [label=<x<SUB>6</SUB> &le; -0.169<br/>squared_error = 0.0<br/>samples = 5<br/>value = -1.179>, fillcolor="#fcefe6"] ;
407 -> 411 ;
412 [label=<squared_error = 0.0<br/>samples = 2<br/>value = -1.159>, fillcolor="#fcefe6"] ;
411 -> 412 ;
413 [label=<x<SUB>2</SUB> &le; -0.95<br/>squared_error = 0.0<br/>samples = 3<br/>value = -1.194>, fillcolor="#fcf0e7"] ;
411 -> 413 ;
414 [label=<squared_error = 0.0<br/>samples = 1<br/>value = -1.218>, fillcolor="#fcf0e8"] ;
413 -> 414 ;
415 [label=<squared_error = -0.0<br/>samples = 2<br/>value = -1.188>, fillcolor="#fcf0e7"] ;
413 -> 415 ;
416 [label=<x<SUB>5</SUB> &le; 0.266<br/>squared_error = 0.005<br/>samples = 21<br/>value = -1.085>, fillcolor="#fbede3"] ;
406 -> 416 ;
417 [label=<x<SUB>1</SUB> &le; -0.008<br/>squared_error = 0.022<br/>samples = 2<br/>value = -0.952>, fillcolor="#fbebdf"] ;
416 -> 417 ;
418 [label=<squared_error = 0.0<br/>samples = 1<br/>value = -1.1>, fillcolor="#fbeee4"] ;
417 -> 418 ;
419 [label=<squared_error = 0.0<br/>samples = 1<br/>value = -0.804>, fillcolor="#fae8da"] ;
417 -> 419 ;
420 [label=<x<SUB>0</SUB> &le; -1.124<br/>squared_error = 0.003<br/>samples = 19<br/>value = -1.092>, fillcolor="#fbeee4"] ;
416 -> 420 ;
421 [label=<x<SUB>6</SUB> &le; -0.459<br/>squared_error = 0.002<br/>samples = 11<br/>value = -1.126>, fillcolor="#fceee5"] ;
420 -> 421 ;
422 [label=<x<SUB>6</SUB> &le; -0.59<br/>squared_error = 0.002<br/>samples = 5<br/>value = -1.097>, fillcolor="#fbeee4"] ;
421 -> 422 ;
423 [label=<squared_error = 0.0<br/>samples = 1<br/>value = -1.182>, fillcolor="#fcefe7"] ;
422 -> 423 ;
424 [label=<x<SUB>0</SUB> &le; -1.126<br/>squared_error = 0.001<br/>samples = 4<br/>value = -1.075>, fillcolor="#fbede3"] ;
422 -> 424 ;
425 [label=<squared_error = 0.0<br/>samples = 1<br/>value = -1.1>, fillcolor="#fbeee4"] ;
424 -> 425 ;
426 [label=<x<SUB>4</SUB> &le; -1.444<br/>squared_error = 0.001<br/>samples = 3<br/>value = -1.067>, fillcolor="#fbede3"] ;
424 -> 426 ;
427 [label=<squared_error = 0.0<br/>samples = 1<br/>value = -1.097>, fillcolor="#fbeee4"] ;
426 -> 427 ;
428 [label=<x<SUB>3</SUB> &le; -0.789<br/>squared_error = 0.0<br/>samples = 2<br/>value = -1.052>, fillcolor="#fbede2"] ;
426 -> 428 ;
429 [label=<squared_error = 0.0<br/>samples = 1<br/>value = -1.071>, fillcolor="#fbede3"] ;
428 -> 429 ;
430 [label=<squared_error = -0.0<br/>samples = 1<br/>value = -1.033>, fillcolor="#fbece2"] ;
428 -> 430 ;
431 [label=<x<SUB>0</SUB> &le; -1.125<br/>squared_error = 0.0<br/>samples = 6<br/>value = -1.143>, fillcolor="#fcefe5"] ;
421 -> 431 ;
432 [label=<x<SUB>2</SUB> &le; -1.139<br/>squared_error = 0.0<br/>samples = 4<br/>value = -1.134>, fillcolor="#fceee5"] ;
431 -> 432 ;
433 [label=<squared_error = 0.0<br/>samples = 1<br/>value = -1.159>, fillcolor="#fcefe6"] ;
432 -> 433 ;
434 [label=<squared_error = 0.0<br/>samples = 3<br/>value = -1.13>, fillcolor="#fceee5"] ;
432 -> 434 ;
435 [label=<x<SUB>3</SUB> &le; -0.779<br/>squared_error = 0.0<br/>samples = 2<br/>value = -1.174>, fillcolor="#fcefe6"] ;
431 -> 435 ;
436 [label=<squared_error = 0.0<br/>samples = 1<br/>value = -1.159>, fillcolor="#fcefe6"] ;
435 -> 436 ;
437 [label=<squared_error = 0.0<br/>samples = 1<br/>value = -1.188>, fillcolor="#fcf0e7"] ;
435 -> 437 ;
438 [label=<x<SUB>6</SUB> &le; -0.458<br/>squared_error = 0.003<br/>samples = 8<br/>value = -1.071>, fillcolor="#fbede3"] ;
420 -> 438 ;
439 [label=<x<SUB>5</SUB> &le; 0.899<br/>squared_error = 0.001<br/>samples = 6<br/>value = -1.095>, fillcolor="#fbeee4"] ;
438 -> 439 ;
440 [label=<x<SUB>2</SUB> &le; -0.839<br/>squared_error = 0.0<br/>samples = 5<br/>value = -1.084>, fillcolor="#fbede3"] ;
439 -> 440 ;
441 [label=<x<SUB>5</SUB> &le; 0.596<br/>squared_error = 0.0<br/>samples = 3<br/>value = -1.091>, fillcolor="#fbeee4"] ;
440 -> 441 ;
442 [label=<squared_error = 0.0<br/>samples = 1<br/>value = -1.071>, fillcolor="#fbede3"] ;
441 -> 442 ;
443 [label=<squared_error = 0.0<br/>samples = 2<br/>value = -1.1>, fillcolor="#fbeee4"] ;
441 -> 443 ;
444 [label=<x<SUB>0</SUB> &le; -0.57<br/>squared_error = 0.0<br/>samples = 2<br/>value = -1.061>, fillcolor="#fbede3"] ;
440 -> 444 ;
445 [label=<squared_error = 0.0<br/>samples = 1<br/>value = -1.041>, fillcolor="#fbede2"] ;
444 -> 445 ;
446 [label=<squared_error = 0.0<br/>samples = 1<br/>value = -1.071>, fillcolor="#fbede3"] ;
444 -> 446 ;
447 [label=<squared_error = -0.0<br/>samples = 1<br/>value = -1.13>, fillcolor="#fceee5"] ;
439 -> 447 ;
448 [label=<x<SUB>4</SUB> &le; -0.753<br/>squared_error = 0.001<br/>samples = 2<br/>value = -0.987>, fillcolor="#fbebe0"] ;
438 -> 448 ;
449 [label=<squared_error = 0.0<br/>samples = 1<br/>value = -0.95>, fillcolor="#fbebdf"] ;
448 -> 449 ;
450 [label=<squared_error = 0.0<br/>samples = 1<br/>value = -1.012>, fillcolor="#fbece1"] ;
448 -> 450 ;
451 [label=<x<SUB>5</SUB> &le; 0.732<br/>squared_error = 0.024<br/>samples = 23<br/>value = -0.902>, fillcolor="#fbeade"] ;
405 -> 451 ;
452 [label=<x<SUB>6</SUB> &le; 1.084<br/>squared_error = 0.016<br/>samples = 11<br/>value = -0.792>, fillcolor="#fae8da"] ;
451 -> 452 ;
453 [label=<x<SUB>5</SUB> &le; 0.481<br/>squared_error = 0.002<br/>samples = 5<br/>value = -0.679>, fillcolor="#fae5d6"] ;
452 -> 453 ;
454 [label=<squared_error = 0.0<br/>samples = 1<br/>value = -0.604>, fillcolor="#f9e4d4"] ;
453 -> 454 ;
455 [label=<x<SUB>0</SUB> &le; -1.126<br/>squared_error = 0.001<br/>samples = 4<br/>value = -0.688>, fillcolor="#fae5d7"] ;
453 -> 455 ;
456 [label=<squared_error = 0.0<br/>samples = 1<br/>value = -0.636>, fillcolor="#fae4d5"] ;
455 -> 456 ;
457 [label=<x<SUB>6</SUB> &le; 0.06<br/>squared_error = 0.0<br/>samples = 3<br/>value = -0.706>, fillcolor="#fae6d7"] ;
455 -> 457 ;
458 [label=<squared_error = 0.0<br/>samples = 1<br/>value = -0.727>, fillcolor="#fae6d8"] ;
457 -> 458 ;
459 [label=<x<SUB>5</SUB> &le; 0.665<br/>squared_error = 0.0<br/>samples = 2<br/>value = -0.701>, fillcolor="#fae6d7"] ;
457 -> 459 ;
460 [label=<squared_error = 0.0<br/>samples = 1<br/>value = -0.698>, fillcolor="#fae6d7"] ;
459 -> 460 ;
461 [label=<squared_error = 0.0<br/>samples = 1<br/>value = -0.704>, fillcolor="#fae6d7"] ;
459 -> 461 ;
462 [label=<x<SUB>6</SUB> &le; 1.319<br/>squared_error = 0.003<br/>samples = 6<br/>value = -0.919>, fillcolor="#fbeade"] ;
452 -> 462 ;
463 [label=<x<SUB>5</SUB> &le; 0.693<br/>squared_error = 0.001<br/>samples = 2<br/>value = -0.973>, fillcolor="#fbebe0"] ;
462 -> 463 ;
464 [label=<squared_error = 0.0<br/>samples = 1<br/>value = -0.953>, fillcolor="#fbebdf"] ;
463 -> 464 ;
465 [label=<squared_error = 0.0<br/>samples = 1<br/>value = -1.012>, fillcolor="#fbece1"] ;
463 -> 465 ;
466 [label=<x<SUB>6</SUB> &le; 1.664<br/>squared_error = 0.001<br/>samples = 4<br/>value = -0.886>, fillcolor="#fbe9dd"] ;
462 -> 466 ;
467 [label=<x<SUB>3</SUB> &le; -0.764<br/>squared_error = 0.0<br/>samples = 3<br/>value = -0.902>, fillcolor="#fbeade"] ;
466 -> 467 ;
468 [label=<squared_error = -0.0<br/>samples = 2<br/>value = -0.895>, fillcolor="#fbeadd"] ;
467 -> 468 ;
469 [label=<squared_error = 0.0<br/>samples = 1<br/>value = -0.924>, fillcolor="#fbeade"] ;
467 -> 469 ;
470 [label=<squared_error = -0.0<br/>samples = 1<br/>value = -0.824>, fillcolor="#fae8db"] ;
466 -> 470 ;
471 [label=<x<SUB>5</SUB> &le; 1.038<br/>squared_error = 0.013<br/>samples = 12<br/>value = -0.992>, fillcolor="#fbece0"] ;
451 -> 471 ;
472 [label=<x<SUB>4</SUB> &le; -0.697<br/>squared_error = 0.003<br/>samples = 11<br/>value = -1.014>, fillcolor="#fbece1"] ;
471 -> 472 ;
473 [label=<x<SUB>4</SUB> &le; -1.009<br/>squared_error = 0.0<br/>samples = 3<br/>value = -1.065>, fillcolor="#fbede3"] ;
472 -> 473 ;
474 [label=<squared_error = 0.0<br/>samples = 2<br/>value = -1.071>, fillcolor="#fbede3"] ;
473 -> 474 ;
475 [label=<squared_error = -0.0<br/>samples = 1<br/>value = -1.03>, fillcolor="#fbece2"] ;
473 -> 475 ;
476 [label=<x<SUB>5</SUB> &le; 0.891<br/>squared_error = 0.002<br/>samples = 8<br/>value = -0.987>, fillcolor="#fbebe0"] ;
472 -> 476 ;
477 [label=<x<SUB>5</SUB> &le; 0.754<br/>squared_error = 0.001<br/>samples = 6<br/>value = -1.009>, fillcolor="#fbece1"] ;
476 -> 477 ;
478 [label=<squared_error = 0.0<br/>samples = 3<br/>value = -0.983>, fillcolor="#fbebe0"] ;
477 -> 478 ;
479 [label=<x<SUB>5</SUB> &le; 0.793<br/>squared_error = 0.0<br/>samples = 3<br/>value = -1.03>, fillcolor="#fbece2"] ;
477 -> 479 ;
480 [label=<x<SUB>2</SUB> &le; -1.122<br/>squared_error = 0.0<br/>samples = 2<br/>value = -1.041>, fillcolor="#fbede2"] ;
479 -> 480 ;
481 [label=<squared_error = 0.0<br/>samples = 1<br/>value = -1.041>, fillcolor="#fbede2"] ;
480 -> 481 ;
482 [label=<squared_error = 0.0<br/>samples = 1<br/>value = -1.041>, fillcolor="#fbede2"] ;
480 -> 482 ;
483 [label=<squared_error = -0.0<br/>samples = 1<br/>value = -1.012>, fillcolor="#fbece1"] ;
479 -> 483 ;
484 [label=<x<SUB>2</SUB> &le; -1.159<br/>squared_error = 0.001<br/>samples = 2<br/>value = -0.937>, fillcolor="#fbeadf"] ;
476 -> 484 ;
485 [label=<squared_error = 0.0<br/>samples = 1<br/>value = -0.962>, fillcolor="#fbebe0"] ;
484 -> 485 ;
486 [label=<squared_error = 0.0<br/>samples = 1<br/>value = -0.912>, fillcolor="#fbeade"] ;
484 -> 486 ;
487 [label=<squared_error = -0.0<br/>samples = 1<br/>value = -0.542>, fillcolor="#f9e2d2"] ;
471 -> 487 ;
488 [label=<x<SUB>0</SUB> &le; -0.57<br/>squared_error = 0.021<br/>samples = 24<br/>value = -1.177>, fillcolor="#fcefe6"] ;
404 -> 488 ;
489 [label=<x<SUB>1</SUB> &le; 1.286<br/>squared_error = 0.014<br/>samples = 23<br/>value = -1.191>, fillcolor="#fcf0e7"] ;
488 -> 489 ;
490 [label=<x<SUB>6</SUB> &le; 1.762<br/>squared_error = 0.008<br/>samples = 13<br/>value = -1.24>, fillcolor="#fcf1e8"] ;
489 -> 490 ;
491 [label=<x<SUB>4</SUB> &le; -1.478<br/>squared_error = 0.002<br/>samples = 8<br/>value = -1.291>, fillcolor="#fcf2ea"] ;
490 -> 491 ;
492 [label=<squared_error = -0.0<br/>samples = 1<br/>value = -1.365>, fillcolor="#fdf3ec"] ;
491 -> 492 ;
493 [label=<x<SUB>0</SUB> &le; -1.124<br/>squared_error = 0.001<br/>samples = 7<br/>value = -1.275>, fillcolor="#fcf1ea"] ;
491 -> 493 ;
494 [label=<x<SUB>5</SUB> &le; 1.137<br/>squared_error = 0.0<br/>samples = 3<br/>value = -1.234>, fillcolor="#fcf1e8"] ;
493 -> 494 ;
495 [label=<squared_error = 0.0<br/>samples = 1<br/>value = -1.2>, fillcolor="#fcf0e7"] ;
494 -> 495 ;
496 [label=<x<SUB>5</SUB> &le; 1.456<br/>squared_error = 0.0<br/>samples = 2<br/>value = -1.245>, fillcolor="#fcf1e9"] ;
494 -> 496 ;
497 [label=<squared_error = 0.0<br/>samples = 1<br/>value = -1.247>, fillcolor="#fcf1e9"] ;
496 -> 497 ;
498 [label=<squared_error = 0.0<br/>samples = 1<br/>value = -1.244>, fillcolor="#fcf1e9"] ;
496 -> 498 ;
499 [label=<x<SUB>5</SUB> &le; 1.355<br/>squared_error = 0.0<br/>samples = 4<br/>value = -1.291>, fillcolor="#fcf2ea"] ;
493 -> 499 ;
500 [label=<x<SUB>0</SUB> &le; -0.848<br/>squared_error = 0.0<br/>samples = 2<br/>value = -1.303>, fillcolor="#fcf2ea"] ;
499 -> 500 ;
501 [label=<squared_error = 0.0<br/>samples = 1<br/>value = -1.306>, fillcolor="#fcf2eb"] ;
500 -> 501 ;
502 [label=<squared_error = 0.0<br/>samples = 1<br/>value = -1.297>, fillcolor="#fcf2ea"] ;
500 -> 502 ;
503 [label=<x<SUB>6</SUB> &le; 1.085<br/>squared_error = 0.0<br/>samples = 2<br/>value = -1.274>, fillcolor="#fcf1ea"] ;
499 -> 503 ;
504 [label=<squared_error = -0.0<br/>samples = 1<br/>value = -1.271>, fillcolor="#fcf1e9"] ;
503 -> 504 ;
505 [label=<squared_error = -0.0<br/>samples = 1<br/>value = -1.282>, fillcolor="#fcf1ea"] ;
503 -> 505 ;
506 [label=<x<SUB>4</SUB> &le; -0.486<br/>squared_error = 0.002<br/>samples = 5<br/>value = -1.118>, fillcolor="#fceee5"] ;
490 -> 506 ;
507 [label=<x<SUB>5</SUB> &le; 1.235<br/>squared_error = 0.0<br/>samples = 2<br/>value = -1.166>, fillcolor="#fcefe6"] ;
506 -> 507 ;
508 [label=<squared_error = 0.0<br/>samples = 1<br/>value = -1.162>, fillcolor="#fcefe6"] ;
507 -> 508 ;
509 [label=<squared_error = -0.0<br/>samples = 1<br/>value = -1.174>, fillcolor="#fcefe6"] ;
507 -> 509 ;
510 [label=<x<SUB>5</SUB> &le; 1.068<br/>squared_error = 0.0<br/>samples = 3<br/>value = -1.083>, fillcolor="#fbede3"] ;
506 -> 510 ;
511 [label=<squared_error = 0.0<br/>samples = 1<br/>value = -1.056>, fillcolor="#fbede3"] ;
510 -> 511 ;
512 [label=<squared_error = 0.0<br/>samples = 2<br/>value = -1.091>, fillcolor="#fbeee4"] ;
510 -> 512 ;
513 [label=<x<SUB>6</SUB> &le; 0.599<br/>squared_error = 0.014<br/>samples = 10<br/>value = -1.113>, fillcolor="#fceee4"] ;
489 -> 513 ;
514 [label=<x<SUB>6</SUB> &le; 0.466<br/>squared_error = 0.007<br/>samples = 8<br/>value = -1.157>, fillcolor="#fcefe6"] ;
513 -> 514 ;
515 [label=<x<SUB>4</SUB> &le; -1.466<br/>squared_error = 0.004<br/>samples = 6<br/>value = -1.098>, fillcolor="#fbeee4"] ;
514 -> 515 ;
516 [label=<squared_error = 0.0<br/>samples = 1<br/>value = -1.212>, fillcolor="#fcf0e8"] ;
515 -> 516 ;
517 [label=<x<SUB>0</SUB> &le; -1.123<br/>squared_error = 0.002<br/>samples = 5<br/>value = -1.079>, fillcolor="#fbede3"] ;
515 -> 517 ;
518 [label=<x<SUB>6</SUB> &le; 0.209<br/>squared_error = 0.0<br/>samples = 4<br/>value = -1.063>, fillcolor="#fbede3"] ;
517 -> 518 ;
519 [label=<x<SUB>4</SUB> &le; -1.377<br/>squared_error = 0.0<br/>samples = 2<br/>value = -1.086>, fillcolor="#fbede3"] ;
518 -> 519 ;
520 [label=<squared_error = 0.0<br/>samples = 1<br/>value = -1.1>, fillcolor="#fbeee4"] ;
519 -> 520 ;
521 [label=<squared_error = -0.0<br/>samples = 1<br/>value = -1.071>, fillcolor="#fbede3"] ;
519 -> 521 ;
522 [label=<x<SUB>0</SUB> &le; -1.126<br/>squared_error = 0.0<br/>samples = 2<br/>value = -1.047>, fillcolor="#fbede2"] ;
518 -> 522 ;
523 [label=<squared_error = 0.0<br/>samples = 1<br/>value = -1.041>, fillcolor="#fbede2"] ;
522 -> 523 ;
524 [label=<squared_error = 0.0<br/>samples = 1<br/>value = -1.05>, fillcolor="#fbede2"] ;
522 -> 524 ;
525 [label=<squared_error = 0.0<br/>samples = 1<br/>value = -1.159>, fillcolor="#fcefe6"] ;
517 -> 525 ;
526 [label=<x<SUB>5</SUB> &le; 1.519<br/>squared_error = 0.001<br/>samples = 2<br/>value = -1.241>, fillcolor="#fcf1e8"] ;
514 -> 526 ;
527 [label=<squared_error = 0.0<br/>samples = 1<br/>value = -1.271>, fillcolor="#fcf1e9"] ;
526 -> 527 ;
528 [label=<squared_error = -0.0<br/>samples = 1<br/>value = -1.221>, fillcolor="#fcf0e8"] ;
526 -> 528 ;
529 [label=<x<SUB>6</SUB> &le; 0.807<br/>squared_error = 0.0<br/>samples = 2<br/>value = -0.935>, fillcolor="#fbeadf"] ;
513 -> 529 ;
530 [label=<squared_error = 0.0<br/>samples = 1<br/>value = -0.942>, fillcolor="#fbebdf"] ;
529 -> 530 ;
531 [label=<squared_error = -0.0<br/>samples = 1<br/>value = -0.921>, fillcolor="#fbeade"] ;
529 -> 531 ;
532 [label=<squared_error = 0.0<br/>samples = 1<br/>value = -0.63>, fillcolor="#f9e4d5"] ;
488 -> 532 ;
533 [label=<x<SUB>1</SUB> &le; 0.337<br/>squared_error = 0.064<br/>samples = 46<br/>value = -0.813>, fillcolor="#fae8db"] ;
361 -> 533 ;
534 [label=<x<SUB>5</SUB> &le; 0.408<br/>squared_error = 0.042<br/>samples = 37<br/>value = -0.899>, fillcolor="#fbeade"] ;
533 -> 534 ;
535 [label=<x<SUB>5</SUB> &le; 0.166<br/>squared_error = 0.016<br/>samples = 9<br/>value = -0.637>, fillcolor="#fae4d5"] ;
534 -> 535 ;
536 [label=<x<SUB>2</SUB> &le; 0.279<br/>squared_error = 0.003<br/>samples = 3<br/>value = -0.762>, fillcolor="#fae7d9"] ;
535 -> 536 ;
537 [label=<x<SUB>4</SUB> &le; -0.931<br/>squared_error = 0.0<br/>samples = 2<br/>value = -0.799>, fillcolor="#fae8da"] ;
536 -> 537 ;
538 [label=<squared_error = -0.0<br/>samples = 1<br/>value = -0.807>, fillcolor="#fae8db"] ;
537 -> 538 ;
539 [label=<squared_error = 0.0<br/>samples = 1<br/>value = -0.777>, fillcolor="#fae7da"] ;
537 -> 539 ;
540 [label=<squared_error = 0.0<br/>samples = 1<br/>value = -0.689>, fillcolor="#fae5d7"] ;
536 -> 540 ;
541 [label=<x<SUB>6</SUB> &le; -0.643<br/>squared_error = 0.003<br/>samples = 6<br/>value = -0.53>, fillcolor="#f9e2d2"] ;
535 -> 541 ;
542 [label=<x<SUB>0</SUB> &le; -0.012<br/>squared_error = 0.001<br/>samples = 5<br/>value = -0.548>, fillcolor="#f9e3d2"] ;
541 -> 542 ;
543 [label=<x<SUB>1</SUB> &le; -0.741<br/>squared_error = 0.0<br/>samples = 2<br/>value = -0.588>, fillcolor="#f9e3d4"] ;
542 -> 543 ;
544 [label=<squared_error = 0.0<br/>samples = 1<br/>value = -0.604>, fillcolor="#f9e4d4"] ;
543 -> 544 ;
545 [label=<squared_error = -0.0<br/>samples = 1<br/>value = -0.572>, fillcolor="#f9e3d3"] ;
543 -> 545 ;
546 [label=<x<SUB>0</SUB> &le; 0.265<br/>squared_error = 0.0<br/>samples = 3<br/>value = -0.527>, fillcolor="#f9e2d2"] ;
542 -> 546 ;
547 [label=<squared_error = 0.0<br/>samples = 1<br/>value = -0.542>, fillcolor="#f9e2d2"] ;
546 -> 547 ;
548 [label=<squared_error = 0.0<br/>samples = 2<br/>value = -0.513>, fillcolor="#f9e2d1"] ;
546 -> 548 ;
549 [label=<squared_error = 0.0<br/>samples = 1<br/>value = -0.425>, fillcolor="#f9e0ce"] ;
541 -> 549 ;
550 [label=<x<SUB>3</SUB> &le; 0.478<br/>squared_error = 0.023<br/>samples = 28<br/>value = -0.979>, fillcolor="#fbebe0"] ;
534 -> 550 ;
551 [label=<x<SUB>2</SUB> &le; -0.641<br/>squared_error = 0.022<br/>samples = 20<br/>value = -0.922>, fillcolor="#fbeade"] ;
550 -> 551 ;
552 [label=<x<SUB>2</SUB> &le; -0.847<br/>squared_error = 0.011<br/>samples = 12<br/>value = -1.01>, fillcolor="#fbece1"] ;
551 -> 552 ;
553 [label=<x<SUB>5</SUB> &le; 1.235<br/>squared_error = 0.005<br/>samples = 4<br/>value = -1.16>, fillcolor="#fcefe6"] ;
552 -> 553 ;
554 [label=<x<SUB>3</SUB> &le; -0.045<br/>squared_error = 0.0<br/>samples = 2<br/>value = -1.104>, fillcolor="#fbeee4"] ;
553 -> 554 ;
555 [label=<squared_error = 0.0<br/>samples = 1<br/>value = -1.13>, fillcolor="#fceee5"] ;
554 -> 555 ;
556 [label=<squared_error = 0.0<br/>samples = 1<br/>value = -1.091>, fillcolor="#fbeee4"] ;
554 -> 556 ;
557 [label=<x<SUB>6</SUB> &le; 0.65<br/>squared_error = 0.0<br/>samples = 2<br/>value = -1.244>, fillcolor="#fcf1e9"] ;
553 -> 557 ;
558 [label=<squared_error = 0.0<br/>samples = 1<br/>value = -1.256>, fillcolor="#fcf1e9"] ;
557 -> 558 ;
559 [label=<squared_error = -0.0<br/>samples = 1<br/>value = -1.232>, fillcolor="#fcf0e8"] ;
557 -> 559 ;
560 [label=<x<SUB>6</SUB> &le; -0.094<br/>squared_error = 0.002<br/>samples = 8<br/>value = -0.956>, fillcolor="#fbebdf"] ;
552 -> 560 ;
561 [label=<x<SUB>3</SUB> &le; 0.445<br/>squared_error = 0.003<br/>samples = 5<br/>value = -0.931>, fillcolor="#fbeadf"] ;
560 -> 561 ;
562 [label=<x<SUB>4</SUB> &le; -0.831<br/>squared_error = 0.001<br/>samples = 2<br/>value = -0.875>, fillcolor="#fbe9dd"] ;
561 -> 562 ;
563 [label=<squared_error = 0.0<br/>samples = 1<br/>value = -0.895>, fillcolor="#fbeadd"] ;
562 -> 563 ;
564 [label=<squared_error = 0.0<br/>samples = 1<br/>value = -0.836>, fillcolor="#fae8dc"] ;
562 -> 564 ;
565 [label=<x<SUB>0</SUB> &le; -0.015<br/>squared_error = 0.001<br/>samples = 3<br/>value = -0.965>, fillcolor="#fbebe0"] ;
561 -> 565 ;
566 [label=<squared_error = 0.0<br/>samples = 1<br/>value = -0.983>, fillcolor="#fbebe0"] ;
565 -> 566 ;
567 [label=<x<SUB>1</SUB> &le; -0.223<br/>squared_error = 0.0<br/>samples = 2<br/>value = -0.939>, fillcolor="#fbebdf"] ;
565 -> 567 ;
568 [label=<squared_error = 0.0<br/>samples = 1<br/>value = -0.924>, fillcolor="#fbeade"] ;
567 -> 568 ;
569 [label=<squared_error = 0.0<br/>samples = 1<br/>value = -0.953>, fillcolor="#fbebdf"] ;
567 -> 569 ;
570 [label=<x<SUB>6</SUB> &le; -0.06<br/>squared_error = 0.0<br/>samples = 3<br/>value = -0.989>, fillcolor="#fbece0"] ;
560 -> 570 ;
571 [label=<squared_error = 0.0<br/>samples = 1<br/>value = -0.983>, fillcolor="#fbebe0"] ;
570 -> 571 ;
572 [label=<x<SUB>2</SUB> &le; -0.756<br/>squared_error = 0.0<br/>samples = 2<br/>value = -0.992>, fillcolor="#fbece0"] ;
570 -> 572 ;
573 [label=<squared_error = 0.0<br/>samples = 1<br/>value = -1.0>, fillcolor="#fbece1"] ;
572 -> 573 ;
574 [label=<squared_error = -0.0<br/>samples = 1<br/>value = -0.983>, fillcolor="#fbebe0"] ;
572 -> 574 ;
575 [label=<x<SUB>2</SUB> &le; -0.526<br/>squared_error = 0.003<br/>samples = 8<br/>value = -0.77>, fillcolor="#fae7d9"] ;
551 -> 575 ;
576 [label=<x<SUB>3</SUB> &le; 0.436<br/>squared_error = 0.001<br/>samples = 5<br/>value = -0.8>, fillcolor="#fae8da"] ;
575 -> 576 ;
577 [label=<x<SUB>0</SUB> &le; -0.012<br/>squared_error = 0.0<br/>samples = 4<br/>value = -0.791>, fillcolor="#fae7da"] ;
576 -> 577 ;
578 [label=<x<SUB>6</SUB> &le; -0.227<br/>squared_error = 0.0<br/>samples = 3<br/>value = -0.795>, fillcolor="#fae8da"] ;
577 -> 578 ;
579 [label=<x<SUB>5</SUB> &le; 0.961<br/>squared_error = 0.0<br/>samples = 2<br/>value = -0.8>, fillcolor="#fae8da"] ;
578 -> 579 ;
580 [label=<squared_error = 0.0<br/>samples = 1<br/>value = -0.795>, fillcolor="#fae8da"] ;
579 -> 580 ;
581 [label=<squared_error = -0.0<br/>samples = 1<br/>value = -0.815>, fillcolor="#fae8db"] ;
579 -> 581 ;
582 [label=<squared_error = 0.0<br/>samples = 1<br/>value = -0.786>, fillcolor="#fae7da"] ;
578 -> 582 ;
583 [label=<squared_error = 0.0<br/>samples = 1<br/>value = -0.762>, fillcolor="#fae7d9"] ;
577 -> 583 ;
584 [label=<squared_error = -0.0<br/>samples = 1<br/>value = -0.865>, fillcolor="#fae9dc"] ;
576 -> 584 ;
585 [label=<x<SUB>6</SUB> &le; -0.28<br/>squared_error = 0.002<br/>samples = 3<br/>value = -0.689>, fillcolor="#fae5d7"] ;
575 -> 585 ;
586 [label=<squared_error = 0.0<br/>samples = 1<br/>value = -0.63>, fillcolor="#f9e4d5"] ;
585 -> 586 ;
587 [label=<squared_error = -0.0<br/>samples = 2<br/>value = -0.718>, fillcolor="#fae6d8"] ;
585 -> 587 ;
588 [label=<x<SUB>3</SUB> &le; 0.513<br/>squared_error = 0.001<br/>samples = 8<br/>value = -1.11>, fillcolor="#fbeee4"] ;
550 -> 588 ;
589 [label=<x<SUB>2</SUB> &le; -0.596<br/>squared_error = 0.001<br/>samples = 3<br/>value = -1.064>, fillcolor="#fbede3"] ;
588 -> 589 ;
590 [label=<squared_error = 0.0<br/>samples = 1<br/>value = -1.041>, fillcolor="#fbede2"] ;
589 -> 590 ;
591 [label=<x<SUB>5</SUB> &le; 0.888<br/>squared_error = 0.0<br/>samples = 2<br/>value = -1.086>, fillcolor="#fbede3"] ;
589 -> 591 ;
592 [label=<squared_error = 0.0<br/>samples = 1<br/>value = -1.071>, fillcolor="#fbede3"] ;
591 -> 592 ;
593 [label=<squared_error = -0.0<br/>samples = 1<br/>value = -1.1>, fillcolor="#fbeee4"] ;
591 -> 593 ;
594 [label=<x<SUB>5</SUB> &le; 1.025<br/>squared_error = 0.0<br/>samples = 5<br/>value = -1.131>, fillcolor="#fceee5"] ;
588 -> 594 ;
595 [label=<squared_error = 0.0<br/>samples = 3<br/>value = -1.13>, fillcolor="#fceee5"] ;
594 -> 595 ;
596 [label=<x<SUB>0</SUB> &le; -0.013<br/>squared_error = 0.0<br/>samples = 2<br/>value = -1.133>, fillcolor="#fceee5"] ;
594 -> 596 ;
597 [label=<squared_error = 0.0<br/>samples = 1<br/>value = -1.133>, fillcolor="#fceee5"] ;
596 -> 597 ;
598 [label=<squared_error = 0.0<br/>samples = 1<br/>value = -1.133>, fillcolor="#fceee5"] ;
596 -> 598 ;
599 [label=<x<SUB>4</SUB> &le; -0.787<br/>squared_error = 0.035<br/>samples = 9<br/>value = -0.545>, fillcolor="#f9e2d2"] ;
533 -> 599 ;
600 [label=<x<SUB>4</SUB> &le; -0.931<br/>squared_error = 0.007<br/>samples = 4<br/>value = -0.724>, fillcolor="#fae6d8"] ;
599 -> 600 ;
601 [label=<x<SUB>2</SUB> &le; -1.159<br/>squared_error = 0.0<br/>samples = 2<br/>value = -0.829>, fillcolor="#fae8db"] ;
600 -> 601 ;
602 [label=<squared_error = 0.0<br/>samples = 1<br/>value = -0.845>, fillcolor="#fae9dc"] ;
601 -> 602 ;
603 [label=<squared_error = -0.0<br/>samples = 1<br/>value = -0.821>, fillcolor="#fae8db"] ;
601 -> 603 ;
604 [label=<x<SUB>6</SUB> &le; 0.353<br/>squared_error = 0.0<br/>samples = 2<br/>value = -0.66>, fillcolor="#fae5d6"] ;
600 -> 604 ;
605 [label=<squared_error = 0.0<br/>samples = 1<br/>value = -0.686>, fillcolor="#fae5d7"] ;
604 -> 605 ;
606 [label=<squared_error = -0.0<br/>samples = 1<br/>value = -0.654>, fillcolor="#fae5d6"] ;
604 -> 606 ;
607 [label=<x<SUB>5</SUB> &le; 1.185<br/>squared_error = 0.011<br/>samples = 5<br/>value = -0.402>, fillcolor="#f9e0ce"] ;
599 -> 607 ;
608 [label=<x<SUB>0</SUB> &le; -0.569<br/>squared_error = 0.007<br/>samples = 3<br/>value = -0.353>, fillcolor="#f8dfcc"] ;
607 -> 608 ;
609 [label=<squared_error = 0.0<br/>samples = 1<br/>value = -0.483>, fillcolor="#f9e1d0"] ;
608 -> 609 ;
610 [label=<x<SUB>0</SUB> &le; -0.291<br/>squared_error = 0.0<br/>samples = 2<br/>value = -0.3>, fillcolor="#f8deca"] ;
608 -> 610 ;
611 [label=<squared_error = 0.0<br/>samples = 1<br/>value = -0.295>, fillcolor="#f8ddca"] ;
610 -> 611 ;
612 [label=<squared_error = 0.0<br/>samples = 1<br/>value = -0.307>, fillcolor="#f8decb"] ;
610 -> 612 ;
613 [label=<x<SUB>3</SUB> &le; 0.057<br/>squared_error = 0.002<br/>samples = 2<br/>value = -0.517>, fillcolor="#f9e2d1"] ;
607 -> 613 ;
614 [label=<squared_error = 0.0<br/>samples = 1<br/>value = -0.489>, fillcolor="#f9e1d0"] ;
613 -> 614 ;
615 [label=<squared_error = 0.0<br/>samples = 1<br/>value = -0.572>, fillcolor="#f9e3d3"] ;
613 -> 615 ;
616 [label=<x<SUB>5</SUB> &le; 2.655<br/>squared_error = 0.061<br/>samples = 47<br/>value = -1.374>, fillcolor="#fdf3ed"] ;
350 -> 616 ;
617 [label=<x<SUB>6</SUB> &le; 0.484<br/>squared_error = 0.043<br/>samples = 28<br/>value = -1.245>, fillcolor="#fcf1e9"] ;
616 -> 617 ;
618 [label=<x<SUB>4</SUB> &le; -1.578<br/>squared_error = 0.008<br/>samples = 10<br/>value = -1.43>, fillcolor="#fdf4ee"] ;
617 -> 618 ;
619 [label=<x<SUB>3</SUB> &le; -0.65<br/>squared_error = 0.002<br/>samples = 3<br/>value = -1.527>, fillcolor="#fdf6f2"] ;
618 -> 619 ;
620 [label=<squared_error = 0.0<br/>samples = 1<br/>value = -1.461>, fillcolor="#fdf5f0"] ;
619 -> 620 ;
621 [label=<x<SUB>3</SUB> &le; -0.614<br/>squared_error = 0.0<br/>samples = 2<br/>value = -1.549>, fillcolor="#fdf7f2"] ;
619 -> 621 ;
622 [label=<squared_error = 0.0<br/>samples = 1<br/>value = -1.561>, fillcolor="#fdf7f3"] ;
621 -> 622 ;
623 [label=<squared_error = 0.0<br/>samples = 1<br/>value = -1.523>, fillcolor="#fdf6f1"] ;
621 -> 623 ;
624 [label=<x<SUB>3</SUB> &le; 0.884<br/>squared_error = 0.005<br/>samples = 7<br/>value = -1.391>, fillcolor="#fdf4ed"] ;
618 -> 624 ;
625 [label=<x<SUB>5</SUB> &le; 1.924<br/>squared_error = 0.003<br/>samples = 6<br/>value = -1.377>, fillcolor="#fdf3ed"] ;
624 -> 625 ;
626 [label=<x<SUB>6</SUB> &le; 0.026<br/>squared_error = 0.001<br/>samples = 5<br/>value = -1.394>, fillcolor="#fdf4ed"] ;
625 -> 626 ;
627 [label=<x<SUB>0</SUB> &le; -1.125<br/>squared_error = 0.0<br/>samples = 2<br/>value = -1.431>, fillcolor="#fdf5ef"] ;
626 -> 627 ;
628 [label=<squared_error = 0.0<br/>samples = 1<br/>value = -1.412>, fillcolor="#fdf4ee"] ;
627 -> 628 ;
629 [label=<squared_error = 0.0<br/>samples = 1<br/>value = -1.45>, fillcolor="#fdf5ef"] ;
627 -> 629 ;
630 [label=<x<SUB>3</SUB> &le; 0.165<br/>squared_error = 0.001<br/>samples = 3<br/>value = -1.382>, fillcolor="#fdf4ed"] ;
626 -> 630 ;
631 [label=<x<SUB>6</SUB> &le; 0.15<br/>squared_error = 0.0<br/>samples = 2<br/>value = -1.358>, fillcolor="#fdf3ec"] ;
630 -> 631 ;
632 [label=<squared_error = 0.0<br/>samples = 1<br/>value = -1.359>, fillcolor="#fdf3ec"] ;
631 -> 632 ;
633 [label=<squared_error = 0.0<br/>samples = 1<br/>value = -1.356>, fillcolor="#fdf3ec"] ;
631 -> 633 ;
634 [label=<squared_error = 0.0<br/>samples = 1<br/>value = -1.406>, fillcolor="#fdf4ee"] ;
630 -> 634 ;
635 [label=<squared_error = 0.0<br/>samples = 1<br/>value = -1.238>, fillcolor="#fcf1e8"] ;
625 -> 635 ;
636 [label=<squared_error = 0.0<br/>samples = 1<br/>value = -1.52>, fillcolor="#fdf6f1"] ;
624 -> 636 ;
637 [label=<x<SUB>3</SUB> &le; -0.047<br/>squared_error = 0.036<br/>samples = 18<br/>value = -1.152>, fillcolor="#fcefe6"] ;
617 -> 637 ;
638 [label=<x<SUB>4</SUB> &le; -1.177<br/>squared_error = 0.013<br/>samples = 12<br/>value = -1.04>, fillcolor="#fbede2"] ;
637 -> 638 ;
639 [label=<x<SUB>3</SUB> &le; -0.385<br/>squared_error = 0.006<br/>samples = 4<br/>value = -1.174>, fillcolor="#fcefe6"] ;
638 -> 639 ;
640 [label=<squared_error = 0.0<br/>samples = 1<br/>value = -1.312>, fillcolor="#fcf2eb"] ;
639 -> 640 ;
641 [label=<x<SUB>3</SUB> &le; -0.134<br/>squared_error = 0.001<br/>samples = 3<br/>value = -1.139>, fillcolor="#fcefe5"] ;
639 -> 641 ;
642 [label=<x<SUB>0</SUB> &le; -0.567<br/>squared_error = 0.0<br/>samples = 2<br/>value = -1.175>, fillcolor="#fcefe6"] ;
641 -> 642 ;
643 [label=<squared_error = 0.0<br/>samples = 1<br/>value = -1.174>, fillcolor="#fcefe6"] ;
642 -> 643 ;
644 [label=<squared_error = 0.0<br/>samples = 1<br/>value = -1.177>, fillcolor="#fcefe6"] ;
642 -> 644 ;
645 [label=<squared_error = 0.0<br/>samples = 1<br/>value = -1.103>, fillcolor="#fbeee4"] ;
641 -> 645 ;
646 [label=<x<SUB>3</SUB> &le; -0.167<br/>squared_error = 0.007<br/>samples = 8<br/>value = -0.992>, fillcolor="#fbece1"] ;
638 -> 646 ;
647 [label=<x<SUB>6</SUB> &le; 1.179<br/>squared_error = 0.002<br/>samples = 2<br/>value = -0.877>, fillcolor="#fbe9dd"] ;
646 -> 647 ;
648 [label=<squared_error = 0.0<br/>samples = 1<br/>value = -0.924>, fillcolor="#fbeade"] ;
647 -> 648 ;
649 [label=<squared_error = 0.0<br/>samples = 1<br/>value = -0.83>, fillcolor="#fae8db"] ;
647 -> 649 ;
650 [label=<x<SUB>0</SUB> &le; -0.568<br/>squared_error = 0.002<br/>samples = 6<br/>value = -1.039>, fillcolor="#fbede2"] ;
646 -> 650 ;
651 [label=<x<SUB>4</SUB> &le; -1.121<br/>squared_error = 0.001<br/>samples = 2<br/>value = -0.977>, fillcolor="#fbebe0"] ;
650 -> 651 ;
652 [label=<squared_error = 0.0<br/>samples = 1<br/>value = -1.012>, fillcolor="#fbece1"] ;
651 -> 652 ;
653 [label=<squared_error = 0.0<br/>samples = 1<br/>value = -0.942>, fillcolor="#fbebdf"] ;
651 -> 653 ;
654 [label=<x<SUB>4</SUB> &le; -1.132<br/>squared_error = 0.0<br/>samples = 4<br/>value = -1.054>, fillcolor="#fbede2"] ;
650 -> 654 ;
655 [label=<squared_error = 0.0<br/>samples = 1<br/>value = -1.091>, fillcolor="#fbeee4"] ;
654 -> 655 ;
656 [label=<squared_error = 0.0<br/>samples = 3<br/>value = -1.041>, fillcolor="#fbede2"] ;
654 -> 656 ;
657 [label=<x<SUB>3</SUB> &le; 0.152<br/>squared_error = 0.001<br/>samples = 6<br/>value = -1.388>, fillcolor="#fdf4ed"] ;
637 -> 657 ;
658 [label=<x<SUB>0</SUB> &le; -0.567<br/>squared_error = 0.0<br/>samples = 4<br/>value = -1.367>, fillcolor="#fdf3ec"] ;
657 -> 658 ;
659 [label=<x<SUB>3</SUB> &le; 0.104<br/>squared_error = 0.0<br/>samples = 2<br/>value = -1.355>, fillcolor="#fdf3ec"] ;
658 -> 659 ;
660 [label=<squared_error = 0.0<br/>samples = 1<br/>value = -1.344>, fillcolor="#fcf3ec"] ;
659 -> 660 ;
661 [label=<squared_error = 0.0<br/>samples = 1<br/>value = -1.359>, fillcolor="#fdf3ec"] ;
659 -> 661 ;
662 [label=<x<SUB>5</SUB> &le; 1.849<br/>squared_error = 0.0<br/>samples = 2<br/>value = -1.39>, fillcolor="#fdf4ed"] ;
658 -> 662 ;
663 [label=<squared_error = 0.0<br/>samples = 1<br/>value = -1.379>, fillcolor="#fdf3ed"] ;
662 -> 663 ;
664 [label=<squared_error = 0.0<br/>samples = 1<br/>value = -1.4>, fillcolor="#fdf4ee"] ;
662 -> 664 ;
665 [label=<x<SUB>2</SUB> &le; -1.118<br/>squared_error = 0.0<br/>samples = 2<br/>value = -1.431>, fillcolor="#fdf5ef"] ;
657 -> 665 ;
666 [label=<squared_error = 0.0<br/>samples = 1<br/>value = -1.432>, fillcolor="#fdf5ef"] ;
665 -> 666 ;
667 [label=<squared_error = 0.0<br/>samples = 1<br/>value = -1.429>, fillcolor="#fdf4ee"] ;
665 -> 667 ;
668 [label=<x<SUB>5</SUB> &le; 3.879<br/>squared_error = 0.028<br/>samples = 19<br/>value = -1.562>, fillcolor="#fdf7f3"] ;
616 -> 668 ;
669 [label=<x<SUB>1</SUB> &le; -0.655<br/>squared_error = 0.016<br/>samples = 16<br/>value = -1.511>, fillcolor="#fdf6f1"] ;
668 -> 669 ;
670 [label=<squared_error = 0.0<br/>samples = 1<br/>value = -1.197>, fillcolor="#fcf0e7"] ;
669 -> 670 ;
671 [label=<x<SUB>4</SUB> &le; -1.132<br/>squared_error = 0.008<br/>samples = 15<br/>value = -1.54>, fillcolor="#fdf7f2"] ;
669 -> 671 ;
672 [label=<x<SUB>5</SUB> &le; 3.698<br/>squared_error = 0.007<br/>samples = 10<br/>value = -1.506>, fillcolor="#fdf6f1"] ;
671 -> 672 ;
673 [label=<x<SUB>3</SUB> &le; 0.597<br/>squared_error = 0.004<br/>samples = 8<br/>value = -1.468>, fillcolor="#fdf5f0"] ;
672 -> 673 ;
674 [label=<x<SUB>0</SUB> &le; -1.127<br/>squared_error = 0.002<br/>samples = 6<br/>value = -1.441>, fillcolor="#fdf5ef"] ;
673 -> 674 ;
675 [label=<squared_error = 0.0<br/>samples = 1<br/>value = -1.52>, fillcolor="#fdf6f1"] ;
674 -> 675 ;
676 [label=<x<SUB>0</SUB> &le; -0.011<br/>squared_error = 0.001<br/>samples = 5<br/>value = -1.428>, fillcolor="#fdf4ee"] ;
674 -> 676 ;
677 [label=<x<SUB>0</SUB> &le; -0.012<br/>squared_error = 0.0<br/>samples = 4<br/>value = -1.418>, fillcolor="#fdf4ee"] ;
676 -> 677 ;
678 [label=<x<SUB>1</SUB> &le; -0.008<br/>squared_error = 0.0<br/>samples = 3<br/>value = -1.425>, fillcolor="#fdf4ee"] ;
677 -> 678 ;
679 [label=<squared_error = 0.0<br/>samples = 1<br/>value = -1.453>, fillcolor="#fdf5ef"] ;
678 -> 679 ;
680 [label=<x<SUB>5</SUB> &le; 3.322<br/>squared_error = 0.0<br/>samples = 2<br/>value = -1.415>, fillcolor="#fdf4ee"] ;
678 -> 680 ;
681 [label=<squared_error = 0.0<br/>samples = 1<br/>value = -1.412>, fillcolor="#fdf4ee"] ;
680 -> 681 ;
682 [label=<squared_error = 0.0<br/>samples = 1<br/>value = -1.417>, fillcolor="#fdf4ee"] ;
680 -> 682 ;
683 [label=<squared_error = -0.0<br/>samples = 1<br/>value = -1.391>, fillcolor="#fdf4ed"] ;
677 -> 683 ;
684 [label=<squared_error = 0.0<br/>samples = 1<br/>value = -1.476>, fillcolor="#fdf5f0"] ;
676 -> 684 ;
685 [label=<x<SUB>5</SUB> &le; 3.358<br/>squared_error = 0.002<br/>samples = 2<br/>value = -1.564>, fillcolor="#fdf7f3"] ;
673 -> 685 ;
686 [label=<squared_error = 0.0<br/>samples = 1<br/>value = -1.517>, fillcolor="#fdf6f1"] ;
685 -> 686 ;
687 [label=<squared_error = 0.0<br/>samples = 1<br/>value = -1.611>, fillcolor="#fef8f4"] ;
685 -> 687 ;
688 [label=<x<SUB>0</SUB> &le; -0.845<br/>squared_error = 0.001<br/>samples = 2<br/>value = -1.592>, fillcolor="#fef8f4"] ;
672 -> 688 ;
689 [label=<squared_error = 0.0<br/>samples = 1<br/>value = -1.567>, fillcolor="#fdf7f3"] ;
688 -> 689 ;
690 [label=<squared_error = -0.0<br/>samples = 1<br/>value = -1.617>, fillcolor="#fef8f4"] ;
688 -> 690 ;
691 [label=<x<SUB>6</SUB> &le; 1.969<br/>squared_error = 0.005<br/>samples = 5<br/>value = -1.588>, fillcolor="#fdf8f4"] ;
671 -> 691 ;
692 [label=<x<SUB>6</SUB> &le; 1.565<br/>squared_error = 0.001<br/>samples = 2<br/>value = -1.657>, fillcolor="#fef9f6"] ;
691 -> 692 ;
693 [label=<squared_error = 0.0<br/>samples = 1<br/>value = -1.638>, fillcolor="#fef9f5"] ;
692 -> 693 ;
694 [label=<squared_error = -0.0<br/>samples = 1<br/>value = -1.714>, fillcolor="#fefaf8"] ;
692 -> 694 ;
695 [label=<x<SUB>3</SUB> &le; -0.463<br/>squared_error = 0.002<br/>samples = 3<br/>value = -1.533>, fillcolor="#fdf7f2"] ;
691 -> 695 ;
696 [label=<squared_error = 0.0<br/>samples = 1<br/>value = -1.45>, fillcolor="#fdf5ef"] ;
695 -> 696 ;
697 [label=<x<SUB>0</SUB> &le; -0.846<br/>squared_error = 0.0<br/>samples = 2<br/>value = -1.553>, fillcolor="#fdf7f2"] ;
695 -> 697 ;
698 [label=<squared_error = 0.0<br/>samples = 1<br/>value = -1.555>, fillcolor="#fdf7f3"] ;
697 -> 698 ;
699 [label=<squared_error = -0.0<br/>samples = 1<br/>value = -1.553>, fillcolor="#fdf7f2"] ;
697 -> 699 ;
700 [label=<x<SUB>6</SUB> &le; 10.828<br/>squared_error = 0.014<br/>samples = 3<br/>value = -1.803>, fillcolor="#fefcfa"] ;
668 -> 700 ;
701 [label=<x<SUB>1</SUB> &le; 0.294<br/>squared_error = 0.0<br/>samples = 2<br/>value = -1.708>, fillcolor="#fefaf7"] ;
700 -> 701 ;
702 [label=<squared_error = 0.0<br/>samples = 1<br/>value = -1.694>, fillcolor="#fefaf7"] ;
701 -> 702 ;
703 [label=<squared_error = -0.0<br/>samples = 1<br/>value = -1.738>, fillcolor="#fefbf8"] ;
701 -> 703 ;
704 [label=<squared_error = 0.0<br/>samples = 1<br/>value = -1.946>, fillcolor="#ffffff"] ;
700 -> 704 ;
705 [label=<x<SUB>4</SUB> &le; -0.174<br/>squared_error = 0.043<br/>samples = 10<br/>value = 0.293>, fillcolor="#f6d1b7"] ;
349 -> 705 ;
706 [label=<x<SUB>0</SUB> &le; 0.823<br/>squared_error = 0.018<br/>samples = 6<br/>value = 0.138>, fillcolor="#f6d5bc"] ;
705 -> 706 ;
707 [label=<squared_error = 0.0<br/>samples = 1<br/>value = -0.16>, fillcolor="#f8dbc6"] ;
706 -> 707 ;
708 [label=<x<SUB>6</SUB> &le; -1.082<br/>squared_error = 0.003<br/>samples = 5<br/>value = 0.187>, fillcolor="#f6d4bb"] ;
706 -> 708 ;
709 [label=<squared_error = 0.0<br/>samples = 1<br/>value = 0.075>, fillcolor="#f7d6be"] ;
708 -> 709 ;
710 [label=<x<SUB>5</SUB> &le; 1.049<br/>squared_error = 0.001<br/>samples = 4<br/>value = 0.21>, fillcolor="#f6d3ba"] ;
708 -> 710 ;
711 [label=<x<SUB>0</SUB> &le; 0.962<br/>squared_error = 0.0<br/>samples = 2<br/>value = 0.231>, fillcolor="#f6d3b9"] ;
710 -> 711 ;
712 [label=<squared_error = 0.0<br/>samples = 1<br/>value = 0.251>, fillcolor="#f6d2b9"] ;
711 -> 712 ;
713 [label=<squared_error = 0.0<br/>samples = 1<br/>value = 0.221>, fillcolor="#f6d3ba"] ;
711 -> 713 ;
714 [label=<x<SUB>4</SUB> &le; -0.207<br/>squared_error = 0.0<br/>samples = 2<br/>value = 0.177>, fillcolor="#f6d4bb"] ;
710 -> 714 ;
715 [label=<squared_error = 0.0<br/>samples = 1<br/>value = 0.163>, fillcolor="#f6d4bc"] ;
714 -> 715 ;
716 [label=<squared_error = 0.0<br/>samples = 1<br/>value = 0.192>, fillcolor="#f6d4bb"] ;
714 -> 716 ;
717 [label=<x<SUB>0</SUB> &le; 1.106<br/>squared_error = 0.02<br/>samples = 4<br/>value = 0.448>, fillcolor="#f5ceb2"] ;
705 -> 717 ;
718 [label=<x<SUB>3</SUB> &le; 1.592<br/>squared_error = 0.005<br/>samples = 2<br/>value = 0.584>, fillcolor="#f4ccae"] ;
717 -> 718 ;
719 [label=<squared_error = 0.0<br/>samples = 1<br/>value = 0.633>, fillcolor="#f4cbad"] ;
718 -> 719 ;
720 [label=<squared_error = -0.0<br/>samples = 1<br/>value = 0.486>, fillcolor="#f5ceb1"] ;
718 -> 720 ;
721 [label=<x<SUB>2</SUB> &le; 0.51<br/>squared_error = 0.008<br/>samples = 2<br/>value = 0.346>, fillcolor="#f5d0b6"] ;
717 -> 721 ;
722 [label=<squared_error = 0.0<br/>samples = 1<br/>value = 0.192>, fillcolor="#f6d4bb"] ;
721 -> 722 ;
723 [label=<squared_error = 0.0<br/>samples = 1<br/>value = 0.398>, fillcolor="#f5cfb4"] ;
721 -> 723 ;
724 [label=<x<SUB>0</SUB> &le; 1.929<br/>squared_error = 0.846<br/>samples = 383<br/>value = 0.758>, fillcolor="#f4c8a9"] ;
0 -> 724 [labeldistance=2.5, labelangle=-45, headlabel="False"] ;
725 [label=<x<SUB>0</SUB> &le; 0.826<br/>squared_error = 0.376<br/>samples = 334<br/>value = 0.509>, fillcolor="#f5cdb1"] ;
724 -> 725 ;
726 [label=<x<SUB>4</SUB> &le; 0.629<br/>squared_error = 0.301<br/>samples = 264<br/>value = 0.371>, fillcolor="#f5d0b5"] ;
725 -> 726 ;
727 [label=<x<SUB>1</SUB> &le; -1.129<br/>squared_error = 0.242<br/>samples = 158<br/>value = 0.146>, fillcolor="#f6d4bc"] ;
726 -> 727 ;
728 [label=<x<SUB>0</SUB> &le; 0.543<br/>squared_error = 0.013<br/>samples = 11<br/>value = -0.57>, fillcolor="#f9e3d3"] ;
727 -> 728 ;
729 [label=<x<SUB>4</SUB> &le; 0.094<br/>squared_error = 0.0<br/>samples = 2<br/>value = -0.726>, fillcolor="#fae6d8"] ;
728 -> 729 ;
730 [label=<squared_error = 0.0<br/>samples = 1<br/>value = -0.715>, fillcolor="#fae6d8"] ;
729 -> 730 ;
731 [label=<squared_error = 0.0<br/>samples = 1<br/>value = -0.733>, fillcolor="#fae6d8"] ;
729 -> 731 ;
732 [label=<x<SUB>0</SUB> &le; 0.544<br/>squared_error = 0.006<br/>samples = 9<br/>value = -0.518>, fillcolor="#f9e2d1"] ;
728 -> 732 ;
733 [label=<squared_error = -0.0<br/>samples = 2<br/>value = -0.425>, fillcolor="#f9e0ce"] ;
732 -> 733 ;
734 [label=<x<SUB>5</SUB> &le; -0.775<br/>squared_error = 0.005<br/>samples = 7<br/>value = -0.541>, fillcolor="#f9e2d2"] ;
732 -> 734 ;
735 [label=<squared_error = 0.0<br/>samples = 1<br/>value = -0.366>, fillcolor="#f8dfcc"] ;
734 -> 735 ;
736 [label=<x<SUB>3</SUB> &le; 1.281<br/>squared_error = 0.002<br/>samples = 6<br/>value = -0.557>, fillcolor="#f9e3d3"] ;
734 -> 736 ;
737 [label=<x<SUB>3</SUB> &le; 1.036<br/>squared_error = 0.001<br/>samples = 5<br/>value = -0.544>, fillcolor="#f9e2d2"] ;
736 -> 737 ;
738 [label=<x<SUB>0</SUB> &le; 0.546<br/>squared_error = 0.0<br/>samples = 2<br/>value = -0.576>, fillcolor="#f9e3d3"] ;
737 -> 738 ;
739 [label=<squared_error = 0.0<br/>samples = 1<br/>value = -0.598>, fillcolor="#f9e4d4"] ;
738 -> 739 ;
740 [label=<squared_error = -0.0<br/>samples = 1<br/>value = -0.566>, fillcolor="#f9e3d3"] ;
738 -> 740 ;
741 [label=<x<SUB>3</SUB> &le; 1.127<br/>squared_error = 0.0<br/>samples = 3<br/>value = -0.53>, fillcolor="#f9e2d2"] ;
737 -> 741 ;
742 [label=<squared_error = 0.0<br/>samples = 1<br/>value = -0.542>, fillcolor="#f9e2d2"] ;
741 -> 742 ;
743 [label=<squared_error = 0.0<br/>samples = 2<br/>value = -0.513>, fillcolor="#f9e2d1"] ;
741 -> 743 ;
744 [label=<squared_error = 0.0<br/>samples = 1<br/>value = -0.689>, fillcolor="#fae5d7"] ;
736 -> 744 ;
745 [label=<x<SUB>2</SUB> &le; 0.814<br/>squared_error = 0.214<br/>samples = 147<br/>value = 0.209>, fillcolor="#f6d3ba"] ;
727 -> 745 ;
746 [label=<x<SUB>1</SUB> &le; 1.416<br/>squared_error = 0.128<br/>samples = 106<br/>value = 0.031>, fillcolor="#f7d7c0"] ;
745 -> 746 ;
747 [label=<x<SUB>0</SUB> &le; -0.566<br/>squared_error = 0.108<br/>samples = 94<br/>value = -0.023>, fillcolor="#f7d8c2"] ;
746 -> 747 ;
748 [label=<x<SUB>5</SUB> &le; -0.073<br/>squared_error = 0.067<br/>samples = 45<br/>value = -0.182>, fillcolor="#f8dbc7"] ;
747 -> 748 ;
749 [label=<x<SUB>0</SUB> &le; -1.124<br/>squared_error = 0.023<br/>samples = 39<br/>value = -0.111>, fillcolor="#f7dac4"] ;
748 -> 749 ;
750 [label=<x<SUB>6</SUB> &le; 1.228<br/>squared_error = 0.014<br/>samples = 14<br/>value = 0.028>, fillcolor="#f7d7c0"] ;
749 -> 750 ;
751 [label=<x<SUB>0</SUB> &le; -1.125<br/>squared_error = 0.001<br/>samples = 7<br/>value = 0.141>, fillcolor="#f6d5bc"] ;
750 -> 751 ;
752 [label=<x<SUB>5</SUB> &le; -0.64<br/>squared_error = 0.0<br/>samples = 2<br/>value = 0.177>, fillcolor="#f6d4bb"] ;
751 -> 752 ;
753 [label=<squared_error = 0.0<br/>samples = 1<br/>value = 0.166>, fillcolor="#f6d4bb"] ;
752 -> 753 ;
754 [label=<squared_error = 0.0<br/>samples = 1<br/>value = 0.183>, fillcolor="#f6d4bb"] ;
752 -> 754 ;
755 [label=<x<SUB>6</SUB> &le; 1.158<br/>squared_error = 0.0<br/>samples = 5<br/>value = 0.122>, fillcolor="#f6d5bd"] ;
751 -> 755 ;
756 [label=<x<SUB>0</SUB> &le; -1.124<br/>squared_error = 0.0<br/>samples = 2<br/>value = 0.139>, fillcolor="#f6d5bc"] ;
755 -> 756 ;
757 [label=<squared_error = 0.0<br/>samples = 1<br/>value = 0.133>, fillcolor="#f6d5bd"] ;
756 -> 757 ;
758 [label=<squared_error = -0.0<br/>samples = 1<br/>value = 0.145>, fillcolor="#f6d4bc"] ;
756 -> 758 ;
759 [label=<x<SUB>6</SUB> &le; 1.2<br/>squared_error = 0.0<br/>samples = 3<br/>value = 0.114>, fillcolor="#f6d5bd"] ;
755 -> 759 ;
760 [label=<squared_error = 0.0<br/>samples = 2<br/>value = 0.116>, fillcolor="#f6d5bd"] ;
759 -> 760 ;
761 [label=<squared_error = -0.0<br/>samples = 1<br/>value = 0.107>, fillcolor="#f6d5bd"] ;
759 -> 761 ;
762 [label=<x<SUB>4</SUB> &le; 0.228<br/>squared_error = 0.006<br/>samples = 7<br/>value = -0.064>, fillcolor="#f7d9c3"] ;
750 -> 762 ;
763 [label=<x<SUB>3</SUB> &le; -1.403<br/>squared_error = 0.0<br/>samples = 5<br/>value = -0.126>, fillcolor="#f7dac5"] ;
762 -> 763 ;
764 [label=<x<SUB>2</SUB> &le; -0.9<br/>squared_error = 0.0<br/>samples = 4<br/>value = -0.138>, fillcolor="#f7dac5"] ;
763 -> 764 ;
765 [label=<squared_error = 0.0<br/>samples = 1<br/>value = -0.16>, fillcolor="#f8dbc6"] ;
764 -> 765 ;
766 [label=<squared_error = 0.0<br/>samples = 3<br/>value = -0.131>, fillcolor="#f7dac5"] ;
764 -> 766 ;
767 [label=<squared_error = 0.0<br/>samples = 1<br/>value = -0.102>, fillcolor="#f7d9c4"] ;
763 -> 767 ;
768 [label=<x<SUB>3</SUB> &le; -1.197<br/>squared_error = 0.002<br/>samples = 2<br/>value = 0.011>, fillcolor="#f7d7c0"] ;
762 -> 768 ;
769 [label=<squared_error = 0.0<br/>samples = 1<br/>value = -0.011>, fillcolor="#f7d8c1"] ;
768 -> 769 ;
770 [label=<squared_error = 0.0<br/>samples = 1<br/>value = 0.098>, fillcolor="#f6d5be"] ;
768 -> 770 ;
771 [label=<x<SUB>6</SUB> &le; 0.096<br/>squared_error = 0.014<br/>samples = 25<br/>value = -0.175>, fillcolor="#f8dbc6"] ;
749 -> 771 ;
772 [label=<x<SUB>6</SUB> &le; -0.027<br/>squared_error = 0.0<br/>samples = 2<br/>value = 0.046>, fillcolor="#f7d6bf"] ;
771 -> 772 ;
773 [label=<squared_error = 0.0<br/>samples = 1<br/>value = 0.057>, fillcolor="#f7d6bf"] ;
772 -> 773 ;
774 [label=<squared_error = 0.0<br/>samples = 1<br/>value = 0.031>, fillcolor="#f7d7c0"] ;
772 -> 774 ;
775 [label=<x<SUB>5</SUB> &le; -0.7<br/>squared_error = 0.009<br/>samples = 23<br/>value = -0.203>, fillcolor="#f8dcc7"] ;
771 -> 775 ;
776 [label=<x<SUB>0</SUB> &le; -1.123<br/>squared_error = 0.003<br/>samples = 14<br/>value = -0.159>, fillcolor="#f8dbc6"] ;
775 -> 776 ;
777 [label=<x<SUB>3</SUB> &le; -1.404<br/>squared_error = 0.0<br/>samples = 6<br/>value = -0.124>, fillcolor="#f7dac5"] ;
776 -> 777 ;
778 [label=<x<SUB>3</SUB> &le; -1.43<br/>squared_error = 0.0<br/>samples = 4<br/>value = -0.137>, fillcolor="#f7dac5"] ;
777 -> 778 ;
779 [label=<squared_error = 0.0<br/>samples = 1<br/>value = -0.16>, fillcolor="#f8dbc6"] ;
778 -> 779 ;
780 [label=<squared_error = 0.0<br/>samples = 3<br/>value = -0.131>, fillcolor="#f7dac5"] ;
778 -> 780 ;
781 [label=<squared_error = 0.0<br/>samples = 2<br/>value = -0.102>, fillcolor="#f7d9c4"] ;
777 -> 781 ;
782 [label=<x<SUB>5</SUB> &le; -0.708<br/>squared_error = 0.004<br/>samples = 8<br/>value = -0.18>, fillcolor="#f8dbc7"] ;
776 -> 782 ;
783 [label=<squared_error = 0.0<br/>samples = 1<br/>value = -0.322>, fillcolor="#f8decb"] ;
782 -> 783 ;
784 [label=<x<SUB>0</SUB> &le; -0.566<br/>squared_error = 0.001<br/>samples = 7<br/>value = -0.156>, fillcolor="#f7dbc6"] ;
782 -> 784 ;
785 [label=<x<SUB>2</SUB> &le; -0.185<br/>squared_error = 0.0<br/>samples = 6<br/>value = -0.146>, fillcolor="#f7dac5"] ;
784 -> 785 ;
786 [label=<squared_error = 0.0<br/>samples = 3<br/>value = -0.16>, fillcolor="#f8dbc6"] ;
785 -> 786 ;
787 [label=<x<SUB>3</SUB> &le; -0.434<br/>squared_error = 0.0<br/>samples = 3<br/>value = -0.124>, fillcolor="#f7dac5"] ;
785 -> 787 ;
788 [label=<squared_error = 0.0<br/>samples = 2<br/>value = -0.131>, fillcolor="#f7dac5"] ;
787 -> 788 ;
789 [label=<squared_error = 0.0<br/>samples = 1<br/>value = -0.102>, fillcolor="#f7d9c4"] ;
787 -> 789 ;
790 [label=<squared_error = -0.0<br/>samples = 1<br/>value = -0.207>, fillcolor="#f8dcc7"] ;
784 -> 790 ;
791 [label=<x<SUB>3</SUB> &le; -0.46<br/>squared_error = 0.01<br/>samples = 9<br/>value = -0.26>, fillcolor="#f8ddc9"] ;
775 -> 791 ;
792 [label=<x<SUB>2</SUB> &le; -0.728<br/>squared_error = 0.007<br/>samples = 8<br/>value = -0.287>, fillcolor="#f8ddca"] ;
791 -> 792 ;
793 [label=<squared_error = 0.0<br/>samples = 2<br/>value = -0.16>, fillcolor="#f8dbc6"] ;
792 -> 793 ;
794 [label=<x<SUB>3</SUB> &le; -0.627<br/>squared_error = 0.001<br/>samples = 6<br/>value = -0.338>, fillcolor="#f8decc"] ;
792 -> 794 ;
795 [label=<x<SUB>0</SUB> &le; -0.568<br/>squared_error = 0.0<br/>samples = 4<br/>value = -0.372>, fillcolor="#f8dfcd"] ;
794 -> 795 ;
796 [label=<x<SUB>0</SUB> &le; -0.568<br/>squared_error = 0.0<br/>samples = 3<br/>value = -0.366>, fillcolor="#f8dfcc"] ;
795 -> 796 ;
797 [label=<x<SUB>5</SUB> &le; -0.665<br/>squared_error = 0.0<br/>samples = 2<br/>value = -0.364>, fillcolor="#f8dfcc"] ;
796 -> 797 ;
798 [label=<squared_error = 0.0<br/>samples = 1<br/>value = -0.363>, fillcolor="#f8dfcc"] ;
797 -> 798 ;
799 [label=<squared_error = 0.0<br/>samples = 1<br/>value = -0.366>, fillcolor="#f8dfcc"] ;
797 -> 799 ;
800 [label=<squared_error = -0.0<br/>samples = 1<br/>value = -0.372>, fillcolor="#f8dfcd"] ;
796 -> 800 ;
801 [label=<squared_error = -0.0<br/>samples = 1<br/>value = -0.395>, fillcolor="#f8dfcd"] ;
795 -> 801 ;
802 [label=<x<SUB>4</SUB> &le; 0.451<br/>squared_error = 0.0<br/>samples = 2<br/>value = -0.304>, fillcolor="#f8decb"] ;
794 -> 802 ;
803 [label=<squared_error = 0.0<br/>samples = 1<br/>value = -0.29>, fillcolor="#f8ddca"] ;
802 -> 803 ;
804 [label=<squared_error = 0.0<br/>samples = 1<br/>value = -0.313>, fillcolor="#f8decb"] ;
802 -> 804 ;
805 [label=<squared_error = 0.0<br/>samples = 1<br/>value = -0.131>, fillcolor="#f7dac5"] ;
791 -> 805 ;
806 [label=<x<SUB>4</SUB> &le; 0.072<br/>squared_error = 0.001<br/>samples = 6<br/>value = -0.83>, fillcolor="#fae8db"] ;
748 -> 806 ;
807 [label=<x<SUB>3</SUB> &le; 0.036<br/>squared_error = 0.001<br/>samples = 3<br/>value = -0.857>, fillcolor="#fae9dc"] ;
806 -> 807 ;
808 [label=<x<SUB>0</SUB> &le; -0.568<br/>squared_error = 0.0<br/>samples = 2<br/>value = -0.844>, fillcolor="#fae9dc"] ;
807 -> 808 ;
809 [label=<squared_error = 0.0<br/>samples = 1<br/>value = -0.824>, fillcolor="#fae8db"] ;
808 -> 809 ;
810 [label=<squared_error = -0.0<br/>samples = 1<br/>value = -0.853>, fillcolor="#fae9dc"] ;
808 -> 810 ;
811 [label=<squared_error = 0.0<br/>samples = 1<br/>value = -0.898>, fillcolor="#fbeadd"] ;
807 -> 811 ;
812 [label=<x<SUB>1</SUB> &le; 1.201<br/>squared_error = 0.0<br/>samples = 3<br/>value = -0.794>, fillcolor="#fae8da"] ;
806 -> 812 ;
813 [label=<x<SUB>4</SUB> &le; 0.15<br/>squared_error = 0.0<br/>samples = 2<br/>value = -0.802>, fillcolor="#fae8da"] ;
812 -> 813 ;
814 [label=<squared_error = 0.0<br/>samples = 1<br/>value = -0.798>, fillcolor="#fae8da"] ;
813 -> 814 ;
815 [label=<squared_error = 0.0<br/>samples = 1<br/>value = -0.807>, fillcolor="#fae8db"] ;
813 -> 815 ;
816 [label=<squared_error = 0.0<br/>samples = 1<br/>value = -0.777>, fillcolor="#fae7da"] ;
812 -> 816 ;
